tree
version=v4
num_class=1
num_tree_per_iteration=1
label_index=0
max_feature_idx=20
objective=quantile
feature_names=pm2_5 pm2_5_lag1 pm2_5_lag3 pm2_5_lag6 pm2_5_lag12 pm2_5_lag24 pm2_5_mean6 pm2_5_mean24 pm10 o3 no2 temp_c rh_pct wind_kmh wind_dir precip_mm boundary_layer_m hour_sin hour_cos dow_sin dow_cos
feature_infos=[0.10000000000000001:22.899999999999999] [0.10000000000000001:22.899999999999999] [0.10000000000000001:22.899999999999999] [0.10000000000000001:22.899999999999999] [0.10000000000000001:22.899999999999999] [0.10000000000000001:22.899999999999999] [0.14999999999999999:21.666666666666668] [0.67499999999999993:18.516666666666666] [0.10000000000000001:38.600000000000001] [37:139] [0:19.399999999999999] [-3.7999999999999998:25.600000000000001] [15:100] [0.5:33.399999999999999] [1:360] [0:1.8] [10:3610] [-1:1] [-1:1] [-0.97492791218182362:0.97492791218182362] [-0.90096886790241903:1]
tree_sizes=1340 1596 1683 1758 1512 1589 1424 1683 1591 1685 1672 1669 1690 1786 1872 1516 1863 1850 1771 1773 1699 1945 1766 1855 1866 1775 1940 1956 1853 1786 1845 1841 1845 2089 1964 2128 2118 1863 2022 2027 2109 2019 1948 2120 2207 2188 1860 2105 2298 2108 2027 2040 2032 2120 2096 2114 2252 2109 2272 2291 2306 2209 2022 2380 2115 2191 2131 2314 2210 2286 2229 2288 2109 2136 2200 2227 1966 2313 2294 2292 2221 2141 2135 2556 2121 2279 2201 2123 2397 2218 2366 2393 2391 2194 2462 2467 2374 2367 2556 2127 2280 2480 2473 2206 2470 2397 2408 2306 2240 2725 2312 2393 2298 2809 2304 2325 2570 2313 2292 2394 2401 2554 2489 2395 2575 2466 2473 2479 2387 2736 2142 2643 2477 2566 2474 2239 2500 2342 2384 2570 2575 2564 2635 2656 2410 2645 2300 2512 2654 2657 2578 2501 2403 2491 2664 2497 2500 2412 2578 2464 2574 2499 2423 2558 2804 2485 2592 2422 2485 2590 2573 2398 2648 2503 2480 2667 2512 2492 2581 2397 2501 2525 2552 2558 2579 2726 2552 2671 2540 2678 2570 2736 2758 2588 2500 2474 2474 2492 2642 2739 2647 2590 2831 2670 2503 2668 2629 2408 2637 2572 2576 2657 2830 2339 2497 2588 2742 2555 2505 2836 2492 2502 2588 2581 2757 2507 2492 2411 2487 2581 2241 2572 2663 2484 2399 2425 2505 2580 2401 2222 2237 2645 2421 2333 2321 2373 2380 2363 2443 2338 2471 2400 2481 2322 2225 2589 2583 2590 2513 2497 2495 2671 2314 2427 2575 2326 2504 2467 2560 2424 2862 2832 2669 2761 2822 2827 2669 2767 2829 2644 2673 2656 2575 2736 2560 2863 2757 2671 2661 2871 2586 2754 2740 2559 2835 2750 2692 2795 2519 2664 2683 2844 2591 2663 2756 2845 2861 2857 2854 2771 2650 2761 2663 2573 2693 2844 2733 2588 2732 2829 2679 2819 2838 2847 2828 2844 2844 2830 2848 2836 2483 2756 2696 2508 2582 2873 2596 2499 2503 2608 2672 2847 2867 2416 2677 2431 2672 2860 2504 2705 2604 2403 2575 2847 2642 2750 2849 2759 2507 2681 2761 2644 2587 2566 2572 2483 2509 2471 2496 2431 2577 2429 2338 2404 2601 2749 2578 2730 2579 2573 2575 2649 2607 2670 2603 2603 2589 2747 2404 2409 2658 2754 2587 2511 2591 2589 2459 2555 2754 2573 2236 2427 2418 2588 2340 2490 2656 2743 2594 2667 2574 2598 2833 2467 2686 2408 2752 2494 2655 2669 2574 2529 2515 2843 2335 2684 2753 2572 2767 2738 2562 2580 2587 2580 2594 2481 2602 2507 2659 2823 2854 2757 2759 2780 2600 2596 2819 2581 2603 2859 2660 2832 2588 2598 2664 2765 2769 2490 2413 2679 2597 2848 2837 2667 2579 2751 2774 2510 2762 2699 2744 2737 2776 2779 2637 2858 2570 2857 2823 2869 2750 2758 2664 2667 2837 2857 2675 2671 2830 2738 2664 2631 2777 2511 2836 2834 2763 2687 2848 2867

Tree=0
num_leaves=15
num_cat=0
split_feature=8 18 19 13 11 1 8 5 17 8 12 8 9 14
split_gain=21.8728 9.94418 3.72806 2.98241 2.61106 1.66414 0.766932 3.29623 0.287199 0.362381 0.189006 0.342063 0.205535 0.0341299
threshold=3.0500000000000003 -0.12940952255126037 1.0000000180025095e-35 17.800000000000001 6.2500000000000009 0.95000000000000007 4.6500000000000012 4.7500000000000009 -0.9159756150367534 8.0500000000000025 66.500000000000014 6.8500000000000005 66.500000000000014 296.50000000000006
decision_type=2 2 2 2 2 2 2 2 2 2 2 2 2 2
left_child=1 4 -3 6 -1 -4 7 -2 9 -8 13 -12 -13 -10
right_child=3 2 5 -5 -6 -7 8 -9 10 -11 11 12 -14 -15
leaf_value=1.5760000228881836 1.6160000228881837 1.6204000198900703 1.5608000235080719 1.5600000238418579 1.5480000233650208 1.5716000222504138 1.6000000238418579 1.5560000228881836 1.6600000190734863 1.6604000262081622 1.5896000231146812 1.6184000230789184 1.6472000223875041 1.636800023984909
leaf_weight=29 71 42 25 32 41 30 31 26 472 48 28 33 109 25
leaf_count=29 71 42 25 32 41 30 31 26 472 48 28 33 109 25
internal_value=1.59982 1.5866 1.59498 1.60235 1.57521 1.58821 1.60281 1.59947 1.60325 1.60095 1.60351 1.60234 1.60313 1.60391
internal_weight=1042 167 97 875 70 55 843 97 746 79 667 170 142 497
internal_count=1042 167 97 875 70 55 843 97 746 79 667 170 142 497
is_linear=0
shrinkage=1


Tree=1
num_leaves=17
num_cat=0
split_feature=0 9 5 17 3 13 9 5 2 0 5 17 9 14 4 10
split_gain=16.7608 9.47496 7.627 4.90269 3.11894 0.78608 0.540315 0.25354 1.48199 0.222578 0.113139 0.0524218 0.0797669 0.0336132 0.0275873 0.0243285
threshold=2.8500000000000001 74.500000000000014 4.1500000000000012 -0.25881904510252113 1.5500000000000003 15.550000000000002 95.500000000000014 7.3500000000000005 4.5500000000000007 5.5500000000000007 16.700000000000006 -0.9159756150367534 97.500000000000014 296.50000000000006 2.7500000000000004 1.7500000000000002
decision_type=2 2 2 2 2 2 2 2 2 2 2 2 2 2 2 2
left_child=1 -1 4 6 -3 7 -4 11 -9 -10 14 12 -2 -13 -11 -6
right_child=5 2 3 -5 15 -7 -8 8 9 10 -12 13 -14 -15 -16 -17
leaf_value=-0.047120000463724152 0.015324799184465495 -0.030464000371456211 -0.045920000696182253 -0.041227200455760907 0.059742396258545542 -0.0045552005041598681 -0.029600001406669633 -0.023833600927162166 0.00055999991297725591 0.10400000091791213 0.064665600074100354 0.037753595674800806 0.0025504009832859106 0.039667197616195742 0.049804803139114354 0.0033600009918212858
leaf_weight=28 29 32 25 34 72 44 27 25 28 27 27 384 25 25 185 25
leaf_count=28 29 32 25 34 72 44 27 25 28 27 27 384 25 25 185 25
internal_value=4.60212e-05 -0.00913115 -0.0062037 -0.0153563 -3.07691e-05 0.002845 -0.00739623 0.00314815 0.0022116 0.00308955 0.00348333 0.00373276 0.00247273 0.00389268 0.00379343 0.00355102
internal_weight=1042 243 215 86 129 799 52 755 292 267 239 463 54 409 212 97
internal_count=1042 243 215 86 129 799 52 755 292 267 239 463 54 409 212 97
is_linear=0
shrinkage=0.04


Tree=2
num_leaves=18
num_cat=0
split_feature=1 18 7 19 13 17 13 1 9 5 14 7 17 3 3 3 2
split_gain=14.1232 10.2394 10.2168 3.5887 3.35542 2.62844 1.2325 0.715797 3.53276 0.18461 0.106112 0.121733 0.101249 0.221032 0.0224698 0.00950783 0.0148718
threshold=2.7500000000000004 -0.12940952255126037 2.9916666666666667 1.0000000180025095e-35 20.250000000000004 -1.0000000180025095e-35 16.150000000000002 3.8500000000000001 84.500000000000014 16.050000000000004 299.00000000000006 12.57291666666667 -0.78656609248549292 6.9500000000000011 8.7500000000000018 11.050000000000002 13.050000000000002
decision_type=2 2 2 2 2 2 2 2 2 2 2 2 2 2 2 2 2
left_child=1 2 -1 -3 5 -5 7 8 -2 10 11 12 13 -9 -15 -14 -17
right_child=6 3 -4 4 -6 -7 -8 9 -10 -11 -12 -13 15 14 -16 16 -18
leaf_value=-0.00027091291637039384 -0.025507200292348878 0.044794301819472269 -0.048035200439214706 0.041792635383901607 -0.039214720285682639 -0.018782912296243629 -0.038817433638253365 -0.0044024072089297542 0.043001982894461319 0.0291445782690695 0.005339455380313802 0.085797834954835381 0.040345857575385981 0.0049710050769462642 0.064444750232963199 0.019301833273030918 0.14355021166986912
leaf_weight=31 25 71 47 37 26 26 29 25 77 33 26 25 426 25 59 25 29
leaf_count=31 25 71 47 37 26 26 29 25 77 33 26 25 426 25 59 25 29
internal_value=-3.06806e-05 -0.00856904 -0.0203544 -0.00273292 -0.00804444 -0.0029375 0.00250435 0.00280928 -0.000310679 0.0032819 0.00343214 0.00353821 0.00365424 0.00250909 0.00348235 0.00390852 0.0032
internal_weight=1042 238 78 160 89 63 804 775 102 673 640 614 589 109 84 480 54
internal_count=1042 238 78 160 89 63 804 775 102 673 640 614 589 109 84 480 54
is_linear=0
shrinkage=0.04


Tree=3
num_leaves=19
num_cat=0
split_feature=8 18 11 19 13 1 8 9 17 16 10 7 8 13 8 13 3 3
split_gain=19.7879 7.7975 3.8806 3.72806 3.07487 1.66414 0.410574 1.23851 0.162306 0.180852 0.181161 0.106281 0.181997 0.0854173 0.0749374 0.0292155 0.00759543 0.0169802
threshold=3.0500000000000003 -0.12940952255126037 6.2500000000000009 1.0000000180025095e-35 17.800000000000001 0.95000000000000007 4.2500000000000009 89.500000000000014 -0.9159756150367534 500.00000000000006 1.9500000000000002 11.693750000000001 18.150000000000002 2.9500000000000006 4.9500000000000011 14.550000000000002 11.050000000000002 12.500000000000002
decision_type=2 2 2 2 2 2 2 2 2 2 2 2 2 2 2 2 2 2
left_child=1 2 -1 -3 6 -5 7 -2 9 -8 -11 13 -13 -10 -15 16 -16 -18
right_child=4 3 -4 5 -6 -7 8 -9 11 10 -12 12 -14 14 15 -17 17 -19
leaf_value=-0.01946950487972832 -0.03990592083217049 0.017793120181944039 -0.046113792421646121 -0.034672640277403237 -0.036563326237093248 -0.024476852701500757 0.021084607733956661 0.027789397201469796 0.025767147310157466 0.0044231230642898835 -0.00052899932073871298 -0.012488406626372059 0.19937589702732098 0.014636021209612826 0.043163703717712935 0.014245298938395917 0.016207474589001201 0.10275495524431083
leaf_weight=29 25 42 41 25 32 30 32 47 34 26 25 25 28 41 474 26 25 35
leaf_count=29 25 42 41 25 32 30 32 47 34 26 25 25 28 41 474 26 25 35
internal_value=0.000122723 -0.0124524 -0.0225352 -0.00502041 0.00253425 -0.0117857 0.003 0.000109589 0.00326943 0.00157143 7.69232e-05 0.0034717 0.0017037 0.00361635 0.00372757 0.00385027 0.00391776 0.00327869
internal_weight=1042 167 70 97 875 55 843 72 771 83 51 688 53 635 601 560 534 60
internal_count=1042 167 70 97 875 55 843 72 771 83 51 688 53 635 601 560 534 60
is_linear=0
shrinkage=0.04


Tree=4
num_leaves=16
num_cat=0
split_feature=8 12 2 13 9 12 5 8 14 4 4 14 9 12 12
split_gain=17.5794 6.11187 3.44288 2.52564 2.37443 0.925711 0.587661 2.79393 0.230144 0.0735294 0.0302306 0.0277558 0.0290441 3.47837e-05 0.0156148
threshold=3.0500000000000003 51.500000000000007 0.95000000000000007 17.800000000000001 77.500000000000014 31.500000000000004 7.8500000000000005 6.8500000000000005 175.50000000000003 4.7500000000000009 3.7500000000000004 311.50000000000006 116.50000000000001 34.500000000000007 31.500000000000004
decision_type=2 2 2 2 2 2 2 2 2 2 2 2 2 2 2
left_child=1 2 -1 6 -3 -4 11 -8 10 -7 -9 12 13 14 -2
right_child=3 4 5 -5 -6 9 7 8 -10 -11 -12 -13 -14 -15 -16
leaf_value=-0.033285734666307111 0.058018233978258275 -0.042743800728623597 -0.017239460644523627 -0.035100793187609523 -0.035484521129417357 0.0023101671504606124 -0.038039347979665218 0.040465827460522838 0.0050771391209311354 0.01269698837411931 0.10955937865820298 0.033674293332548164 0.014539404801414807 0.028734559645518756 0.048749473559049739
leaf_weight=25 66 26 25 32 41 25 38 25 48 25 164 25 26 420 31
leaf_count=25 66 26 25 32 41 25 38 25 48 25 164 25 26 420 31
internal_value=0.000352829 -0.0115 -0.00514851 0.00262557 -0.0207647 -0.000789474 0.00304739 0.00152174 0.00314286 0.00235294 0.00376842 0.00378207 0.00384559 0.00391506 0.00355102
internal_weight=1042 167 100 875 67 75 843 275 237 50 189 568 543 517 97
internal_count=1042 167 100 875 67 75 843 275 237 50 189 568 543 517 97
is_linear=0
shrinkage=0.04


Tree=5
num_leaves=17
num_cat=0
split_feature=0 9 2 5 14 12 1 7 3 17 0 3 12 3 19 2
split_gain=13.6943 8.05895 8.64321 4.21906 2.62335 0.893956 1.11552 0.920122 0.605666 0.293164 0.316871 0.27325 0.132225 0.199734 0.104131 0.0259441
threshold=2.7500000000000004 74.500000000000014 0.75000000000000011 7.5500000000000007 325.50000000000006 68.500000000000014 4.1500000000000012 11.11875 1.5500000000000003 -0.9159756150367534 6.5500000000000007 1.1500000000000001 64.500000000000014 8.8500000000000032 1.0000000180025095e-35 3.4500000000000006
decision_type=2 2 2 2 2 2 2 2 2 2 2 2 2 2 2 2
left_child=1 -1 -3 4 8 9 -7 14 -4 10 -2 -11 -13 -14 -8 -10
right_child=5 2 3 -5 -6 6 7 -9 15 11 -12 12 13 -15 -16 -17
leaf_value=-0.040559488665833018 -0.001536717137198321 -0.036926517082327373 -0.011208197646383207 -0.046290585973504647 -0.027831788207866172 -0.023736262284314844 0.032978696989233038 -0.036198530286468772 0.012718673333973158 0.009458635523693408 0.066000452950085067 0.060443023687174913 0.026570140036674746 -0.01219195592615443 0.0062535317892596712 0.04507939089629958
leaf_weight=26 46 31 29 32 25 28 68 25 87 28 33 475 34 25 48 25
leaf_count=26 46 31 29 32 25 28 68 25 87 28 33 475 34 25 48 25
internal_value=1.87619e-05 -0.00804687 -0.00558261 -0.00245226 0.000143713 0.00256473 -2.35293e-05 0.00143662 0.00228169 0.00324611 0.00095 0.00356661 0.00376822 0.00193333 0.00294017 0.00361062
internal_weight=1065 255 229 198 166 810 169 141 141 641 79 562 534 59 116 112
internal_count=1065 255 229 198 166 810 169 141 141 641 79 562 534 59 116 112
is_linear=0
shrinkage=0.04


Tree=6
num_leaves=15
num_cat=0
split_feature=8 16 6 13 4 12 8 5 12 12 2 5 20 3
split_gain=16.6036 6.00997 4.22847 3.59478 2.62705 0.889805 0.485583 2.82621 0.843169 0.137584 0.257493 0.129484 0.0304642 0.110221
threshold=2.9500000000000006 887.50000000000011 1.0250000000000004 17.800000000000001 5.4500000000000011 30.500000000000004 6.8500000000000005 7.8500000000000005 74.500000000000014 34.500000000000007 6.4500000000000011 17.150000000000002 -0.56174490092936669 8.3500000000000032
decision_type=2 2 2 2 2 2 2 2 2 2 2 2 2 2
left_child=1 4 -3 6 -1 -4 7 8 -2 10 -8 12 13 -11
right_child=3 2 5 -5 -6 -7 9 -9 -10 11 -12 -13 -14 -15
leaf_value=-0.037656985210363515 0.018492066931160591 -0.036249456218419102 -0.015702588163191998 -0.031940780317904809 -0.037344386834956785 0.018177436111391523 0.07161102421932973 -0.035526783089737737 -0.0015853318988771337 0.074322363048629589 0.00047547543801502187 0.034686210198736772 0.081228090890374582 0.0019503727949244829
leaf_weight=41 209 29 25 37 29 44 40 43 26 63 33 26 395 25
leaf_count=41 209 29 25 37 29 44 40 43 26 63 33 26 395 25
internal_value=9.38088e-05 -0.0114083 -0.00492929 0.00225835 -0.0202817 0.000514286 0.00278746 0.00140502 0.00313559 0.00344425 0.00178378 0.00367843 0.00382645 0.00305618
internal_weight=1065 168 98 897 70 69 860 278 235 582 73 509 483 88
internal_count=1065 168 98 897 70 69 860 278 235 582 73 509 483 88
is_linear=0
shrinkage=0.04


Tree=7
num_leaves=18
num_cat=0
split_feature=8 9 2 13 12 12 12 8 4 17 0 11 3 18 8 4 7
split_gain=16.2469 5.70105 5.32495 2.4908 1.46526 0.718074 0.463888 1.26663 1.12269 0.274264 0.337757 0.178487 0.125079 0.0506876 0.0838839 0.00873601 0.0156229
threshold=2.9500000000000006 74.500000000000014 0.75000000000000011 17.800000000000001 47.500000000000007 29.500000000000004 66.500000000000014 6.8500000000000005 3.4500000000000006 -0.9159756150367534 4.7500000000000009 8.1500000000000004 1.0500000000000003 -0.9159756150367534 9.5500000000000025 12.850000000000003 13.360416666666669
decision_type=2 2 2 2 2 2 2 2 2 2 2 2 2 2 2 2 2
left_child=1 -1 -3 6 5 -4 9 8 -8 10 -2 -9 -11 14 -14 -15 -17
right_child=3 2 4 -5 -6 -7 7 11 -10 12 -12 -13 13 15 -16 16 -18
leaf_value=-0.037835831267357449 0.013784583030374858 -0.033999478150297517 -0.015074484636664316 -0.030663149105188619 -0.037081016843394793 0.0052609053964728057 0.0021203147964525188 0.045077074909143561 -0.03396702825508377 0.0066496007753164754 -0.00043238877876884658 0.011931005544487597 0.0053270462941419974 0.057880350387134911 0.096179065365870481 0.033419225109091316 0.1936850129721735
leaf_weight=25 39 31 25 37 44 43 33 111 30 26 47 37 25 424 32 25 31
leaf_count=25 39 31 25 37 44 43 33 111 30 26 47 37 25 424 32 25 31
internal_value=0.000206379 -0.0111716 -0.00797222 0.00234744 -0.00382301 -0.000115942 0.00278746 0.00115094 -0.0035625 0.00331692 0.0011954 0.00316779 0.0036383 0.00376952 0.00255172 0.00390852 0.00322807
internal_weight=1065 168 143 897 112 68 860 211 63 649 86 148 563 537 57 480 56
internal_count=1065 168 143 897 112 68 860 211 63 649 86 148 563 537 57 480 56
is_linear=0
shrinkage=0.04


Tree=8
num_leaves=17
num_cat=0
split_feature=8 16 3 4 13 5 8 5 13 5 16 18 1 1 4 8
split_gain=16.1129 5.62871 3.35025 3.16772 2.21526 0.882106 0.46398 2.94758 0.288556 0.15786 0.134498 0.384039 0.343882 0.0294481 0.0288133 0.0246898
threshold=3.0500000000000003 887.50000000000011 1.5500000000000003 5.4500000000000011 17.800000000000001 3.2500000000000004 4.9500000000000011 5.9500000000000011 3.1500000000000008 16.050000000000004 462.50000000000006 0.37940952255126048 5.6500000000000012 8.0500000000000025 1.8500000000000003 4.5500000000000007
decision_type=2 2 2 2 2 2 2 2 2 2 2 2 2 2 2 2
left_child=1 3 -3 -1 6 -4 7 15 -8 10 14 12 -12 -13 -10 -2
right_child=4 2 5 -5 -6 -7 8 -9 9 -11 11 13 -14 -15 -16 -17
leaf_value=-0.033242444572336299 0.012673417154372037 -0.032639499058247153 0.012282150414040618 -0.034343216624996183 -0.029641527289690432 -0.010086587712992671 0.0063476965929149263 -0.033058907134531607 0.025949349684979989 0.03729961983305221 0.011475273972371185 0.054779718991487862 -0.0013023715172309506 0.093529326935144527 0.048142198802972325 0.025826401934371815
leaf_weight=44 75 36 43 29 34 25 37 25 28 37 27 143 49 25 383 25
leaf_count=44 75 36 43 29 34 25 37 25 28 37 27 143 49 25 383 25
internal_value=0.000131332 -0.0108539 -0.0048 -0.0192973 0.00233071 0.000463768 0.00273216 0.000476191 0.00311781 0.00330159 0.00344512 0.00267755 0.000311688 0.00373965 0.0038932 0.00356436
internal_weight=1065 177 104 73 888 68 854 125 729 692 655 244 76 168 411 100
internal_count=1065 177 104 73 888 68 854 125 729 692 655 244 76 168 411 100
is_linear=0
shrinkage=0.04


Tree=9
num_leaves=18
num_cat=0
split_feature=8 9 5 1 14 16 10 9 5 7 17 14 20 9 8 4 5
split_gain=14.6112 5.61718 4.01202 2.45174 0.946968 0.664149 0.637113 1.33419 2.07923 0.617711 0.369387 0.252166 0.272667 0.148391 0.175043 0.1079 0.032581
threshold=3.0500000000000003 74.500000000000014 7.5500000000000007 0.65000000000000002 331.50000000000006 1682.5000000000002 8.2500000000000018 78.500000000000014 7.8500000000000005 12.852083333333335 -0.78656609248549292 230.50000000000003 1.0000000180025095e-35 90.500000000000014 5.6500000000000012 6.6500000000000012 16.700000000000006
decision_type=2 2 2 2 2 2 2 2 2 2 2 2 2 2 2 2 2
left_child=1 -1 3 -3 6 -5 7 8 -2 10 11 12 -9 14 -12 -16 -8
right_child=4 2 -4 5 -6 -7 16 9 -10 -11 13 -13 -14 -15 15 -17 -18
leaf_value=-0.034556171730107284 0.011001530060370914 -0.032133918881340547 -0.033980259865201569 0.0063801669635073482 -0.02077775789363585 -0.0066774397928505373 0.077127127119596878 0.00078105109753952903 -0.033508553179169565 -0.026660770943589443 0.00034968663147867993 -0.0020414477187549389 0.017615819172937388 0.067950270274437133 0.036823171417761168 0.015035257430899824 0.062584403063347602
leaf_weight=26 45 29 36 46 25 40 277 46 31 26 25 32 49 223 59 25 25
leaf_count=26 45 29 36 46 25 40 277 46 31 26 25 32 49 223 59 25 25
internal_value=5.62853e-05 -0.0104045 -0.0073421 -0.00362069 0.00215073 -0.000183908 0.002375 0.00157295 -0.00332468 0.00234568 0.00268696 0.00084375 0.001875 0.00338739 0.00214545 0.00301176 0.00385479
internal_weight=1065 177 151 115 888 86 863 561 76 485 459 127 95 332 109 84 302
internal_count=1065 177 151 115 888 86 863 561 76 485 459 127 95 332 109 84 302
is_linear=0
shrinkage=0.04


Tree=10
num_leaves=18
num_cat=0
split_feature=8 9 0 11 13 18 10 9 8 13 13 2 2 4 4 9 12
split_gain=12.2186 4.81122 3.68684 5.76098 2.45691 1.28047 0.555012 1.17356 1.35493 0.885729 0.210164 0.194229 0.187857 0.370507 0.114422 0.0846698 0.0302214
threshold=3.0500000000000003 74.500000000000014 0.95000000000000007 11.550000000000002 17.800000000000001 -0.12940952255126037 8.8500000000000032 87.500000000000014 5.2500000000000009 4.7500000000000009 12.15 1.8500000000000003 8.4500000000000011 10.750000000000002 2.7500000000000004 90.500000000000014 24.500000000000004
decision_type=2 2 2 2 2 2 2 2 2 2 2 2 2 2 2 2 2
left_child=1 -1 3 -3 6 -4 7 8 -2 -10 14 -7 15 -14 -11 -9 -17
right_child=4 2 5 -5 -6 11 -8 12 9 10 -12 -13 13 -15 -16 16 -18
leaf_value=-0.03517392489070531 -0.026742952494649849 -0.039494525207381566 -0.020721207731714306 0.017576867216313755 -0.027951159297679402 -0.0035201695793790587 0.082189941895050647 0.013854961359900369 -0.011728451973092885 0.0096398723849375773 -0.00017626718709399844 0.039934019978703973 -0.0012260628198810829 0.10736340983228743 0.018756477425426951 0.015687733373836093 0.041287633648219434
leaf_weight=25 44 29 42 25 30 25 258 35 38 26 25 32 35 40 86 26 234
leaf_count=25 44 29 42 25 30 25 258 35 38 26 25 32 35 40 86 26 234
internal_value=9.46971e-05 -0.00943017 -0.00667532 -0.0149818 0.00203645 -0.00204 0.00243868 0.00175593 -0.000563636 0.00102273 0.00252174 0.00186207 0.00312668 0.00131579 0.00325664 0.00358108 0.00383142
internal_weight=1055 178 153 54 877 99 847 589 219 175 137 57 370 75 112 295 260
internal_count=1055 178 153 54 877 99 847 589 219 175 137 57 370 75 112 295 260
is_linear=0
shrinkage=0.04


Tree=11
num_leaves=18
num_cat=0
split_feature=8 18 4 13 13 0 17 12 4 8 12 13 12 13 14 4 14
split_gain=12.3159 4.80556 5.8881 3.00979 2.47706 0.687712 0.531443 1.26583 0.526348 0.313984 0.854171 0.244481 0.531944 0.221421 0.341939 0.102767 0.0985781
threshold=3.0500000000000003 -0.12940952255126037 3.0500000000000003 20.250000000000004 17.800000000000001 1.0500000000000003 -0.60355339059327362 61.500000000000007 6.7500000000000009 5.1500000000000012 56.500000000000007 9.5500000000000025 34.500000000000007 11.65 115.50000000000001 1.7500000000000002 129.50000000000003
decision_type=2 2 2 2 2 2 2 2 2 2 2 2 2 2 2 2 2
left_child=1 2 -1 5 6 -3 7 11 -9 10 -8 12 -2 15 -15 -11 -14
right_child=4 3 -4 -5 -6 -7 9 8 -10 13 -12 -13 16 14 -16 -17 -18
leaf_value=-0.0062618980230957086 -0.0015456682282281222 -0.00574482571140444 -0.037107362216808534 -0.028468781332368378 -0.026833112925772229 0.02302262234653182 0.014616466558514901 -0.019302829452554533 0.0011057760998947834 0.031698971255878484 -0.013912501319709964 0.016559106905444668 0.02541671523288111 0.11888174328331255 -0.0018296499771848882 0.055955153619217546 0.0094511205920286244
leaf_weight=34 25 30 44 27 30 43 58 25 33 35 35 93 46 31 25 416 25
leaf_count=34 25 30 44 27 30 43 58 25 33 35 35 93 46 31 25 416 25
internal_value=0.000132576 -0.00943017 -0.0168101 -0.00356436 0.002082 0.000702703 0.00248585 0.000919355 -0.00420339 0.00312812 0.000978724 0.00250526 0.00107217 0.00351969 0.00112281 0.00381416 0.00283333
internal_weight=1055 178 78 100 877 73 847 247 58 600 93 189 96 507 56 451 71
internal_count=1055 178 78 100 877 73 847 247 58 600 93 189 96 507 56 451 71
is_linear=0
shrinkage=0.04


Tree=12
num_leaves=18
num_cat=0
split_feature=8 9 5 0 13 10 5 8 19 18 12 10 1 13 8 1 6
split_gain=11.0989 5.09033 4.16879 3.22274 2.41685 0.625349 1.25481 2.66784 1.10305 0.478848 0.776592 0.605167 0.513236 0.37584 0.477844 0.213566 0.0765647
threshold=3.0500000000000003 74.500000000000014 13.450000000000001 0.75000000000000011 17.800000000000001 8.8500000000000032 7.8500000000000005 9.1500000000000004 1.0000000180025095e-35 0.1294095225512602 74.500000000000014 3.6500000000000008 4.7500000000000009 9.7500000000000018 2.4500000000000006 10.050000000000002 7.8250000000000011
decision_type=2 2 2 2 2 2 2 2 2 2 2 2 2 2 2 2 2
left_child=1 -1 3 -3 5 6 9 8 -8 10 11 12 -2 -5 -15 -9 -11
right_child=4 2 -4 13 -6 -7 7 15 -10 16 -12 -13 -14 14 -16 -17 -18
leaf_value=-0.032282673406404755 0.0041473633760947025 -0.030651691683343207 -0.032110394113024528 0.0072042845151594559 -0.025759788408741342 0.077157403586334092 -0.0099128784311935999 0.018551142887044146 -0.028554377444095384 0.04911865296405777 -0.0028948834017355311 0.012220944398619767 -0.0011939133756095359 0.0048513057475541603 -0.013544081037044757 0.052846397131815541 0.04717014545350573
leaf_weight=25 27 37 25 38 30 258 28 60 25 232 25 97 25 27 26 28 42
leaf_count=25 27 37 25 38 30 258 28 60 25 232 25 97 25 27 26 28 42
internal_value=9.46971e-05 -0.00898324 -0.00615584 -0.00316279 0.00194533 0.00234434 0.00162034 -0.00166197 -0.00866667 0.00265479 0.00100571 0.00210667 -0.00135849 0.000913044 -0.00125926 0.00260674 0.00369455
internal_weight=1055 178 153 128 877 847 589 141 53 448 174 149 52 91 53 88 274
internal_count=1055 178 153 128 877 847 589 141 53 448 174 149 52 91 53 88 274
is_linear=0
shrinkage=0.04


Tree=13
num_leaves=19
num_cat=0
split_feature=8 9 5 13 13 0 17 12 13 12 1 14 8 5 12 13 17 0
split_gain=10.641 5.09033 4.16879 2.98251 2.3181 0.639367 0.608265 1.06819 0.598892 0.852165 0.418419 0.363198 0.332112 1.67491 0.437478 0.133519 0.06378 0.0178886
threshold=3.0500000000000003 74.500000000000014 13.450000000000001 20.250000000000004 17.800000000000001 0.95000000000000007 -0.60355339059327362 68.500000000000014 10.050000000000002 37.500000000000007 1.9500000000000002 173.50000000000003 9.1500000000000004 8.8500000000000032 72.500000000000014 3.9500000000000006 -1.0000000180025095e-35 5.2500000000000009
decision_type=2 2 2 2 2 2 2 2 2 2 2 2 2 2 2 2 2 2
left_child=1 -1 3 5 6 -3 7 8 9 -2 -7 17 13 14 15 -8 -14 -11
right_child=4 2 -4 -5 -6 10 12 -9 -10 11 -12 -13 16 -15 -16 -17 -18 -19
leaf_value=-0.030991366470148565 -0.0019438633917070566 -0.019119097354502228 -0.030825978348503549 -0.027703962161400419 -0.024729396872391691 0.0069161131345530794 0.0038869594569129972 -0.011628099565262973 0.016150832833298646 0.012314053523713222 -0.011317089671542848 -0.00058304760878921007 0.017318812368649735 -0.025177402941651068 -0.00073505604613876034 0.032654338210593416 0.14334168083722237 0.044604170551535371
leaf_weight=25 32 25 25 27 30 51 26 36 91 25 25 25 49 34 41 195 255 38
leaf_count=25 32 25 25 27 30 51 26 36 91 25 25 25 49 34 41 195 255 38
internal_value=-9.46968e-05 -0.00898324 -0.00615584 -0.00316279 0.00171754 3.92158e-05 0.00210849 0.000435484 0.0015283 -0.000330578 0.00187013 0.00170787 0.00279534 0.00183165 0.00292015 0.00362162 0.00372459 0.0033125
internal_weight=1055 178 153 128 877 101 847 247 211 120 76 88 600 296 262 221 304 63
internal_count=1055 178 153 128 877 101 847 247 211 120 76 88 600 296 262 221 304 63
is_linear=0
shrinkage=0.04


Tree=14
num_leaves=20
num_cat=0
split_feature=8 9 6 13 16 13 13 10 18 19 13 8 1 19 10 16 3 7 13
split_gain=10.823 5.09033 4.04169 2.35736 1.37857 0.885097 0.574388 0.417652 0.799135 0.560014 0.823362 0.796014 1.51579 0.57169 0.23036 0.0977201 0.0308306 0.0266451 0.0233933
threshold=3.0500000000000003 74.500000000000014 1.0250000000000004 17.800000000000001 852.50000000000011 18.150000000000002 2.3500000000000001 9.2500000000000018 0.60355339059327384 -0.60785761079279388 4.7500000000000009 9.1500000000000004 6.1500000000000012 0.6078576107927941 2.8500000000000001 397.50000000000006 11.050000000000002 12.066666666666668 11.250000000000002
decision_type=2 2 2 2 2 2 2 2 2 2 2 2 2 2 2 2 2 2 2
left_child=1 -1 -3 6 -4 -6 -2 8 9 14 -11 12 13 15 -8 -12 -10 -9 -13
right_child=3 2 4 -5 5 -7 7 17 16 10 11 18 -14 -15 -16 -17 -18 -19 -20
leaf_value=-0.029751711811342618 -0.0013112529291281056 -0.025094333115432816 -0.030430840250478177 -0.023740220997496026 0.012902174884970174 -0.0072806959982794376 0.0039754371033940304 0.073450463489483836 0.074870685402741596 -0.015648080447069182 0.0045491983972037074 0.056642590731893136 -0.022514282356308514 -0.0034868671995168317 0.0083446251303250004 0.028262142371432708 0.19615124537681192 0.15797724169338331 0.0098658299969447139
leaf_weight=25 26 39 38 30 50 26 29 207 184 42 25 65 25 31 90 45 25 28 25
leaf_count=25 26 39 38 30 50 26 29 207 184 42 25 65 25 31 90 45 25 28 25
internal_value=-1.89392e-05 -0.00898324 -0.00615584 0.00180866 -0.00229565 0.000831169 0.00220283 0.00238929 0.00181261 0.000708995 -0.000339768 0.000663595 -0.00138583 0.00082353 0.00296667 0.0028169 0.00379048 0.00381356 0.00351648
internal_weight=1055 178 153 877 114 76 847 821 586 377 258 216 126 101 119 70 209 235 90
internal_count=1055 178 153 877 114 76 847 821 586 377 258 216 126 101 119 70 209 235 90
is_linear=0
shrinkage=0.04


Tree=15
num_leaves=16
num_cat=0
split_feature=8 9 5 1 13 8 5 12 14 14 6 12 1 7 11
split_gain=9.74228 5.76647 3.11703 2.23628 1.55178 0.678727 2.4336 0.789082 0.485489 0.454965 1.26376 0.425977 0.348132 0.142761 0.03286
threshold=3.0500000000000003 74.500000000000014 7.5500000000000007 0.75000000000000011 17.800000000000001 9.1500000000000004 8.8500000000000032 72.500000000000014 72.500000000000014 175.50000000000003 9.2500000000000018 33.500000000000007 6.3500000000000005 2.1895833333333337 16.750000000000004
decision_type=2 2 2 2 2 2 2 2 2 2 2 2 2 2 2
left_child=1 -1 3 -3 5 6 7 8 -2 14 -11 -5 13 -10 -7
right_child=4 2 -4 11 -6 9 -8 -9 12 10 -12 -13 -14 -15 -16
leaf_value=-0.026561643309086599 -0.0010570194062397642 -0.023992030283516465 -0.030727517409652814 -0.0002936550780836341 -0.021275637878749386 0.071144272182794718 -0.017226914537373784 -0.002251567111283442 0.003728014934395289 0.050692630195069199 -0.0039297955599503177 0.013254370185265272 -0.00054379807129800283 0.017018948393141348 0.084275384051954991
leaf_weight=26 34 31 33 33 33 300 48 46 25 66 33 45 35 235 25
leaf_count=26 34 31 33 33 33 300 48 46 25 66 33 45 35 235 25
internal_value=-7.62616e-06 -0.00880473 -0.00553846 -0.00221818 0.00167991 0.00201415 0.000877359 0.00196809 0.00265455 0.00314353 0.00076 0.00141772 0.00317568 0.00367816 0.00386503
internal_weight=1048 168 142 109 880 847 423 375 329 424 99 78 295 260 325
internal_count=1048 168 142 109 880 847 423 375 329 424 99 78 295 260 325
is_linear=0
shrinkage=0.04


Tree=16
num_leaves=20
num_cat=0
split_feature=8 16 11 6 17 14 6 10 19 8 18 20 14 8 2 11 11 5 1
split_gain=9.39004 3.96736 4.15781 2.96473 0.809811 0.721112 1.4174 1.72242 1.28806 1.01619 0.931315 0.650453 0.587218 0.274875 1.09742 0.122663 0.117338 0.0422537 0.0920192
threshold=3.0500000000000003 887.50000000000011 6.1500000000000012 1.0250000000000004 0.12940952255126045 127.50000000000001 8.908333333333335 5.2500000000000009 0.6078576107927941 8.3500000000000032 0.60355339059327384 -0.22252093395631442 255.50000000000003 7.1500000000000012 5.6500000000000012 1.7500000000000002 3.4500000000000006 9.9500000000000011 9.5500000000000025
decision_type=2 2 2 2 2 2 2 2 2 2 2 2 2 2 2 2 2 2 2
left_child=1 2 -1 -3 5 9 8 -8 16 10 11 -2 -5 14 15 -6 -7 -15 -19
right_child=4 3 -4 12 13 6 7 -9 -10 -11 -12 -13 -14 17 -16 -17 -18 18 -20
leaf_value=-0.0026158002440854543 -0.0065705150144757841 -0.023032349389325937 -0.028511453939204873 0.012627551421813937 0.014505448109679457 0.00042293483039440929 -0.019582767450612677 0.0018739061361655158 -0.022339841091971211 0.054674385487442904 0.050073591394909231 0.00036184206209213294 -0.0084868656818639903 0.062675208794849196 -0.0018019847539738865 0.014081496311020535 0.038431879651045144 0.00050431354460035943 0.27958279489478638
leaf_weight=27 33 28 43 44 25 25 26 30 38 154 36 31 26 217 30 93 78 25 39
leaf_count=27 33 28 43 44 25 25 26 30 38 154 36 31 26 217 30 93 78 25 39
internal_value=6.86369e-05 -0.00856805 -0.0157746 -0.00331313 0.00172531 0.000539823 -0.00127273 -0.00659649 0.00087324 0.0019451 -0.00118812 -0.00406154 0.00112676 0.00296744 0.00155705 0.00329412 0.00319231 0.00370213 0.00270769
internal_weight=1048 168 70 98 880 451 197 56 141 254 100 64 70 429 148 118 103 281 64
internal_count=1048 168 70 98 880 451 197 56 141 254 100 64 70 429 148 118 103 281 64
is_linear=0
shrinkage=0.04


Tree=17
num_leaves=20
num_cat=0
split_feature=0 9 5 19 9 12 11 11 5 0 17 13 14 5 4 14 10 6 4
split_gain=6.5944 5.22765 3.9521 3.47542 1.19145 0.745917 1.2809 1.33166 0.735517 0.617985 0.47424 0.617369 0.355829 0.232248 0.162932 0.125241 0.183386 0.115205 0.0270836
threshold=2.7500000000000004 74.500000000000014 3.9500000000000006 0.87837969732492682 91.500000000000014 66.500000000000014 7.8500000000000005 9.5500000000000025 6.8500000000000005 5.0500000000000007 -0.9159756150367534 10.050000000000002 278.50000000000006 1.7500000000000002 4.6500000000000012 206.50000000000003 4.1500000000000012 1.7250000000000003 1.8500000000000003
decision_type=2 2 2 2 2 2 2 2 2 2 2 2 2 2 2 2 2 2 2
left_child=1 -1 4 8 -3 10 9 -8 -4 -7 11 -2 13 -12 -11 18 -17 -6 -15
right_child=5 2 3 -5 17 6 7 -9 -10 14 12 -13 -14 15 -16 16 -18 -19 -20
leaf_value=-0.023958719437036338 -0.0012213347628054977 -0.020692149416769636 -0.0018419883330283294 -0.019580784078492654 0.0042173541404807013 -0.01816928811099466 -0.021999456311513708 0.004954584109326237 -0.034121286311897446 0.010124907186970334 0.00050321790812622898 0.014257485974327038 -0.00014020557440592765 0.051586291239985198 0.021401971172317815 0.0026637840783794494 0.056487110759615135 0.017461967551860826 0.053525234060789587
leaf_weight=27 42 33 38 25 25 25 28 27 25 37 29 30 46 29 82 43 45 73 339
leaf_count=27 42 33 38 25 25 25 28 27 25 37 29 30 46 29 82 43 45 73 339
internal_value=0.0001449 -0.00557085 -0.00347273 -0.00997753 0.000939394 0.00190286 -0.00022 -0.00535714 -0.0048125 0.00176552 0.00260265 -0.000438356 0.00301504 0.00333333 0.00296667 0.00355361 0.0021573 0.00315152 0.00388076
internal_weight=1048 246 219 88 131 802 199 55 63 144 603 72 531 485 119 456 88 98 368
internal_count=1048 246 219 88 131 802 199 55 63 144 603 72 531 485 119 456 88 98 368
is_linear=0
shrinkage=0.04


Tree=18
num_leaves=19
num_cat=0
split_feature=8 9 0 5 14 17 9 14 3 0 8 0 7 8 9 17 3 17
split_gain=7.38864 4.61743 2.66101 1.40645 0.976115 0.693056 1.13513 1.399 1.37162 2.36919 1.22312 0.490563 0.279259 1.99695 0.238661 0.127157 0.0898785 0.01801
threshold=2.9500000000000006 74.500000000000014 0.75000000000000011 6.5500000000000007 320.50000000000006 0.12940952255126045 98.500000000000014 126.50000000000001 8.1500000000000004 10.050000000000002 8.5500000000000025 5.1500000000000012 7.6645833333333346 10.950000000000001 116.50000000000001 0.98296291314453421 1.7500000000000002 -0.9159756150367534
decision_type=2 2 2 2 2 2 2 2 2 2 2 2 2 2 2 2 2 2
left_child=1 -1 -3 16 5 6 7 10 11 -10 -2 -9 15 -14 17 -7 -4 -8
right_child=4 2 3 -5 -6 12 14 8 9 -11 -12 -13 13 -15 -16 -17 -18 -19
leaf_value=-0.023400370641673489 -0.0066047120558408601 -0.02128336943708212 0.0067033798872552456 -0.024186708447396642 -0.0074582504880432408 0.024337348857117309 0.028252402587100819 -0.0148358656871177 -0.018319478363036934 -0.0030357603575585004 0.046049507271394965 0.016534885062292823 -0.013038165699434421 0.15807498746444942 0.0016857748047537627 0.010805900086610292 0.032965903273220014 0.072789744571877535
leaf_weight=26 45 42 25 30 36 266 33 25 25 26 100 26 25 101 28 28 37 124
leaf_count=26 45 42 25 30 36 266 33 25 25 26 100 26 25 101 28 28 37 124
internal_value=0.000183032 -0.00770186 -0.00462222 -0.000774193 0.0016108 0.00188511 0.000757506 -0.00101613 -0.00458252 -0.00915385 0.00150685 7.69232e-05 0.00304038 0.00144882 0.00311828 0.00371525 0.00266667 0.00372152
internal_weight=1048 160 134 92 888 852 432 247 102 51 145 51 420 126 185 294 62 157
internal_count=1048 160 134 92 888 852 432 247 102 51 145 51 420 126 185 294 62 157
is_linear=0
shrinkage=0.04


Tree=19
num_leaves=19
num_cat=0
split_feature=8 16 4 1 13 5 8 13 14 17 12 12 8 14 12 5 8 14
split_gain=7.20909 3.4311 4.41986 2.13332 1.31072 1.00864 3.40942 1.36275 0.697736 0.332906 0.947264 0.406519 0.80461 0.301033 0.198046 0.139891 0.130489 0.0273126
threshold=3.0500000000000003 887.50000000000011 3.7500000000000004 0.75000000000000011 18.650000000000002 8.4500000000000011 9.2500000000000018 9.1500000000000004 175.50000000000003 -0.78656609248549292 34.500000000000007 72.500000000000014 7.0500000000000007 259.50000000000006 55.500000000000007 1.0500000000000003 11.350000000000003 278.50000000000006
decision_type=2 2 2 2 2 2 2 2 2 2 2 2 2 2 2 2 2 2
left_child=1 2 -1 -3 5 9 7 -7 16 10 -2 15 -13 -5 -12 -11 -8 -17
right_child=4 3 -4 13 -6 6 8 -9 -10 11 14 12 -14 -15 -16 17 -18 -19
leaf_value=-0.009329701020901018 -0.0019999793731033618 -0.020432034659598832 -0.024293105691744029 0.010891579072162321 -0.019162596583834526 -0.019030856658500132 0.01306961683890848 -0.015724592964874703 -0.0045622918515767817 0.0059524211820461016 0.029288920131488757 -0.004424138382758693 0.022729374153460546 -0.008266518002674101 0.00033852402915642157 0.030833682628281896 0.12116099122279179 0.074164693002955376
leaf_weight=28 30 27 42 46 30 29 25 26 26 25 72 26 39 25 31 367 125 29
leaf_count=28 30 27 42 46 30 29 25 26 26 25 72 26 39 25 31 367 125 29
internal_value=0.000183032 -0.00738462 -0.0140845 -0.00250505 0.00163451 0.00192714 -0.000327586 -0.00892857 0.00239548 0.00276774 0.000985075 0.00325257 0.00030303 0.00116667 0.00280769 0.00370616 0.00344371 0.00388917
internal_weight=1048 168 70 98 880 850 231 55 176 619 133 486 65 71 103 421 150 396
internal_count=1048 168 70 98 880 850 231 55 176 619 133 486 65 71 103 421 150 396
is_linear=0
shrinkage=0.04


Tree=20
num_leaves=18
num_cat=0
split_feature=13 18 16 11 17 11 18 12 19 5 3 5 10 12 14 5 2
split_gain=5.11397 1.61714 3.58394 2.88926 0.722216 0.762419 1.34579 0.704692 0.634678 1.93209 0.607466 0.376749 0.402961 0.285788 0.142024 0.120702 0.1085
threshold=20.400000000000002 -0.70710678118654757 277.50000000000006 3.9500000000000006 -0.78656609248549292 7.9500000000000011 -0.12940952255126037 34.500000000000007 0.6078576107927941 8.4500000000000011 2.2500000000000004 9.1500000000000004 9.8500000000000032 68.500000000000014 302.50000000000006 3.3500000000000001 4.0500000000000007
decision_type=2 2 2 2 2 2 2 2 2 2 2 2 2 2 2 2 2
left_child=1 2 11 -4 5 16 -7 -8 14 13 -2 15 -13 -10 -6 -1 -3
right_child=10 4 3 -5 8 6 7 -9 9 -11 -12 12 -14 -15 -16 -17 -18
leaf_value=0.00083973493795304343 -0.019614753273214876 0.00090245816161391591 -6.4261505542733096e-05 -0.026656171795676201 0.042378422350361211 -0.021951381073657683 -0.0018802620762578821 0.046618235438528707 0.048169739700985044 -0.014144177012355857 -0.016793415126972997 -0.0044462938374635452 0.07500101154865578 0.00018323817531569277 0.0012769852122749765 0.041657324194312687 0.013261167288219593
leaf_weight=25 25 25 44 46 362 40 31 51 104 34 25 30 30 25 26 87 60
leaf_count=25 25 25 44 46 362 40 31 51 104 34 25 30 30 25 26 87 60
internal_value=0.000597572 0.0012145 -0.00149049 -0.00791209 0.0021502 0.000134616 -0.00188618 0.00106024 0.0029058 0.000804878 -0.0117647 0.00189595 -0.000655738 0.00304615 0.00378406 0.00325664 0.00302326
internal_weight=1070 1020 262 90 758 207 122 82 551 163 50 172 60 129 388 112 85
internal_count=1070 1020 262 90 758 207 122 82 551 163 50 172 60 129 388 112 85
is_linear=0
shrinkage=0.04


Tree=21
num_leaves=21
num_cat=0
split_feature=13 8 9 5 18 16 20 8 12 8 17 12 12 12 2 14 6 8 5 5
split_gain=5.1549 2.05967 4.3794 1.68952 0.641031 1.19341 0.998851 0.737773 0.284154 0.55313 0.397395 0.470826 0.186044 0.11183 0.0994128 0.0981641 0.229092 0.0864011 0.081161 0.0235355
threshold=20.650000000000002 3.0500000000000003 78.500000000000014 10.050000000000002 -0.70710678118654757 187.50000000000003 -0.56174490092936669 9.7500000000000018 68.500000000000014 7.0500000000000007 -0.9159756150367534 38.500000000000007 66.500000000000014 31.500000000000004 8.7500000000000018 230.50000000000003 5.0250000000000012 6.8500000000000005 9.1500000000000004 5.8500000000000005
decision_type=2 2 2 2 2 2 2 2 2 2 2 2 2 2 2 2 2 2 2 2
left_child=1 2 -1 13 5 12 -7 -8 10 -10 11 -6 -3 -4 -11 -12 19 -13 -14 -17
right_child=-2 4 3 -5 8 6 7 -9 9 14 15 17 18 -15 -16 16 -18 -19 -20 -21
leaf_value=-0.019169092153944387 -0.018181140181326487 0.057198284681631073 0.0010674942520397159 -0.02669275467815406 -0.0013141332701708994 -0.013347949305358967 -0.0020645713645096164 0.019132720992570379 -0.0056431813925414669 0.036724908809194205 0.04280694091827969 0.0070069367941355048 0.012680774042190968 0.0081401429164155853 0.00021669233826646325 0.030336100566521026 -0.0013521745367491803 0.052024557784202799 0.0059564212621615069 0.018728190238611005
leaf_weight=28 47 80 25 25 25 30 26 32 32 47 356 25 26 66 25 66 25 34 25 25
leaf_count=28 47 80 25 25 25 30 26 32 32 47 356 25 26 66 25 66 25 34 25 25
internal_value=0.000896359 0.00149609 -0.00292414 0.000547009 0.00222273 0.000345455 -0.00323595 -0.000135593 0.00284418 0.000914286 0.00320287 0.000658824 0.00275758 0.00308696 0.00284932 0.00365328 0.00259829 0.0026 0.000846154 0.00352174
internal_weight=1070 1023 144 116 879 219 88 58 660 104 556 84 131 91 72 472 116 59 51 91
internal_count=1070 1023 144 116 879 219 88 58 660 104 556 84 131 91 72 472 116 59 51 91
is_linear=0
shrinkage=0.04


Tree=22
num_leaves=19
num_cat=0
split_feature=13 8 9 5 8 5 7 12 9 5 8 13 2 12 5 12 2 1
split_gain=5.00604 1.88201 4.3794 1.68952 0.706913 2.45544 1.464 0.832374 1.10616 0.54437 0.719436 0.216224 0.167387 0.351917 0.141045 0.11183 0.0740018 0.0140654
threshold=20.650000000000002 3.0500000000000003 78.500000000000014 10.050000000000002 9.6500000000000004 8.6500000000000004 7.1208333333333345 59.500000000000007 76.500000000000014 3.0500000000000003 11.550000000000002 7.2500000000000009 6.4500000000000011 40.500000000000007 16.450000000000003 31.500000000000004 2.0500000000000003 4.4500000000000011
decision_type=2 2 2 2 2 2 2 2 2 2 2 2 2 2 2 2 2 2
left_child=1 2 -1 15 5 7 -7 12 -9 10 -6 17 16 -14 -11 -4 -3 -10
right_child=-2 4 3 -5 9 6 -8 8 11 14 -12 -13 13 -15 -16 -17 -18 -19
leaf_value=-0.018402328467786614 -0.017453894574073425 0.0039593446790252155 0.0010247944819581293 -0.025625044491027898 0.060366357864827427 1.0951364456054509e-05 -0.026820084179647572 -0.0022573840009800883 0.0019095296884101809 0.069140301559500308 -0.0015125337402849628 -0.0018412531272839767 -0.00039780875163935496 0.04041713522641046 0.063769588284875528 0.0078145371997589592 0.029374385391883841 0.014722303150125175
leaf_weight=28 47 42 25 25 27 33 27 32 27 331 25 32 25 33 26 66 194 25
leaf_count=28 47 42 25 25 27 33 27 32 27 331 25 32 25 33 26 66 194 25
internal_value=0.000709617 0.00130078 -0.00292414 0.000547009 0.00199545 0.000934183 -0.00655738 0.0020438 -0.000820513 0.00320976 -0.000603773 0.0016 0.00317288 0.00122034 0.00376536 0.00308696 0.00364557 0.00316981
internal_weight=1070 1023 144 116 879 470 60 410 116 409 52 84 294 58 357 91 236 52
internal_count=1070 1023 144 116 879 470 60 410 116 409 52 84 294 58 357 91 236 52
is_linear=0
shrinkage=0.04


Tree=23
num_leaves=20
num_cat=0
split_feature=13 18 2 14 14 19 4 18 11 0 0 3 5 14 11 4 9 2 5
split_gain=4.88849 1.39516 3.64198 6.43174 1.11789 0.56285 0.992237 0.425123 0.497838 0.339056 0.319726 0.242315 0.235487 0.221252 0.134157 0.115694 0.0531458 0.0325548 0.0291423
threshold=20.650000000000002 -0.5 4.6500000000000012 166.50000000000003 224.50000000000003 1.0000000180025095e-35 13.850000000000003 0.1294095225512602 8.1500000000000004 5.2500000000000009 1.7500000000000002 1.1500000000000001 13.550000000000002 74.500000000000014 19.250000000000004 2.0500000000000003 104.50000000000001 11.850000000000003 3.9500000000000006
decision_type=2 2 2 2 2 2 2 2 2 2 2 2 2 2 2 2 2 2 2
left_child=1 2 3 -1 9 13 7 8 -7 -4 -5 -9 15 -3 17 -11 -13 -15 -17
right_child=-2 5 4 10 -6 6 -8 11 -10 12 -12 16 -14 14 -16 18 -18 -19 -20
leaf_value=-0.023307534773700938 -0.016755738791110489 0.0065518602183866331 -0.0050744023529359925 -0.014515277841065275 -0.0011830041510730515 0.0068427257752274387 -0.014155028922622864 0.00014426422419581178 -0.0027336904931880113 0.042840857796397736 0.0026690874036653153 0.042230456725100986 0.00011905774049886155 0.058192717316299457 0.010038589023785681 0.0099709775605285999 0.025355191636904927 0.064030607038558521 0.057188301679806201
leaf_weight=34 47 49 27 25 27 47 33 25 41 25 27 105 25 275 25 25 47 25 136
leaf_count=34 47 49 27 25 27 47 33 25 41 25 27 105 25 275 25 25 47 25 136
internal_value=0.000560224 0.00114453 -0.000897727 -0.008 0.00142857 0.002211 0.000909699 0.00172932 -0.000539326 0.00230962 0.000905661 0.00285393 0.00284906 0.00324267 0.00361963 0.0033369 0.00345098 0.00385382 0.0037284
internal_weight=1070 1023 351 86 265 672 298 265 88 238 52 177 211 374 325 186 152 300 161
internal_count=1070 1023 351 86 265 672 298 265 88 238 52 177 211 374 325 186 152 300 161
is_linear=0
shrinkage=0.04


Tree=24
num_leaves=20
num_cat=0
split_feature=13 8 9 5 12 8 5 13 14 17 12 18 14 13 12 14 5 2 0
split_gain=4.83023 2.17618 4.03888 1.44481 1.05923 1.68202 4.08781 0.564227 0.51424 0.381259 0.815505 0.271199 0.2586 0.220409 0.194958 0.0301314 0.0255321 0.0187169 0.0136396
threshold=20.650000000000002 3.0500000000000003 78.500000000000014 10.050000000000002 61.500000000000007 9.7500000000000018 7.8500000000000005 7.2500000000000009 176.50000000000003 -0.78656609248549292 34.500000000000007 -0.9159756150367534 139.50000000000003 15.250000000000002 31.500000000000004 292.50000000000006 4.9500000000000011 1.1500000000000001 4.2500000000000009
decision_type=2 2 2 2 2 2 2 2 2 2 2 2 2 2 2 2 2 2 2
left_child=1 2 -1 14 9 6 7 18 16 10 -3 -11 -12 15 -4 -13 -7 -16 -6
right_child=-2 4 3 -5 5 8 -8 -9 -10 11 12 13 -14 -15 17 -17 -18 -19 -20
leaf_value=-0.017227003244646651 -0.01608550923946607 -0.001961310868759687 9.4215146261433607e-05 -0.023667741320438744 0.0058045761276355398 0.024928621940191433 -0.026986274621025381 -0.0013072200302331513 -0.001237312122229733 0.00052338462810352731 0.027717101543007945 0.053905278131359903 0.0029589492338108971 0.01346826214611626 0.0059816688326352939 0.032477275773465326 0.070005957436167776 0.016023477869107815 0.015629792413689607
leaf_weight=28 47 32 25 25 25 26 28 46 34 43 69 361 25 35 25 27 102 41 26
leaf_count=28 47 32 25 25 25 26 28 46 34 43 69 361 25 35 25 27 102 41 26
internal_value=0.000485528 0.00106641 -0.00347586 -0.000136752 0.00181364 -0.000180555 -0.00365079 0.000285714 0.00250307 0.00277909 0.000818898 0.00330621 0.00269474 0.00361321 0.00221739 0.00388689 0.00365891 0.00334328 0.00315385
internal_weight=1070 1023 144 116 879 287 125 97 162 592 126 466 94 423 91 388 128 66 51
internal_count=1070 1023 144 116 879 287 125 97 162 592 126 466 94 423 91 388 128 66 51
is_linear=0
shrinkage=0.04


Tree=25
num_leaves=19
num_cat=0
split_feature=8 9 13 10 9 13 11 10 10 8 18 11 11 16 8 9 7 6
split_gain=5.09321 2.59898 2.87459 1.25096 1.7936 1.12551 0.920802 1.73557 0.716455 0.785845 0.599601 0.681099 0.917544 0.942846 0.353811 0.697575 0.132683 0.119506
threshold=3.0500000000000003 74.500000000000014 20.250000000000004 9.6500000000000004 79.500000000000014 17.350000000000005 6.6500000000000012 0.8500000000000002 6.5500000000000007 9.9500000000000011 0.60355339059327384 7.7500000000000009 14.550000000000002 837.50000000000011 5.3500000000000005 87.500000000000014 10.187500000000002 9.5416666666666696
decision_type=2 2 2 2 2 2 2 2 2 2 2 2 2 2 2 2 2 2
left_child=1 -1 6 4 8 10 -3 -8 -2 -10 11 14 13 -13 15 -6 -12 -16
right_child=3 2 -4 -5 5 -7 7 -9 9 -11 16 12 -14 -15 17 -17 -18 -19
leaf_value=-0.014658713492576161 -0.018272085475504272 0.0055668370790931737 -0.016178993501307387 0.067169185084384811 -0.0025706162383445736 -0.013191768313773779 0.03421817071652708 -0.022645946857061356 -0.0022095010926309893 0.0075967939156475232 0.068441898343440277 8.5763276116717407e-05 0.014951191466298053 -0.0033501969826610122 0.026091536527050162 0.001103390142638381 0.12033203611187528 0.0029019373389301763
leaf_weight=25 34 40 35 223 25 33 31 49 46 42 186 29 37 27 103 41 26 26
leaf_count=25 34 40 35 223 25 33 31 49 46 42 186 29 37 27 103 41 26 26
internal_value=0.000143532 -0.00596685 -0.00397436 0.00140159 0.000518293 0.0015206 -0.000991735 -0.00345679 -0.0038374 -0.00188764 0.00199601 0.000802768 -0.002 -0.00519298 0.00214286 -0.000238806 0.00360563 0.00335385
internal_weight=1058 180 155 878 655 533 120 80 122 88 500 288 93 56 195 66 212 129
internal_count=1058 180 155 878 655 533 120 80 122 88 500 288 93 56 195 66 212 129
is_linear=0
shrinkage=0.04


Tree=26
num_leaves=21
num_cat=0
split_feature=13 19 5 8 12 4 17 9 2 13 12 17 9 12 8 11 2 2 5 9
split_gain=4.02155 4.44832 1.85588 6.23367 3.83979 0.965776 0.965116 1.45903 1.64183 0.463235 0.620605 0.378873 0.221444 0.21983 0.512793 0.11026 0.120287 0.0335678 0.103266 0.0244514
threshold=18.250000000000004 1.0000000180025095e-35 8.5500000000000025 9.6500000000000004 53.500000000000007 5.2500000000000009 -0.37940952255126065 78.500000000000014 7.3500000000000005 10.050000000000002 37.500000000000007 -0.37940952255126065 96.500000000000014 74.500000000000014 6.1500000000000012 -0.34999999999999992 0.8500000000000002 6.3500000000000005 4.5500000000000007 109.50000000000001
decision_type=2 2 2 2 2 2 2 2 2 2 2 2 2 2 2 2 2 2 2 2
left_child=2 -2 6 4 5 -4 7 8 -1 10 -9 -5 -12 15 -15 -8 -17 -18 -19 -11
right_child=1 -3 3 11 -6 -7 13 9 -10 19 12 -13 -14 14 -16 16 17 18 -20 -21
leaf_value=-0.016643967316002928 0.041808739236307006 -0.017131833409166831 0.01641586420153018 0.0013117402620309055 -0.022422640007437114 -0.0078963974462154737 0.035791859842771404 -0.0018200525242255802 0.0068148576481844763 0.013101944862013262 -0.00017461125628038743 0.11425748868940674 0.036119957496679789 -0.0036667687173734332 0.020892435873293268 0.0003025048753083283 0.0097354169446257095 0.0027768072414934364 0.079345846076763607 0.01126910910623698
leaf_weight=25 28 47 26 46 40 25 25 38 33 73 49 111 40 27 36 26 261 25 52 25
leaf_count=25 28 47 26 46 40 25 25 38 33 73 49 111 40 27 36 26 261 25 52 25
internal_value=0.000181303 -0.00868421 0.000865854 -0.00212048 -0.0103913 -0.003 0.001875 4.22537e-05 -0.00555932 0.00150442 -9.37499e-05 0.00270886 0.00173333 0.00301987 0.0008125 0.00337436 0.00355069 0.00375221 0.00292308 0.00355556
internal_weight=1058 75 983 248 91 51 735 283 58 225 127 157 89 452 63 389 364 338 77 98
internal_count=1058 75 983 248 91 51 735 283 58 225 127 157 89 452 63 389 364 338 77 98
is_linear=0
shrinkage=0.04


Tree=27
num_leaves=21
num_cat=0
split_feature=8 9 13 5 10 9 13 8 4 18 11 16 17 8 9 16 13 5 5 5
split_gain=4.21788 2.90582 2.68027 1.34633 1.20591 1.43598 1.10458 0.912316 1.30264 0.514534 0.937708 1.16319 0.460016 0.410792 0.70797 0.363719 0.255778 0.120934 0.0301636 0.0274653
threshold=3.0500000000000003 74.500000000000014 20.250000000000004 7.5500000000000007 9.8500000000000032 79.500000000000014 17.350000000000005 8.8500000000000032 1.9500000000000002 0.60355339059327384 7.9500000000000011 1040.0000000000002 -0.25881904510252113 5.3500000000000005 87.500000000000014 1682.5000000000002 9.4500000000000011 7.9500000000000011 1.8500000000000003 2.9500000000000006
decision_type=2 2 2 2 2 2 2 2 2 2 2 2 2 2 2 2 2 2 2 2
left_child=1 -1 3 15 5 7 9 8 -2 10 13 16 -9 14 -7 -3 -12 18 -11 -15
right_child=4 2 -4 -5 -6 6 -8 12 -10 17 11 -13 -14 19 -16 -17 -18 -19 -20 -21
leaf_value=-0.013314147488903595 -0.00051118918698831654 0.0070626939911722945 -0.014846560424888418 -0.02099337299520972 0.064790347695176623 -0.0024049326141865161 -0.011978824244856152 -0.0018874706487244305 -0.011763479470044831 0.027972355983444077 0.055891615969415574 -0.0027661191726343552 0.0031841165393777585 0.03131295414811551 0.0001833471217725183 -0.00035305510118061886 -0.00086178865250592152 0.10391964357228255 0.091692250725006308 0.015026161292014385
leaf_weight=25 27 60 35 31 217 25 33 41 31 25 27 36 27 25 42 29 29 25 162 106
leaf_count=25 27 60 35 31 217 25 33 41 31 25 27 36 27 25 42 29 29 25 162 106
internal_value=0.000256846 -0.00530387 -0.00320513 -0.000330578 0.00140159 0.000549849 0.00145522 -0.00327559 -0.00691525 0.00192445 0.000824742 -0.00249462 -0.000115942 0.00237186 -0.00017647 0.00217778 0.00112281 0.00341784 0.00376596 0.00366667
internal_weight=1058 180 155 120 878 661 535 126 58 502 290 92 68 198 67 89 56 212 187 131
internal_count=1058 180 155 120 878 661 535 126 58 502 290 92 68 198 67 89 56 212 187 131
is_linear=0
shrinkage=0.04


Tree=28
num_leaves=20
num_cat=0
split_feature=13 19 8 9 5 16 18 0 9 5 11 13 4 5 1 12 2 5 16
split_gain=4.09029 4.44832 1.63259 3.49659 1.52108 0.757738 1.49539 0.853495 0.804567 1.06816 0.834271 0.552183 0.391955 0.340729 0.285058 0.14695 0.412605 0.142631 0.10535
threshold=18.250000000000004 1.0000000180025095e-35 3.0500000000000003 77.500000000000014 8.6500000000000004 197.50000000000003 0.25881904510252057 11.450000000000001 79.500000000000014 8.0500000000000025 7.9500000000000011 7.3500000000000005 12.850000000000003 3.8500000000000001 4.3500000000000005 31.500000000000004 4.3500000000000005 14.15 1592.5000000000002
decision_type=2 2 2 2 2 2 2 2 2 2 2 2 2 2 2 2 2 2 2
left_child=2 -2 3 -1 18 14 7 8 9 13 11 -10 15 -7 -4 16 -8 -16 -5
right_child=1 -3 5 4 -6 6 12 -9 10 -11 -12 -13 -14 -15 17 -17 -18 -19 -20
leaf_value=-0.014565252501724413 0.040728440805151755 -0.015852697655804621 0.00055352789762412038 0.0064348769138044513 -0.02112746043947936 -0.0020833952310224356 0.034354329603448572 0.055709512889408716 -0.0011949987120270301 -0.023549004101925532 -0.0022547092508185137 0.0065770583939166061 -3.3474618479331346e-05 0.00083134596560833119 0.052586562801479983 0.045367588953057231 -0.001588548504302246 0.0032892449621739241 0.00087368631467049239
leaf_weight=28 28 47 25 55 26 25 49 41 48 27 49 59 41 27 233 175 25 25 25
leaf_count=28 28 47 25 55 26 25 49 41 48 27 49 59 41 27 233 175 25 25 25
internal_value=0.000256846 -0.00868421 0.000947155 -0.00314074 0.000224299 0.00159529 0.000747796 -0.0013574 -0.00228814 -0.00555 -0.000611465 0.00137037 0.00274914 -0.00211321 0.00328169 0.003344 0.00181333 0.00367568 0.00296296
internal_weight=1058 75 983 134 106 849 566 276 235 79 156 107 290 52 283 249 74 258 80
internal_count=1058 75 983 134 106 849 566 276 235 79 156 107 290 52 283 249 74 258 80
is_linear=0
shrinkage=0.04


Tree=29
num_leaves=19
num_cat=0
split_feature=8 14 17 10 9 10 2 12 12 3 11 0 14 19 17 12 16 5
split_gain=3.71841 3.4382 2.90774 1.24623 1.44387 2.01369 2.64896 1.57494 1.26756 0.887001 0.727765 0.608207 0.514712 0.510971 0.148887 0.40958 0.139438 0.0875981
threshold=3.0500000000000003 228.50000000000003 -0.37940952255126065 9.8500000000000032 97.500000000000014 3.5500000000000003 6.4500000000000011 59.500000000000007 24.500000000000004 10.050000000000002 1.0500000000000003 0.75000000000000011 159.50000000000003 0.6078576107927941 -0.78656609248549292 36.500000000000007 297.50000000000006 5.5500000000000007
decision_type=2 2 2 2 2 2 2 2 2 2 2 2 2 2 2 2 2 2
left_child=1 2 -1 4 5 6 -2 13 -6 10 -9 -3 -12 -7 15 -10 -5 -13
right_child=3 11 -4 16 8 7 -8 9 14 -11 12 17 -14 -15 -16 -17 -18 -19
leaf_value=-0.02040204163625239 -0.0011471987635459503 -0.0037094001636890283 -0.0087140132371891412 0.085560447919523344 -0.002810561670055345 0.028022641971845518 -0.0079933335391103606 -0.0058288740563825258 -0.0013180142525052647 -0.041186229466562051 0.0054730188404600189 0.019539581317666276 -0.0016021864385739651 -0.00081595393710755129 0.062456484655875118 0.029484535732747643 0.0007854639121397868 0.0058388092009026013
leaf_weight=45 48 28 47 192 37 121 25 29 25 30 49 25 40 37 172 48 25 35
leaf_count=45 48 28 47 192 37 121 25 29 25 30 49 25 40 37 172 48 25 35
internal_value=-8.30971e-05 -0.00530387 -0.0106667 0.000992037 0.000126888 -0.00148421 -0.00740541 -5.21171e-05 0.00228975 -0.00300671 -0.00141176 0.000359551 0.0004 0.00271698 0.00333333 0.00178378 0.00361468 0.00262295
internal_weight=1058 180 92 878 661 379 73 306 282 148 118 88 89 158 245 73 217 60
internal_count=1058 180 92 878 661 379 73 306 282 148 118 88 89 158 245 73 217 60
is_linear=0
shrinkage=0.04


Tree=30
num_leaves=20
num_cat=0
split_feature=13 19 12 8 4 9 8 10 6 8 8 4 18 12 3 6 13 1 0
split_gain=3.35456 5.3567 1.7038 2.61454 3.68201 5.46737 1.16298 0.894999 1.39983 2.01064 0.431387 1.10304 0.688489 0.591523 0.294935 0.249317 0.137947 0.0909655 0.0309372
threshold=18.650000000000002 1.0000000180025095e-35 55.500000000000007 7.1500000000000012 5.0500000000000007 85.500000000000014 4.8500000000000005 10.65 8.908333333333335 13.950000000000001 8.9500000000000011 10.550000000000002 -0.70710678118654757 24.500000000000004 8.3500000000000032 6.2833333333333341 4.2500000000000009 2.1500000000000008 1.2500000000000002
decision_type=2 2 2 2 2 2 2 2 2 2 2 2 2 2 2 2 2 2 2
left_child=2 -2 10 4 6 -6 17 8 15 -10 11 12 -1 -14 18 -5 -12 -4 -15
right_child=1 -3 3 7 5 -7 -8 -9 9 -11 16 -13 13 14 -16 -17 -18 -19 -20
leaf_value=-0.0010866472690649086 0.028653026846893581 -0.016187427075034868 0.0020881201659579207 0.001924583055940385 -0.018847393144236987 0.007103025969846152 -0.0026654845008924838 0.066989341450411494 -0.006603906894103527 0.024583225122368213 0.014312407100222951 -0.0065012593805621926 -0.0002607330938723137 0.0014201179257289818 0.01132897434650453 0.0069064198351967455 0.0559428063850686 0.0059786620178476626 0.017586572366366477
leaf_weight=40 28 33 25 25 32 25 45 110 27 38 25 26 30 25 25 61 177 38 188
leaf_count=40 28 33 25 25 32 25 45 110 27 38 25 26 30 25 25 61 177 38 188
internal_value=5.07814e-05 -0.00896774 0.00063136 -0.00125527 -0.00518072 -0.0133103 -0.000807339 0.00123664 -0.000763158 -0.00515151 0.00213035 0.00124179 0.00191586 0.00264684 0.00331381 0.00257471 0.00358621 0.0026875 0.00379439
internal_weight=1023 61 962 426 165 57 108 261 151 65 536 334 308 268 238 86 202 63 213
internal_count=1023 61 962 426 165 57 108 261 151 65 536 334 308 268 238 86 202 63 213
is_linear=0
shrinkage=0.04


Tree=31
num_leaves=20
num_cat=0
split_feature=8 11 11 12 12 16 9 10 5 10 17 12 18 16 10 4 8 5 5
split_gain=2.72051 1.42772 2.35987 2.67545 1.22335 2.04609 2.12338 1.97362 1.15685 1.34056 0.715787 2.56662 0.559493 1.65037 0.365527 0.278747 0.14877 0.295793 0.0259441
threshold=2.5500000000000003 6.3500000000000005 13.15 42.500000000000007 58.500000000000007 187.50000000000003 96.500000000000014 4.0500000000000007 7.8500000000000005 8.1500000000000004 -0.78656609248549292 31.500000000000004 -0.70710678118654757 202.50000000000003 8.1500000000000004 11.15 8.0500000000000025 3.6500000000000008 11.450000000000001
decision_type=2 2 2 2 2 2 2 2 2 2 2 2 2 2 2 2 2 2 2
left_child=1 -1 3 -3 10 14 7 -7 9 -9 11 -2 13 -12 -6 -14 17 -13 -16
right_child=4 2 -4 -5 5 6 -8 8 -10 -11 12 16 15 -15 18 -17 -18 -19 -20
leaf_value=0.0069233611661870574 -0.0042830889190235127 -0.0054524818645362606 0.0078124376714971116 -0.018109985563495412 -0.00018361744187069928 -0.021758987617169021 0.090343177271706168 0.010677190488943866 -0.018043352581190483 -0.0021506505968887936 0.039929222230543189 0.029522311304984443 0.056138775361375529 -0.0015390911393514024 0.067116862871991562 0.0047307839663733638 0.050776360787766185 -0.0013500712135086843 0.13710339278660738
leaf_weight=28 29 25 35 35 42 25 43 48 42 26 50 26 304 25 87 49 53 26 25
leaf_count=28 29 25 35 35 42 25 43 48 42 26 50 26 304 25 87 49 53 26 25
internal_value=0.000167969 -0.0053871 -0.00770833 -0.012459 0.000932298 -0.000967551 -0.00380541 -0.00616901 -0.00389744 -0.000853333 0.0020746 -0.000474074 0.00287179 -0.000263158 0.00242581 0.00353672 0.00245283 0.000905661 0.00361062
internal_weight=1023 123 95 60 900 338 184 141 116 74 562 134 428 75 154 353 105 52 112
internal_count=1023 123 95 60 900 338 184 141 116 74 562 134 428 75 154 353 105 52 112
is_linear=0
shrinkage=0.04


Tree=32
num_leaves=20
num_cat=0
split_feature=13 12 8 9 5 4 0 10 9 14 17 4 12 18 8 4 5 1 0
split_gain=3.53442 1.43587 2.4213 3.13589 1.67088 1.48221 0.888381 0.603766 1.1857 0.475491 0.399636 0.598113 0.488604 0.36556 0.691931 0.209532 0.138815 0.0227917 0.0163241
threshold=18.250000000000004 54.500000000000007 7.8500000000000005 76.500000000000014 7.8500000000000005 1.8500000000000003 2.0500000000000003 10.65 67.500000000000014 153.50000000000003 -0.60355339059327362 11.15 31.500000000000004 -0.12940952255126037 9.5500000000000025 3.4500000000000006 1.5500000000000003 7.5500000000000007 3.9500000000000006
decision_type=2 2 2 2 2 2 2 2 2 2 2 2 2 2 2 2 2 2 2
left_child=1 10 3 5 15 -3 -2 8 -4 -10 12 16 -1 14 -14 18 -12 -15 -5
right_child=6 2 7 4 -6 -7 -8 -9 9 -11 11 -13 13 17 -16 -17 -18 -19 -20
leaf_value=-0.00099193250274212641 -0.011494620276682242 -0.0020926943875291429 -0.012047217499578924 0.0092194740283692133 -0.017918507887989418 -0.015599419295074789 -0.011109482085255938 0.065057327919425076 0.039545103817331395 -0.00023561141428332953 0.00083624344263615968 -0.00024776743090315206 -0.012063105560578971 0.031191766459209215 0.041199132506477609 0.00022955286250471113 0.045120164573363299 0.092872133922650271 0.020638008405817199
leaf_weight=39 38 25 28 33 26 36 28 113 69 45 26 34 25 61 25 46 276 25 25
leaf_count=39 38 25 28 33 26 36 28 113 69 45 26 34 25 61 25 46 276 25 25
internal_value=0.000285156 0.000906054 -0.000751678 -0.00414583 -0.000610687 -0.0115484 -0.00859701 0.00179688 5.59442e-05 0.00187826 0.00235156 0.00315727 0.000795455 0.00192701 -0.000784314 0.00167619 0.00372277 0.00349425 0.00325424
internal_weight=1023 957 446 191 130 61 66 255 142 114 511 336 175 136 50 104 302 86 58
internal_count=1023 957 446 191 130 61 66 255 142 114 511 336 175 136 50 104 302 86 58
is_linear=0
shrinkage=0.04


Tree=33
num_leaves=23
num_cat=0
split_feature=13 19 8 10 11 16 9 0 0 9 1 7 2 8 8 9 1 13 10 5 0 1
split_gain=3.4422 5.3567 1.51548 1.5151 2.29052 0.957698 1.82579 2.17516 0.924295 1.86735 0.640955 0.490129 0.386745 0.754454 0.566352 0.115205 0.112515 0.100118 0.0454625 0.0851637 0.019475 0.0148718
threshold=18.650000000000002 1.0000000180025095e-35 2.5500000000000003 1.0500000000000003 6.7500000000000009 157.50000000000003 87.500000000000014 4.1500000000000012 10.250000000000002 67.500000000000014 6.1500000000000012 6.0854166666666671 4.8500000000000005 8.5500000000000025 6.0500000000000007 96.500000000000014 14.15 5.0500000000000007 7.8500000000000005 5.6500000000000012 11.750000000000002 5.1500000000000012
decision_type=2 2 2 2 2 2 2 2 2 2 2 2 2 2 2 2 2 2 2 2 2 2
left_child=2 -2 3 -1 -5 16 7 -7 9 -9 21 -12 17 14 -14 -15 18 -8 19 -4 -10 -11
right_child=1 -3 5 4 -6 6 12 8 20 10 11 -13 13 15 -16 -17 -18 -19 -20 -21 -22 -23
leaf_value=0.01134745017440782 0.028069922353835684 -0.014533032080831293 0.0061559800481881125 0.0049554753237237925 -0.014185882037673386 -0.015476531324260872 0.0066885643863806325 -0.0060070672480268547 0.039515378811228428 0.020654081751593605 -0.0008340204603943949 0.00070510765315314643 0.010270511666060253 0.003849729905329499 -0.0052152278147083323 0.09672000735489715 0.088722127668184672 0.01910608266015373 0.06745350167305296 0.012980777823678321 0.05279853281971706 0.0098864228795719974
leaf_weight=27 28 33 25 25 42 45 32 28 25 29 25 41 26 25 44 73 25 154 169 33 44 25
leaf_count=27 28 33 25 25 42 45 32 28 25 29 25 41 26 25 44 73 25 154 169 33 44 25
internal_value=0.000167969 -0.00896774 0.000755971 -0.00404211 -0.00723529 0.00127963 0.000427877 -0.00209886 -0.000422018 -0.00220134 1.4778e-10 -0.00262687 0.00229859 0.000899408 -0.00225352 0.00315152 0.00335178 0.0035508 0.00363158 0.00257627 0.00337143 0.0032
internal_weight=1023 61 962 94 67 868 616 262 217 148 120 66 354 168 70 98 252 186 227 58 69 54
internal_count=1023 61 962 94 67 868 616 262 217 148 120 66 354 168 70 98 252 186 227 58 69 54
is_linear=0
shrinkage=0.04


Tree=34
num_leaves=21
num_cat=0
split_feature=13 19 12 8 5 9 5 20 16 10 18 12 13 8 8 13 10 9 12 9
split_gain=3.4726 5.06146 1.53092 2.55659 3.25647 2.86594 0.622014 0.332357 0.691931 0.313417 0.836562 0.890319 0.696486 0.290211 0.697421 0.239298 0.180469 0.177243 0.25738 0.129899
threshold=18.250000000000004 1.0000000180025095e-35 53.500000000000007 7.1500000000000012 8.4500000000000011 76.500000000000014 14.400000000000002 -0.56174490092936669 212.50000000000003 3.4500000000000006 0.60355339059327384 31.500000000000004 7.7500000000000009 4.1500000000000012 6.2500000000000009 11.250000000000002 9.3500000000000032 96.500000000000014 68.500000000000014 97.500000000000014
decision_type=2 2 2 2 2 2 2 2 2 2 2 2 2 2 2 2 2 2 2 2
left_child=2 -2 9 4 5 -4 7 8 -5 10 11 -1 -13 -7 -15 -11 17 18 -9 -12
right_child=1 -3 3 6 -6 13 -8 16 -10 15 19 12 -14 14 -16 -17 -18 -19 -20 -21
leaf_value=-0.0018387781760350124 0.029086086465454897 -0.013251884694237215 -0.0095589333063668281 0.049067706564921418 -0.033172733266544109 0.0091354833400026439 -0.0050432032696340447 0.0224240440335195 -0.0016512593074828937 0.043678503367257621 0.048815946945850633 -0.0012344489879531288 0.0046059630620909646 -0.0014815718434220985 0.028857296862345963 0.0033545239999725391 0.059357734040172964 0.097598652110721287 -0.00079113622989592598 0.046462012922427923
leaf_weight=28 29 37 46 25 25 41 30 34 25 196 25 39 51 33 31 32 108 34 32 122
leaf_count=28 29 37 46 25 25 41 30 34 25 196 25 39 51 33 31 32 108 34 32 122
internal_value=0.000207031 -0.00859701 0.000822547 -0.000825806 -0.00461017 -0.00234211 0.00149481 0.00213127 -0.000784314 0.00237247 0.00142857 -0.00107563 0.000879121 0.00132075 -0.000369231 0.00345852 0.00283254 0.00158416 0.000358209 0.00343243
internal_weight=1023 66 957 464 176 151 288 258 50 493 265 118 90 105 64 228 208 100 66 147
internal_count=1023 66 957 464 176 151 288 258 50 493 265 118 90 105 64 228 208 100 66 147
is_linear=0
shrinkage=0.04


Tree=35
num_leaves=23
num_cat=0
split_feature=0 14 9 14 17 17 4 4 0 9 5 5 13 20 9 3 4 0 20 18 4 1
split_gain=2.29994 2.73741 4.09164 2.14029 1.77874 1.11855 1.23033 1.36948 1.4157 1.75009 0.754543 0.581526 1.56639 0.310812 0.310493 0.304554 0.268217 0.221032 0.214506 0.275374 0.124152 0.0224698
threshold=2.5500000000000003 228.50000000000003 96.500000000000014 328.00000000000006 -0.37940952255126065 -1.0000000180025095e-35 6.9500000000000011 4.4500000000000011 7.1500000000000012 97.500000000000014 11.750000000000002 8.4500000000000011 9.9500000000000011 -0.56174490092936669 78.500000000000014 1.6500000000000001 8.9500000000000011 7.5500000000000007 -0.56174490092936669 1.0000000180025095e-35 14.050000000000002 14.250000000000002
decision_type=2 2 2 2 2 2 2 2 2 2 2 2 2 2 2 2 2 2 2 2 2 2
left_child=1 2 4 16 -1 6 7 14 9 -9 13 15 17 -8 -2 -7 -3 -13 19 -17 -15 -19
right_child=5 3 -4 -5 -6 11 10 8 -10 -11 -12 12 -14 20 -16 18 -18 21 -20 -21 -22 -23
leaf_value=-0.015146978472156005 -0.0021105910767069622 0.0087001826704734154 0.0020396120257325932 -0.0062605842043344318 -0.013668677807875491 0.006733048315488193 -8.3620378357413138e-05 -0.014286649235152514 -0.00039791191520283868 -0.0071298612374679337 -0.043118203141149801 -0.00058543719512516479 -0.0062746623844384709 0.046595001180907814 0.0015862053359497455 1.0793146600551446e-06 -6.1226797337290132e-05 0.12743373613537801 0.054312335942846748 0.01388237620687895 0.0012059418344545689 0.16737627512354633
leaf_weight=28 27 79 42 25 32 35 31 27 37 31 27 25 41 98 32 43 25 59 234 41 25 25
leaf_count=28 27 79 42 25 32 35 31 27 37 31 27 25 41 98 32 43 25 59 234 41 25 25
internal_value=-7.85045e-05 -0.00360345 -0.00846602 0.000276923 -0.015082 0.000896305 -0.000892857 -0.00350968 -0.00645833 -0.0103051 0.00134066 0.0020873 1.48025e-10 0.00242581 0.00126667 0.00297175 0.00281905 0.00250909 0.0033605 0.0016 0.00332258 0.00348235
internal_weight=1069 231 102 129 60 838 335 154 95 58 181 503 150 154 59 353 104 109 318 84 123 84
internal_count=1069 231 102 129 60 838 335 154 95 58 181 503 150 154 59 353 104 109 318 84 123 84
is_linear=0
shrinkage=0.04


Tree=36
num_leaves=23
num_cat=0
split_feature=8 14 17 18 16 12 8 5 19 3 13 18 17 2 4 17 0 0 1 3 5 5
split_gain=2.58274 2.80868 2.07371 1.02637 1.90838 1.77438 1.12386 2.15646 2.21819 1.46295 0.867177 0.666435 0.654685 0.503213 0.921861 0.494758 0.121286 0.0782935 0.0302306 0.0240867 0.0311144 0.0235355
threshold=2.5500000000000003 228.50000000000003 -0.37940952255126065 0.60355339059327384 167.50000000000003 33.500000000000007 14.850000000000003 7.5500000000000007 0.6078576107927941 6.7500000000000009 17.800000000000001 -0.9159756150367534 -0.25881904510252113 5.3500000000000005 5.8500000000000005 -0.25881904510252113 14.400000000000002 6.5500000000000007 4.9500000000000011 11.65 1.8500000000000003 1.2500000000000002
decision_type=2 2 2 2 2 2 2 2 2 2 2 2 2 2 2 2 2 2 2 2 2 2
left_child=1 2 -1 4 15 -6 7 11 9 -9 19 -7 -3 21 -15 -2 18 -16 -17 20 -5 -13
right_child=3 12 -4 10 5 6 -8 8 -10 -11 -12 13 -14 14 17 16 -18 -19 -20 -21 -22 -23
leaf_value=-0.015458052758196728 -0.0045068440155291113 0.010609890841731045 -0.0066483561227495451 0.019328659214839183 -0.0062142955213865814 -0.001557554281055179 0.069213612919659273 0.022682354403351614 -0.014548983166387865 -0.010181775127772536 -0.002731564438445615 0.0033932463867909356 -0.0029520520721080376 -0.00095148860179674255 0.00012074375954291017 0.011773360404542079 0.094847171201445965 0.040655693394573075 0.059073134895368966 0.17342432316658382 0.065546172157792376 0.0039902933548069891
leaf_weight=26 35 45 32 25 45 25 65 30 27 45 33 25 27 31 25 25 25 28 164 25 195 66
leaf_count=26 35 45 32 25 45 25 65 30 27 45 33 25 27 31 25 25 25 28 164 25 195 66
internal_value=7.10282e-05 -0.00519084 -0.011661 0.000804255 -5.43805e-05 -0.00172397 -0.000793478 -0.00182178 -0.00652427 -0.00289474 0.00283871 0.000597015 0.000109589 0.00147727 -0.000752941 0.002704 0.00342326 0.00244444 0.00376842 0.00365854 0.00380091 0.00352174
internal_weight=1069 130 58 939 661 412 367 302 102 75 278 200 72 175 84 249 214 53 189 245 220 91
internal_count=1069 130 58 939 661 412 367 302 102 75 278 200 72 175 84 249 214 53 189 245 220 91
is_linear=0
shrinkage=0.04


Tree=37
num_leaves=20
num_cat=0
split_feature=0 9 0 19 14 16 8 3 6 14 19 0 5 18 14 6 7 17 5
split_gain=1.96107 1.39576 3.66074 1.87669 1.1777 1.02337 1.23953 1.15813 0.531602 1.29922 1.02433 0.910816 0.44807 0.261034 0.283467 0.274669 0.235924 0.267805 0.129285
threshold=0.75000000000000011 79.500000000000014 5.7500000000000009 0.6078576107927941 331.50000000000006 212.50000000000003 13.350000000000003 6.1500000000000012 4.491666666666668 196.50000000000003 1.0000000180025095e-35 4.0500000000000007 14.050000000000002 0.1294095225512602 258.50000000000006 3.3583333333333338 12.852083333333335 -0.9159756150367534 4.6500000000000012
decision_type=2 2 2 2 2 2 2 2 2 2 2 2 2 2 2 2 2 2 2
left_child=-1 2 3 -2 8 12 7 -7 13 11 -11 -10 18 14 15 -3 17 -13 -4
right_child=1 4 5 -5 -6 6 -8 -9 9 10 -12 16 -14 -15 -16 -17 -18 -19 -20
leaf_value=-0.0081930338513809594 -0.003911681456445445 -0.00043578833511165023 0.017359069374811738 -0.013759672219620184 -0.0067739851767606553 0.0088788716442891498 0.031041459695378967 -0.01392362759250446 -0.00058489092165801414 -0.00025319148925732513 -0.010601690476188501 0.00026011217461300538 -0.032207753212850757 0.02713011982697058 0.0045533474117346933 0.0010300523304685549 0.03665928185532303 0.052372932183992686 0.054115576838161268
leaf_weight=42 49 27 25 30 32 26 37 26 27 49 29 47 25 204 40 26 25 184 119
leaf_count=42 49 27 25 30 32 26 37 26 27 49 29 47 25 204 40 26 25 184 119
internal_value=0.000183178 0.000533074 -0.00157396 -0.00905 0.00156295 0.000741313 -0.00271111 -0.00664151 0.0019302 0.000895028 -0.00364557 0.00215493 0.00256471 0.00318121 0.00140426 -0.000518518 0.00289494 0.0032931 0.00342069
internal_weight=1069 1027 337 79 690 258 89 52 658 361 78 283 169 297 93 53 256 231 144
internal_count=1069 1027 337 79 690 258 89 52 658 361 78 283 169 297 93 53 256 231 144
is_linear=0
shrinkage=0.04


Tree=38
num_leaves=22
num_cat=0
split_feature=8 11 16 7 17 7 7 19 3 8 5 12 4 12 4 4 12 11 5 8 5
split_gain=1.74601 1.89983 2.53643 1.6223 1.07747 1.17066 2.51761 1.71146 0.814073 1.69071 0.69025 0.436668 0.388015 0.430717 0.672936 0.783768 0.373628 0.36568 0.199734 0.113819 0.0328713
threshold=3.0500000000000003 6.1500000000000012 852.50000000000011 2.1895833333333337 -0.60355339059327362 5.8437500000000018 4.0395833333333337 -1.0000000180025095e-35 10.750000000000002 16.950000000000003 1.2500000000000002 35.500000000000007 11.15 61.500000000000007 4.7500000000000009 3.1500000000000008 64.500000000000014 4.8500000000000005 4.7500000000000009 6.7500000000000009 12.250000000000002
decision_type=2 2 2 2 2 2 2 2 2 2 2 2 2 2 2 2 2 2 2 2 2
left_child=1 -1 -3 -4 5 6 -2 -8 10 -10 -6 -7 13 20 15 17 19 -15 -5 -13 -12
right_child=4 2 3 18 8 11 7 -9 9 -11 12 16 -14 14 -16 -17 -18 -19 -20 -21 -22
leaf_value=0.0044083090119035996 0.0081484946050187808 -0.013760238594521976 -0.0073952708919341496 0.092715073012345078 -0.00054526647859425958 -0.0042751226931417577 -0.00076535141859346149 -0.014435418002268424 -0.022249297035128141 0.084523499438179231 0.046667726759302142 0.0056106320166900928 -6.531305809700647e-05 0.025540607094291654 0.02020200904938128 -0.0039947959103791755 -0.0010372704450893196 -0.00069545617737733309 0.00026797125350558207 0.040430600044736663 0.00075782262921192595
leaf_weight=42 40 42 29 34 33 25 31 25 41 40 301 25 39 36 81 25 35 25 25 70 25
leaf_count=42 40 42 29 34 33 25 31 25 41 40 301 25 39 36 81 25 35 25 25 70 25
internal_value=0.000257944 -0.00342197 -0.00580153 -0.00188764 0.000966593 -0.00125397 -0.00470103 -0.0101053 0.00182998 -0.00190244 0.00236749 0.000897436 0.0027167 0.00302024 0.00135714 -0.00110345 0.00183206 0.00135484 0.00193333 0.003125 0.00386544
internal_weight=1069 172 130 88 897 251 96 56 646 81 565 155 532 493 167 86 130 61 59 95 326
internal_count=1069 172 130 88 897 251 96 56 646 81 565 155 532 493 167 86 130 61 59 95 326
is_linear=0
shrinkage=0.04


Tree=39
num_leaves=22
num_cat=0
split_feature=0 19 11 7 14 18 19 12 10 18 12 11 12 17 12 19 12 4 2 11 0
split_gain=1.70402 2.16935 4.04044 2.40259 2.27246 1.32871 1.56438 1.13172 1.24452 1.15724 2.06815 1.32044 1.01387 0.948347 1.05173 0.626681 0.326276 0.267762 0.307315 0.0942904 0.0163241
threshold=3.7500000000000004 0.6078576107927941 6.1500000000000012 4.897916666666668 223.50000000000003 -0.12940952255126037 -1.0000000180025095e-35 58.500000000000007 10.65 -0.3794095225512602 71.500000000000014 3.3500000000000001 25.500000000000004 -0.78656609248549292 34.500000000000007 0.6078576107927941 49.500000000000007 11.450000000000001 6.5500000000000007 8.2500000000000018 6.6500000000000012
decision_type=2 2 2 2 2 2 2 2 2 2 2 2 2 2 2 2 2 2 2 2 2
left_child=1 5 -3 4 -4 6 -1 13 9 10 11 -9 -7 14 -2 20 -16 -15 -19 -10 -11
right_child=7 2 3 -5 -6 12 -8 8 19 15 -12 -13 -14 17 16 -17 -18 18 -20 -21 -22
leaf_value=-0.0018156243395338659 -0.0056024200087496211 0.0039047444076393662 -0.014081717388222722 -0.013339684302257387 0.023356083543655523 -0.00069425399785099046 0.0021041743185219583 -0.0013745648607010172 0.043958648170172893 0.0099484410643057176 0.007632557970751676 -0.039025785683580054 0.029265680371670825 0.039925860233600702 0.026102860313085501 -0.00581692964663162 -0.00038494676557211395 -0.00071480163220923271 0.18373187331336455 0.013036808204158081 0.041172306798991809
leaf_weight=31 27 39 28 28 25 45 45 33 63 25 44 29 117 273 40 38 28 25 25 28 33
leaf_count=31 27 39 28 28 25 45 45 33 63 25 44 29 117 273 40 38 28 25 25 28 33
internal_value=-3.73817e-06 -0.0022507 -0.00661157 -0.0116585 -0.00644444 -3.34727e-05 -0.00436364 0.00112921 -0.00077551 -0.00252217 -0.00538318 -0.0100317 0.00201227 0.00246301 -0.00104167 0.000659794 0.00162319 0.00349383 0.000784314 0.00308696 0.00325424
internal_weight=1069 358 120 81 53 238 76 711 293 202 106 62 162 418 95 96 68 323 50 91 58
internal_count=1069 358 120 81 53 238 76 711 293 202 106 62 162 418 95 96 68 323 50 91 58
is_linear=0
shrinkage=0.04


Tree=40
num_leaves=23
num_cat=0
split_feature=8 19 11 9 18 7 2 12 7 4 7 13 3 11 8 6 7 12 12 11 3 6
split_gain=1.9417 2.85483 3.14873 3.02877 1.80435 2.65898 1.39207 1.26101 1.05199 0.847075 0.790625 0.776342 1.0406 0.2586 0.202352 0.200754 0.331235 0.159045 0.403061 0.033247 0.0977201 0.030663
threshold=9.6500000000000004 0.6078576107927941 6.1500000000000012 88.500000000000014 -0.12940952255126037 6.4312500000000012 2.6500000000000008 22.500000000000004 2.5333333333333337 4.1500000000000012 4.9312500000000012 5.2500000000000009 7.5500000000000007 1.0500000000000003 4.7500000000000009 5.6750000000000016 7.8729166666666677 66.500000000000014 71.500000000000014 5.9500000000000011 8.5500000000000025 1.7250000000000003
decision_type=2 2 2 2 2 2 2 2 2 2 2 2 2 2 2 2 2 2 2 2 2 2
left_child=1 4 14 6 5 8 -4 -6 -1 13 -5 12 -2 -10 -3 21 -17 19 -19 20 -13 -9
right_child=11 2 3 10 7 -7 -8 15 9 -11 -12 17 -14 -15 -16 16 -18 18 -20 -21 -22 -23
leaf_value=-0.0013522610068216626 0.050707638505848342 0.0042749298035120818 -0.017724933060533726 0.0025031909623465438 -0.0023716617602515745 -0.00700684260969138 -0.0077393786022545074 0.0015644284354654186 0.0011163224114491797 -0.0011939783656283553 -0.0088133213352605596 0.048798847214426816 -0.0015084590474754782 0.0052395447535407589 0.0060542047224232606 -0.0022993910846159688 0.094881447945913314 -0.002556872223057385 0.01512651132955551 0.061887557210256343 0.050412239081487606 0.028710642679990187
leaf_weight=26 32 35 33 33 29 25 31 25 25 38 27 25 41 69 25 25 29 35 48 162 45 178
leaf_count=26 32 35 33 33 29 25 31 25 25 38 27 25 41 69 25 25 29 35 48 162 45 178
internal_value=3.83892e-06 -0.00132722 -0.00553513 -0.009152 0.000331915 -0.00276087 -0.0151385 0.00231359 -0.000805031 0.000661654 -0.00262295 0.00224165 -0.00145946 0.00269474 0.00196721 0.0032093 0.00101818 0.00310127 0.00157143 0.00363949 0.0028169 0.00378431
internal_weight=1041 653 184 124 469 183 64 286 158 132 60 388 73 94 60 257 54 315 83 232 70 203
internal_count=1041 653 184 124 469 183 64 286 158 132 60 388 73 94 60 257 54 315 83 232 70 203
is_linear=0
shrinkage=0.04


Tree=41
num_leaves=22
num_cat=0
split_feature=8 5 14 11 6 9 12 12 13 3 17 5 7 12 12 3 9 10 17 17 5
split_gain=1.83142 3.16946 3.61309 2.37374 1.613 0.929054 2.17097 0.85372 0.733955 1.0406 0.431584 0.478062 0.454109 0.978071 0.435617 0.319622 0.210788 0.864361 0.195814 0.0781015 0.0310145
threshold=9.6500000000000004 8.6500000000000004 151.50000000000003 6.7500000000000009 0.99166666666666681 76.500000000000014 59.500000000000007 22.500000000000004 5.2500000000000009 7.5500000000000007 -0.9159756150367534 3.6500000000000008 2.4895833333333339 40.500000000000007 74.500000000000014 4.8500000000000005 67.500000000000014 10.65 -0.78656609248549292 -0.9159756150367534 6.4500000000000011
decision_type=2 2 2 2 2 2 2 2 2 2 2 2 2 2 2 2 2 2 2 2 2
left_child=1 4 -3 -4 -1 6 -6 -7 9 -2 11 -9 13 -12 18 -16 17 -10 -14 -18 -20
right_child=8 2 3 -5 5 7 -8 10 16 -11 12 -13 14 -15 15 -17 19 -19 20 -21 -22
leaf_value=-0.0076569704186033585 0.048679332965614414 -0.0130274742866829 0.0041259154293743468 -0.017017659244282054 0.018699414640589242 -0.0015421649941572216 -0.0083749601906383773 0.0087967803561856024 -0.0085991000887541587 -0.0014481206855764608 0.0015637093211191006 -0.0054843651223620664 0.005697121758488792 -0.0011262533913965632 0.01044416232657611 -0.0048494976537435388 0.034767532094032813 0.043776737484142687 0.048362730242359903 0.082585939499412064 0.020799290590424398
leaf_weight=30 32 25 36 35 34 29 44 28 28 41 27 38 35 25 26 25 40 62 191 185 25
leaf_count=30 32 25 36 35 34 29 44 28 28 41 27 38 35 25 26 25 40 62 191 185 25
internal_value=-3.45488e-05 -0.00132722 -0.008 -0.00327778 -0.000164874 0.000356061 -0.00364557 0.00105778 0.00213882 -0.00145946 0.00152019 -0.00143284 0.00207324 -0.00135849 0.00266667 -0.000692308 0.00297468 0.00131868 0.00334921 0.00362832 0.00379724
internal_weight=1041 653 96 71 557 527 78 449 388 73 420 66 354 52 302 51 315 90 251 225 216
internal_count=1041 653 96 71 557 527 78 449 388 73 420 66 354 52 302 51 315 90 251 225 216
is_linear=0
shrinkage=0.04


Tree=42
num_leaves=21
num_cat=0
split_feature=16 18 8 12 17 14 2 6 5 12 9 2 20 13 5 7 12 2 17 12
split_gain=1.71367 2.99121 2.64076 1.75337 1.88333 2.32256 5.76776 1.51223 1.10858 0.955358 0.999153 1.07922 0.587107 0.530102 0.475104 0.474736 0.216576 0.582118 0.122305 0.0304235
threshold=147.50000000000003 -0.12940952255126037 14.850000000000003 41.500000000000007 0.37940952255126054 238.50000000000003 3.0500000000000003 1.0250000000000004 6.5500000000000007 22.500000000000004 86.500000000000014 4.6500000000000012 -0.56174490092936669 18.250000000000004 12.65 4.3187500000000014 34.500000000000007 4.8500000000000005 -0.25881904510252113 83.500000000000014
decision_type=2 2 2 2 2 2 2 2 2 2 2 2 2 2 2 2 2 2 2 2
left_child=14 2 3 -2 5 6 -5 -3 15 -9 11 -11 -6 16 18 -8 17 -12 -1 -20
right_child=1 7 -4 4 12 -7 8 9 -10 10 13 -13 -14 -15 -16 -17 -18 -19 19 -21
leaf_value=0.0051554831201127979 0.00073301460423694416 -0.0066490505751664189 0.045288318592849257 -0.018340050776384578 -0.0028705742061449742 -0.00019426326848122997 -0.00088689349672681228 -0.0014804783943909352 -0.0084965177391462653 0.0099529513426506871 0.023849967465561547 -0.0024376962357037825 0.0018748612729358033 -0.006566384310939353 -0.028986392752785362 0.0057215360116781178 0.03560330353720715 -0.001374242020129845 0.041942734506550922 0.01329583122548572
leaf_weight=25 26 25 53 28 27 39 25 29 33 36 70 41 44 33 25 25 223 39 170 25
leaf_count=25 26 25 53 28 27 39 25 29 33 36 70 41 44 33 25 25 223 39 170 25
internal_value=-7.29365e-05 -0.000973651 -0.0041196 -0.00585484 -0.00700901 -0.00953642 -0.0124643 0.000933602 -0.007 0.00144915 0.00191422 -0.00220513 -0.00161111 0.00278689 0.00284553 -0.00313725 0.00326727 0.00178182 0.00343891 0.00377551
internal_weight=1041 796 300 247 221 150 111 496 83 471 442 77 71 365 245 50 332 109 220 195
internal_count=1041 796 300 247 221 150 111 496 83 471 442 77 71 365 245 50 332 109 220 195
is_linear=0
shrinkage=0.04


Tree=43
num_leaves=23
num_cat=0
split_feature=5 0 16 9 6 7 17 14 2 12 11 13 18 10 12 4 10 3 2 14 5 9
split_gain=1.55358 1.39125 1.25979 2.0914 1.63492 2.44092 1.95509 2.46491 2.57224 1.28633 0.498545 0.481923 0.465069 0.328489 0.320184 0.296073 0.246547 0.457711 0.244523 0.293354 0.128393 0.0298199
threshold=14.400000000000002 6.6500000000000012 147.50000000000003 87.500000000000014 10.79166666666667 7.2145833333333353 0.12940952255126045 228.50000000000003 3.5500000000000003 22.500000000000004 3.1500000000000008 18.250000000000004 -0.12940952255126037 2.2500000000000004 61.500000000000007 1.1500000000000001 8.2500000000000018 5.0500000000000007 8.4500000000000011 111.50000000000001 7.4500000000000011 113.50000000000001
decision_type=2 2 2 2 2 2 2 2 2 2 2 2 2 2 2 2 2 2 2 2 2 2
left_child=2 -2 16 4 5 6 7 8 -4 -5 -10 12 13 -11 -8 -16 17 -1 20 -20 21 -14
right_child=1 -3 3 9 -6 -7 14 -9 10 11 -12 -13 18 -15 15 -17 -18 -19 19 -21 -22 -23
leaf_value=0.025357464799721327 -0.011772773284160201 -0.022527836491353374 -0.014336766324783487 -0.001906097700361655 0.034610034919401247 -0.010733470980237678 0.030436903978600251 0.0026537136185993998 -0.0023590695987465368 0.00028674214157744122 -6.0702588892314221e-07 -0.0068593295441201473 0.025739449905541629 -0.001854013881081939 0.00097819255211604745 -0.00070617081317411441 0.049485577725337376 -0.0011384908061553871 0.14490838361375694 -0.00088680594346713922 0.025849384231911611 0.012560808906733731
leaf_weight=39 25 39 31 30 47 32 47 36 25 26 32 38 213 31 26 26 156 30 26 35 25 26
leaf_count=39 25 39 31 30 47 32 47 36 25 26 32 38 213 31 26 26 156 30 26 35 25 26
internal_value=8.06144e-05 -0.00590769 0.000478528 -0.000308101 -0.00287789 -0.00414062 -0.002625 -0.005952 -0.00952809 0.00141907 -0.00434483 0.00199525 0.00242298 -0.000896552 0.00156 -0.000603773 0.00309735 0.00108571 0.00300614 0.000709678 0.00353208 0.00381667
internal_weight=1041 64 977 752 302 255 223 124 88 450 57 420 382 57 99 52 225 69 325 61 264 239
internal_count=1041 64 977 752 302 255 223 124 88 450 57 420 382 57 99 52 225 69 325 61 264 239
is_linear=0
shrinkage=0.04


Tree=44
num_leaves=24
num_cat=0
split_feature=0 14 12 8 2 9 2 17 16 6 12 7 2 14 10 8 0 9 12 10 3 3 12
split_gain=1.888 2.39104 1.19777 1.29304 2.57223 1.19104 2.12494 0.821263 0.739354 1.30068 0.682752 0.390741 0.424341 1.47558 0.35975 0.325837 0.316827 0.100225 0.0919204 0.188331 0.0751781 0.0300604 0.0291876
threshold=1.5500000000000003 228.50000000000003 61.500000000000007 16.950000000000003 10.750000000000002 86.500000000000014 3.7500000000000004 -0.25881904510252113 297.50000000000006 5.6083333333333352 24.500000000000004 2.4895833333333339 4.5500000000000007 222.50000000000003 8.7500000000000018 8.3500000000000032 5.1500000000000012 95.500000000000014 55.500000000000007 11.050000000000002 7.3500000000000005 1.6500000000000001 34.500000000000007
decision_type=2 2 2 2 2 2 2 2 2 2 2 2 2 2 2 2 2 2 2 2 2 2 2
left_child=1 -1 10 4 5 6 -4 -3 14 -10 -2 -12 21 15 -8 16 20 -7 22 -20 -14 -13 -17
right_child=2 7 3 -5 -6 17 8 -9 9 -11 11 12 13 -15 -16 18 -18 -19 19 -21 -22 -23 -24
leaf_value=-0.014303342401795982 -0.0013863305200020493 0.0078938526719407286 -0.0092063431369819523 0.092469438539005092 -0.04062077655041918 0.0066025399497514452 -0.0005662709633961632 -0.0011804872867589163 0.00071159863283755127 -0.0053739219343572195 -0.00033678609809072212 0.0086765431003926058 0.00050551368012776809 -0.0015508571235235918 0.04175222788963371 0.021512001474024236 -0.0010911913527427621 0.072344777065673785 0.014398253985040408 0.039006242121355589 0.046387557496190217 0.024159009513467129 0.042402343071665356
leaf_weight=44 44 36 27 57 25 25 36 25 29 26 41 25 25 48 41 25 37 48 25 30 26 159 137
leaf_count=44 44 36 27 57 25 25 36 25 29 26 41 25 25 48 41 25 37 48 25 30 26 159 137
internal_value=-3.45488e-05 -0.00509434 0.000537887 -0.00147302 -0.00268217 -0.00133906 -0.003275 6.45163e-05 -0.00114286 -0.00464286 0.00155377 0.00192055 0.00220818 0.00138983 0.00138462 0.0024183 0.000359551 0.00286486 0.00324771 0.00178571 0.00238462 0.00376216 0.00373006
internal_weight=1041 105 936 314 257 232 159 61 132 55 622 578 537 353 77 305 88 73 217 55 51 184 162
internal_count=1041 105 936 314 257 232 159 61 132 55 622 578 537 353 77 305 88 73 217 55 51 184 162
is_linear=0
shrinkage=0.04


Tree=45
num_leaves=24
num_cat=0
split_feature=0 9 5 17 12 9 12 0 14 3 8 12 14 7 12 9 4 13 3 16 4 14 9
split_gain=2.13411 3.11568 3.29584 1.51325 1.90851 1.875 1.5064 1.09888 0.860356 0.730692 0.621453 0.569684 0.563174 0.39069 0.323593 0.771643 0.272808 0.10535 0.100225 0.0915055 0.218524 0.0445789 0.0788906
threshold=6.8500000000000005 79.500000000000014 7.5500000000000007 -0.70710678118654735 29.500000000000004 89.500000000000014 59.500000000000007 1.2500000000000002 189.00000000000003 4.7500000000000009 6.2500000000000009 73.500000000000014 236.50000000000003 1.76875 66.500000000000014 65.500000000000014 13.550000000000002 7.1500000000000012 9.6500000000000004 367.50000000000006 8.5500000000000025 253.50000000000003 98.500000000000014
decision_type=2 2 2 2 2 2 2 2 2 2 2 2 2 2 2 2 2 2 2 2 2 2 2
left_child=1 2 6 4 -3 -6 -1 12 14 -8 17 13 -5 -9 19 -16 21 -7 -17 -2 -21 -15 -23
right_child=8 3 -4 7 5 10 9 11 -10 -11 -12 -13 -14 16 15 18 -18 -19 -20 20 -22 22 -24
leaf_value=0.016829516811485559 0.038299546169112408 -0.0067286203443364511 -0.010551645273886389 -0.010252658306101409 -0.012933703543721189 0.008750812371751902 -0.0057579659681243154 -0.00033208010847737412 -0.0020441683563188913 -0.00068552587550361587 -0.0050538100833183788 -0.00082070689476229695 0.00018733828942844345 0.042541138915157165 -0.017345096964283855 0.11107267051314951 0.018942552505260106 0.016853439189271222 0.00037025094456559097 0.010902321153054785 0.060208157135737989 0.0055439301297733681 0.0017055087327555139
leaf_weight=37 173 35 34 25 31 25 30 27 44 25 31 45 28 159 26 48 25 55 25 25 42 32 26
leaf_count=37 173 35 34 25 31 25 30 27 44 25 31 45 28 159 26 48 25 55 25 25 42 32 26
internal_value=-0.000368121 -0.00172876 -0.00737008 -0.000411009 -0.0034382 -0.00134266 -0.00335484 0.00105435 0.00201042 -0.0075 0.00110714 0.00195556 -0.00422222 0.00265185 0.00269412 0.00076 0.00316049 0.00296296 0.00286486 0.00348548 0.00217647 0.00361468 0.00257627
internal_weight=1053 670 126 544 177 142 92 367 383 55 111 314 53 269 339 99 242 80 73 240 67 217 58
internal_count=1053 670 126 544 177 142 92 367 383 55 111 314 53 269 339 99 242 80 73 240 67 217 58
is_linear=0
shrinkage=0.04


Tree=46
num_leaves=20
num_cat=0
split_feature=0 18 4 14 2 1 13 19 14 16 14 12 12 4 14 17 1 17 5
split_gain=1.68442 2.65486 2.60849 2.85828 1.35621 1.22284 1.41547 2.74721 0.860356 0.713432 1.05155 1.82513 0.638984 0.4971 0.372781 0.645351 0.226859 0.212954 0.030634
threshold=6.8500000000000005 -0.12940952255126037 3.9500000000000006 197.50000000000003 3.5500000000000003 6.3500000000000005 17.350000000000005 0.6078576107927941 189.00000000000003 147.50000000000003 268.50000000000006 65.500000000000014 24.500000000000004 11.65 127.50000000000001 -1.0000000180025095e-35 10.750000000000002 0.91597561503675362 3.2500000000000004
decision_type=2 2 2 2 2 2 2 2 2 2 2 2 2 2 2 2 2 2 2
left_child=1 2 9 4 -4 6 12 -8 14 -1 11 -11 -3 17 18 -16 -17 -14 -2
right_child=8 5 3 -5 -6 -7 7 -9 -10 10 -12 -13 13 -15 15 16 -18 -19 -20
leaf_value=0.014061774848129928 0.013583506220458388 -0.0010665772106037317 -0.010526386415833281 -0.0050834788798927886 -0.0010748509340192491 -0.003557029167461547 0.0032104426649519962 -0.012166951176491929 -0.0019624016220661385 -0.0098573042045036561 0.0024078806938618593 0.0059272875561461524 0.020536844370666225 -0.0016288067788826858 -0.0061117781568732514 0.13689808553965579 0.050946975130432719 0.0013945449911527494 0.038466674338356301
leaf_weight=43 25 36 25 38 32 39 45 26 44 42 33 26 224 25 29 66 42 36 177
leaf_count=43 25 36 25 38 32 39 45 26 44 42 33 26 224 25 29 66 42 36 177
internal_value=-0.000102467 -0.00131148 -0.00468333 -0.00979167 -0.0153793 0.000564815 0.00124173 -0.00383333 0.00201042 -0.00126897 -0.00309804 -0.00591304 0.00237267 0.00300699 0.00269412 0.00107246 0.00249541 0.0035249 0.00378325
internal_weight=1053 670 239 95 57 431 392 71 383 144 101 68 321 285 339 137 108 260 202
internal_count=1053 670 239 95 57 431 392 71 383 144 101 68 321 285 339 137 108 260 202
is_linear=0
shrinkage=0.04


Tree=47
num_leaves=23
num_cat=0
split_feature=8 14 9 10 9 5 0 13 18 12 11 10 10 14 8 13 0 7 9 16 1 5
split_gain=1.66973 2.14296 1.31279 1.03956 1.89861 1.47682 1.75917 0.890889 0.840531 0.831319 0.68432 0.490803 0.666327 1.08514 0.333825 0.324135 0.27496 0.26553 0.186053 0.141314 0.0294898 0.0289072
threshold=2.5500000000000003 228.50000000000003 89.500000000000014 10.65 79.500000000000014 7.5500000000000007 6.6500000000000012 17.350000000000005 0.60355339059327384 32.500000000000007 4.2500000000000009 2.0500000000000003 5.2500000000000009 131.50000000000003 6.1500000000000012 13.550000000000002 7.1500000000000012 8.8979166666666689 73.500000000000014 2100.0000000000005 7.8500000000000005 14.15
decision_type=2 2 2 2 2 2 2 2 2 2 2 2 2 2 2 2 2 2 2 2 2 2
left_child=1 2 -1 4 5 10 -7 8 9 -6 -2 -11 13 -13 -14 -3 -5 -16 -12 20 -10 -18
right_child=3 15 -4 16 7 6 -8 -9 19 11 18 12 14 -15 17 -17 21 -19 -20 -21 -22 -23
leaf_value=-0.010462414294105838 -0.0016704794910909141 0.0038062335501870149 -0.00064487496173023812 0.0029322467544456421 -0.0020699540138103914 -0.0086271514788687272 -0.021975893242241674 -0.0062120826551235117 0.070802823506830523 0.013565445579783326 0.0069990104551766897 0.0023377394680758924 -0.0042433788427028545 -0.0019799025689694531 0.024876549990465791 -0.00010942979125925626 0.040609857957881391 -0.00046677993714703712 -0.00018783147580265957 0.014912852774550275 0.19734030093480098 0.050652459719415656
leaf_weight=39 29 27 25 25 37 27 48 47 144 59 33 49 25 47 76 42 131 25 26 42 25 25
leaf_count=39 29 27 25 25 37 27 48 47 144 59 33 49 25 47 76 42 131 25 26 42 25 25
internal_value=-0.000216319 -0.00438806 -0.0096 0.00039088 -0.000275676 -0.00407317 -0.00815789 0.00080416 0.00127547 -2.50782e-05 -0.000539326 0.000723404 -0.000143498 -0.00263918 0.00176378 0.000514286 0.0030989 0.00278431 0.00193333 0.00322642 0.00374118 0.00371975
internal_weight=1053 133 64 920 739 163 75 576 529 318 88 281 222 96 126 69 181 101 59 211 169 156
internal_count=1053 133 64 920 739 163 75 576 529 318 88 281 222 96 126 69 181 101 59 211 169 156
is_linear=0
shrinkage=0.04


Tree=48
num_leaves=25
num_cat=0
split_feature=8 19 13 5 9 18 6 13 6 18 3 17 20 13 2 12 12 12 13 4 8 4 5 0
split_gain=1.54378 3.65788 1.59823 3.40927 1.34732 1.17178 0.924688 0.926498 0.845721 0.794606 0.744734 0.698927 1.01215 0.578113 0.561494 1.4165 0.41977 0.231018 0.207151 0.341939 0.0766155 0.0263799 0.0246898 0.0144759
threshold=9.1500000000000004 0.6078576107927941 18.650000000000002 7.5500000000000007 84.500000000000014 0.60355339059327384 4.9083333333333341 10.750000000000002 2.5750000000000006 0.25881904510252057 6.3500000000000005 0.12940952255126045 0.81174490092936691 8.5500000000000025 9.4500000000000011 54.500000000000007 69.500000000000014 22.500000000000004 9.6500000000000004 7.7500000000000009 13.750000000000002 2.4500000000000006 1.8500000000000003 2.9500000000000006
decision_type=2 2 2 2 2 2 2 2 2 2 2 2 2 2 2 2 2 2 2 2 2 2 2 2
left_child=1 5 3 9 -5 6 8 10 13 -3 -8 12 14 -1 15 -2 22 -7 -13 -20 -16 -19 -10 -11
right_child=11 2 -4 4 -6 17 7 -9 16 23 -12 18 -14 -15 20 -17 -18 21 19 -21 -22 -23 -24 -25
leaf_value=-0.001040876314534378 0.016949108026403134 -0.0038354409452723381 -0.011346783196781151 -0.0099190301699695286 -0.0081724254999417205 -5.0210758015354277e-05 -0.0014385587621836354 0.00079648142492419027 0.0012005745819152315 0.0074008170831503396 -0.0048835476350528031 0.12355793467153628 -0.025558675551862056 0.00025398579082421316 0.0060005466722524705 -0.0018166620160213734 -0.0018183946231680077 0.010267790322034868 -0.0016411711589071044 0.13235003006017093 0.03332409810766606 0.066743135153199115 0.014943880332089026 0.015287302392942419
leaf_weight=27 45 38 26 25 30 28 45 33 25 25 31 159 35 25 33 29 26 26 25 31 68 115 75 28
leaf_count=27 45 38 26 25 30 28 45 33 25 25 31 159 35 25 33 29 26 26 25 31 68 115 75 28
internal_value=-0.000216319 -0.00147536 -0.00642775 -0.00473469 -0.0125 0.000402626 -0.00115278 -0.00403636 0.000625698 4.34784e-05 -0.00644156 0.00164319 1.48305e-10 -0.00362264 0.00125 -0.00138667 0.0023937 0.00303529 0.00324074 0.00112281 0.00317647 0.00369014 0.00356436 0.00318519
internal_weight=1053 628 172 146 55 456 287 109 178 91 76 425 210 52 175 74 126 169 215 56 101 141 100 53
internal_count=1053 628 172 146 55 456 287 109 178 91 76 425 210 52 175 74 126 169 215 56 101 141 100 53
is_linear=0
shrinkage=0.04


Tree=49
num_leaves=23
num_cat=0
split_feature=10 9 5 4 17 7 14 19 6 16 2 18 11 4 13 20 0 0 11 11 8 5
split_gain=1.51061 2.82183 2.8023 1.51 1.11811 2.51551 2.23859 3.00765 1.0767 1.06515 0.898093 0.854855 0.976168 2.30521 0.447057 0.342221 0.27496 0.135448 0.118903 0.0993868 0.0909655 0.0289072
threshold=10.65 92.500000000000014 14.400000000000002 12.850000000000003 -1.0000000180025095e-35 6.0645833333333341 224.50000000000003 0.6078576107927941 5.1250000000000009 177.50000000000003 7.4500000000000011 0.78656609248549303 10.250000000000002 8.2500000000000018 7.2500000000000009 -0.56174490092936669 7.1500000000000012 1.7500000000000002 1.3500000000000003 3.7500000000000004 12.250000000000002 14.15
decision_type=2 2 2 2 2 2 2 2 2 2 2 2 2 2 2 2 2 2 2 2 2 2
left_child=1 2 3 4 5 6 7 14 18 -10 -11 12 15 -14 -1 -3 -2 -13 -6 -17 -7 -18
right_child=16 11 -4 -5 8 20 -8 -9 9 10 -12 17 13 -15 -16 19 21 -19 -20 -21 -22 -23
leaf_value=-0.00027139716082217095 0.0028724992347551525 -0.00028922365620030689 -0.027626238246283755 -0.0071055716567943227 0.0031020919136694842 0.0039968487413865137 0.0003772323399740401 -0.012772425296588084 0.020548887509491222 -0.00025755949468812123 -0.0061018647115951312 0.00055420842110912429 -0.0061779133787946295 0.068191145220077451 -0.0016007106137101038 0.0089234733031968091 0.037652499715259496 0.064098739110477962 0.0082211208651513552 0.018089945834031212 0.0011619942642530541 0.04606990992066496
leaf_weight=29 25 38 32 25 25 38 39 30 45 35 25 25 47 46 28 28 131 156 82 74 25 25
leaf_count=29 25 38 32 25 25 38 39 30 45 35 25 25 47 46 28 28 131 156 82 74 25 25
internal_value=-0.000216319 -0.000907216 -0.00306754 -0.00219204 -0.00158209 -0.00381053 -0.00705512 -0.0105909 0.000413146 -0.00245283 -0.00590164 0.00148434 -0.000119658 -0.0032766 -0.00503448 0.00198582 0.0030989 0.00353846 0.00322222 0.00318447 0.0026875 0.00371975
internal_weight=1053 872 458 426 401 189 126 87 212 105 60 414 233 93 57 140 181 181 107 102 63 156
internal_count=1053 872 458 426 401 189 126 87 212 105 60 414 233 93 57 140 181 181 107 102 63 156
is_linear=0
shrinkage=0.04


Tree=50
num_leaves=22
num_cat=0
split_feature=0 14 12 10 9 4 2 3 3 10 18 6 3 18 13 14 11 13 16 6 18
split_gain=1.80994 1.09754 1.17837 1.22794 2.04016 1.99638 1.83521 1.44045 0.711348 0.497723 1.124 0.509242 1.72733 0.287362 0.211742 0.320631 0.182124 0.116703 0.103806 0.174652 0.0257022
threshold=0.75000000000000011 331.50000000000006 56.500000000000007 10.65 79.500000000000014 1.1500000000000001 5.1500000000000012 9.3500000000000032 6.7500000000000009 4.5500000000000007 -0.3794095225512602 4.2916666666666679 7.1500000000000012 0.37940952255126048 6.6500000000000012 162.50000000000003 8.2500000000000018 11.250000000000002 1592.5000000000002 2.8416666666666672 -0.9159756150367534
decision_type=2 2 2 2 2 2 2 2 2 2 2 2 2 2 2 2 2 2 2 2 2
left_child=-1 2 9 4 5 -4 -7 14 -8 10 -2 18 -13 -14 15 -6 -5 20 19 -12 -11
right_child=1 -3 3 16 7 6 8 -9 -10 17 11 12 13 -15 -16 -17 -18 -19 -20 -21 -22
leaf_value=-0.0097956660776448105 -0.0020789554580939603 -0.0062030477223962311 0.0053738425230973764 0.035101433568503621 -0.0025296091208797311 -0.0064870400881516382 0.00032136621678157513 -0.0069303259004156242 -0.01008075645808571 0.0055384976512632749 -1.234115475888475e-05 -0.006984908605680829 0.014319587014657869 0.044784191567193522 0.010765989629112332 0.0095866132097515468 0.0037861872683901867 0.0010206922953948517 0.015050389039462089 0.014962572325222061 0.048460981784553783
leaf_weight=44 31 34 25 72 34 30 29 33 38 28 26 33 36 70 73 28 33 26 110 29 170
leaf_count=44 31 34 25 72 34 30 29 33 38 28 26 33 36 70 73 28 33 26 110 29 170
internal_value=0.000201355 0.00055814 0.000812566 -0.000858586 -0.00219931 -0.00611382 -0.00869388 0.000662722 -0.00488235 0.00199286 0.0010119 0.00175738 -2.85713e-05 0.00246729 0.0025 0.000761905 0.00283019 0.00344889 0.00325301 0.00178571 0.00377889
internal_weight=1032 988 954 395 290 122 97 168 67 559 335 304 139 106 135 62 105 224 165 55 198
internal_count=1032 988 954 395 290 122 97 168 67 559 335 304 139 106 135 62 105 224 165 55 198
is_linear=0
shrinkage=0.04


Tree=51
num_leaves=22
num_cat=0
split_feature=0 14 10 18 11 2 4 9 5 9 14 12 18 19 0 3 7 2 7 1 1
split_gain=1.66949 1.30815 0.973202 1.88999 1.60729 1.76565 1.50351 2.35979 1.37554 1.24941 1.08461 0.591377 0.391859 0.286802 0.277624 0.234457 0.221233 0.169348 0.143619 0.0751781 0.0291876
threshold=0.55000000000000016 331.50000000000006 10.65 0.1294095225512602 5.8500000000000005 2.4500000000000006 13.750000000000002 99.500000000000014 7.8500000000000005 73.500000000000014 133.50000000000003 24.500000000000004 -0.12940952255126037 -1.0000000180025095e-35 6.9500000000000011 5.8500000000000005 4.7354166666666684 8.4500000000000011 2.5333333333333337 6.2500000000000009 15.850000000000003
decision_type=2 2 2 2 2 2 2 2 2 2 2 2 2 2 2 2 2 2 2 2 2
left_child=-1 2 3 4 9 -6 11 -8 12 -2 -10 -5 19 15 -4 -11 -15 18 -13 -7 -16
right_child=1 -3 14 6 5 8 7 -9 10 13 -12 17 -14 16 20 -17 -18 -19 -20 -21 -22
leaf_value=-0.011135328481320568 -0.0033172115091741 -0.0059067790346248473 -8.7290783556435406e-05 -0.00011553954960550971 -0.0070141135049946188 0.0010551376576201346 -0.025744449103875661 0.080336626707898609 -0.00056776593549941613 0.00023013990156644983 -0.025922793230538005 0.00097429850285431403 -0.0034050219302012882 0.0031772412200558034 0.037497431621802135 -0.00050937179092156099 0.0093347703830333403 0.028579859479879614 0.033672530297737265 0.018609457162110928 0.088367384087052109
leaf_weight=25 32 35 25 42 28 25 25 26 27 43 30 25 26 44 137 26 73 38 249 26 25
leaf_count=25 32 35 25 42 28 25 25 26 27 43 30 25 26 44 137 26 73 38 249 26 25
internal_value=7.74458e-06 0.000265873 0.000542652 -7.63357e-05 -0.00209974 -0.00510429 0.00182266 -0.00453846 -0.00314074 0.000146119 -0.0077931 0.0027493 0.000358974 0.00141176 0.00312766 -0.000628571 0.00261017 0.00334824 0.00369455 0.00238462 0.00373006
internal_weight=1032 1007 972 785 380 162 405 51 134 218 57 354 77 186 187 69 117 312 274 51 162
internal_count=1032 1007 972 785 380 162 405 51 134 218 57 354 77 186 187 69 117 312 274 51 162
is_linear=0
shrinkage=0.04


Tree=52
num_leaves=22
num_cat=0
