tree
version=v4
num_class=1
num_tree_per_iteration=1
label_index=0
max_feature_idx=20
objective=quantile
feature_names=pm2_5 pm2_5_lag1 pm2_5_lag3 pm2_5_lag6 pm2_5_lag12 pm2_5_lag24 pm2_5_mean6 pm2_5_mean24 pm10 o3 no2 temp_c rh_pct wind_kmh wind_dir precip_mm boundary_layer_m hour_sin hour_cos dow_sin dow_cos
feature_infos=[0.10000000000000001:22.899999999999999] [0.10000000000000001:22.899999999999999] [0.10000000000000001:22.899999999999999] [0.10000000000000001:22.899999999999999] [0.10000000000000001:22.899999999999999] [0.10000000000000001:22.899999999999999] [0.14999999999999999:21.666666666666668] [0.67499999999999993:18.516666666666666] [0.10000000000000001:38.600000000000001] [37:139] [0:19.399999999999999] [-3.7999999999999998:25.600000000000001] [15:100] [0.5:33.399999999999999] [1:360] [0:1.8] [10:3610] [-1:1] [-1:1] [-0.97492791218182362:0.97492791218182362] [-0.90096886790241903:1]
tree_sizes=2054 2249 2425 2344 2303 2409 2250 2331 2487 2328 2424 2339 2253 2422 2431 2489 2493 2510 2497 2438 2604 2591 2566 2606 2509 2671 2508 2618 2598 2599 2531 2750 2585 2777 2748 2719 2768 2747 2738 2759 2640 2713 2560 2756 2714 2763 2749 2769 2755 2762 2747 2667 2669 2778 2768 2669 2785 2774 2786 2785 2764 2746 2763 2764 2766 2759 2773 2762 2772 2796 2745 2762 2779 2717 2741 2769 2800 2783 2781 2773 2766 2754 2782 2791 2767 2789 2774 2791 2758 2786 2745 2684 2801 2780 2780 2799 2752 2798 2766 2791 2695 2773 2804 2781 2771 2787 2810 2775 2796 2792 2755 2704 2799 2779 2817 2790 2718 2727 2770 2790 2767 2780 2677 2697 2795 2804 2771 2777 2780 2781 2768 2806 2781 2790 2817 2774 2791 2703 2789 2789 2785 2789 2823 2791 2809 2813 2795 2808 2775 2788 2778 2801 2794 2781 2792 2821 2808 2811 2774 2631 2814 2789 2790 2794 2797 2758 2772 2814 2714 2798 2812 2813 2799 2788 2777 2827 2824 2792 2803 2782 2786 2786 2633 2820 2821 2803 2802 2801 2808 2772 2800 2815 2797 2812 2817 2792 2813 2798 2780 2802 2797 2736 2809 2816 2831 2804 2819 2820 2692 2802 2720 2778 2822 2812 2793 2803 2809 2794 2802 2819 2795 2804 2790 2797 2734 2806 2789 2792 2829 2801 2812 2812 2793 2751 2784 2800 2790 2815 2793 2718 2774 2667 2698 2764 2731 2808 2817 2814 2702 2795 2813 2801 2764 2786 2796 2779 2798 2823 2824 2788 2817 2801 2792 2714 2807 2802 2795 2803 2826 2798 2823 2810 2815 2809 2781 2802 2812 2800 2814 2725 2801 2748 2805 2802 2799 2814 2817 2697 2795 2795 2818 2816 2814 2787 2682 2805 2813 2804 2817 2817 2804 2815 2822 2814 2799 2820 2813 2804 2798 2806 2638 2807 2802 2785 2818 2804 2792 2719 2781 2802 2794 2810 2814 2708 2830 2813 2824 2785 2820 2793 2790 2806 2820 2817 2783 2814 2825 2798 2796 2800 2800 2805 2796 2817 2746 2793 2818 2836 2651 2818 2797 2753 2832 2786 2805 2814 2817 2815 2798 2799 2803 2807 2784 2810 2803 2787 2791 2830 2795 2827 2696 2816 2812 2833 2814 2787 2791 2787 2804 2787 2840 2800 2821 2808 2817 2809 2785 2753 2818 2808 2817 2717 2805 2800 2811 2818 2802 2844 2833 2792 2711 2818 2657 2800 2828 2797 2808 2823 2829 2799 2813 2805 2798 2809 2834 2816 2821 2802 2712 2730 2756 2826 2841 2745 2815 2816 2815 2826 2820 2738 2736 2816 2840 2835 2838 2787 2826 2830 2851 2844 2828 2799 2801 2810 2740 2856 2840 2827 2805 2813 2831 2822 2815 2791 2816 2813 2711 2835 2810 2825 2670 2803 2821 2842 2836 2820 2721 2796 2835 2790 2795 2840 2715 2810 2732 2837 2810 2833 2833 2819 2790 2706 2642 2796 2748 2799 2818 2811 2802 2821 2807 2820 2840 2834 2832 2650 2812 2833 2839 2814

Tree=0
num_leaves=24
num_cat=0
split_feature=8 18 17 7 10 13 7 19 19 12 5 18 10 18 9 12 10 18 7 8 6 8 19
split_gain=50.6584 19.382 10.9967 10.4607 6.07531 5.29308 5.13193 4.86498 4.28298 3.0127 4.54593 2.23511 2.3773 1.96941 2.27989 1.96782 4.31952 1.11775 0.945517 0.586583 0.058554 0.0470515 0.364458
threshold=9.6500000000000004 0.25881904510252057 -0.37940952255126065 1.9145833333333337 9.5500000000000025 20.250000000000004 6.3395833333333345 1.0000000180025095e-35 0.6078576107927941 26.500000000000004 4.6500000000000012 -0.9159756150367534 9.3500000000000032 0.78656609248549303 89.500000000000014 39.500000000000007 2.2500000000000004 -0.12940952255126037 9.8104166666666686 11.050000000000002 3.1250000000000004 13.450000000000001 -1.0000000180025095e-35
decision_type=2 2 2 2 2 2 2 2 2 2 2 2 2 2 2 2 2 2 2 2 2 2 2
left_child=1 4 6 -3 15 7 -2 9 18 -5 20 12 -4 14 -9 16 -1 -17 -8 -13 -11 22 -21
right_child=2 3 11 5 -6 -7 8 13 -10 10 -12 19 -14 -15 -16 17 -18 -19 -20 21 -22 -23 -24
leaf_value=5.3519999980926514 5.4280000019073489 5.4039999961853029 5.4920000076293949 5.4960000038146974 5.5279999923706056 5.4319999980926514 5.476000003814697 5.516000003814697 5.5960000038146971 5.5360000038146975 5.5320000076293949 5.6079999923706056 5.6660000038146974 5.516000003814697 5.411999998092651 5.3639999961853029 5.516000003814697 5.4459999942779538 5.5219999980926513 5.6959999847412108 5.6799999999999997 5.8399999999999999 5.644000015258789
leaf_weight=35 25 38 25 33 35 25 36 29 39 25 47 39 46 49 28 176 26 44 26 27 47 106 36
leaf_count=35 25 38 25 33 35 25 36 29 39 25 47 39 46 49 28 176 26 44 26 27 47 106 36
internal_value=5.50004 5.49301 5.51108 5.49994 5.48599 5.50261 5.50126 5.50432 5.50529 5.50889 5.51183 5.5155 5.50917 5.49776 5.49276 5.48404 5.49065 5.48226 5.49873 5.51761 5.51808 5.51871 5.51656
internal_weight=1042 637 405 321 316 283 126 258 101 152 119 279 71 106 57 281 61 220 62 208 72 169 63
internal_count=1042 637 405 321 316 283 126 258 101 152 119 279 71 106 57 281 61 220 62 208 72 169 63
is_linear=0
shrinkage=1


Tree=1
num_leaves=25
num_cat=0
split_feature=0 18 13 17 10 7 18 19 4 16 3 9 11 14 2 17 11 14 0 16 17 10 9 0
split_gain=41.8728 22.4313 13.5832 10.9738 7.55974 4.38675 4.28629 3.20945 2.87758 2.01796 1.87674 2.17775 3.37452 1.45242 1.24478 2.45775 1.21642 0.903287 0.754223 0.493066 0.484796 0.44171 2.14741 0.12155
threshold=6.6500000000000012 0.60355339059327384 16.900000000000002 -1.0000000180025095e-35 9.6500000000000004 6.3395833333333345 -0.12940952255126037 0.6078576107927941 8.5500000000000025 92.500000000000014 1.4500000000000002 104.50000000000001 8.4500000000000011 191.50000000000003 1.6500000000000001 -0.37940952255126065 8.3500000000000032 180.50000000000003 3.5500000000000003 1782.5000000000002 0.12940952255126045 10.750000000000002 80.500000000000014 5.7500000000000009
decision_type=2 2 2 2 2 2 2 2 2 2 2 2 2 2 2 2 2 2 2 2 2 2 2 2
left_child=1 4 8 5 6 -2 9 16 14 -1 -8 12 -12 20 -3 -16 -7 -10 -17 -4 -5 22 -22 -11
right_child=3 2 19 13 -6 7 10 -9 17 23 11 -13 -14 -15 15 18 -18 -19 -20 -21 21 -23 -24 -25
leaf_value=-0.068560000801086429 -0.043119997787475592 -0.020240000152587891 -0.026799994087219243 0.11631998443603514 0.059359999847412123 -0.018840003967285152 -0.13263999824523925 0.10815998840332032 0.1375200149536133 -0.13856000080108644 -0.041280000305175799 -0.10208000183105469 0.010159992599487317 0.11728001174926758 -0.018880000114440919 0.022159997940063469 0.043119996261596683 0.071680004119873048 0.072800000000000017 -0.08671999988555909 0.10935998458862305 0.2978799922943115 0.16840000762939453 -0.083679996490478525
leaf_weight=34 32 26 26 29 31 44 27 40 42 151 41 41 47 28 32 36 33 25 35 32 29 100 56 25
leaf_count=34 32 26 26 29 31 44 27 40 42 151 41 41 47 28 32 36 33 25 35 32 29 100 56 25
internal_value=0.000230105 -0.0059816 0.00329412 0.0105612 -0.0119095 0.002 -0.013515 0.00559322 0.00832487 -0.0172512 -0.00840764 -0.00630769 -0.00269663 0.0158025 0.00476923 0.00673077 0.000769231 0.015 0.0108333 -0.0135593 0.0169302 0.0177419 0.0151163 -0.0189831
internal_weight=1042 651 254 391 397 149 366 117 196 210 156 129 88 242 129 103 77 67 71 58 214 185 85 176
internal_count=1042 651 254 391 397 149 366 117 196 210 156 129 88 242 129 103 77 67 71 58 214 185 85 176
is_linear=0
shrinkage=0.04


Tree=2
num_leaves=27
num_cat=0
split_feature=1 18 7 17 17 3 13 16 7 11 5 9 19 12 4 14 9 9 7 5 12 9 10 17 4 10
split_gain=30.7618 22.7123 11.6794 10.9205 6.22402 6.51473 4.93278 4.91593 4.90021 3.22941 3.16956 2.96545 3.01857 2.76244 2.73318 2.18711 2.15826 1.75388 1.72777 1.23851 1.23698 0.475861 1.71879 0.329179 0.284486 0.0594343
threshold=6.7500000000000009 -0.12940952255126037 1.9145833333333337 -1.0000000180025095e-35 -0.60355339059327362 1.3500000000000003 16.900000000000002 112.50000000000001 6.3395833333333345 2.4500000000000006 7.8500000000000005 100.50000000000001 0.6078576107927941 31.500000000000004 6.6500000000000012 186.50000000000003 64.500000000000014 105.50000000000001 3.6166666666666667 3.8500000000000001 46.500000000000007 69.500000000000014 11.450000000000001 0.60355339059327384 8.4500000000000011 8.1500000000000004
decision_type=2 2 2 2 2 2 2 2 2 2 2 2 2 2 2 2 2 2 2 2 2 2 2 2 2 2
left_child=1 7 -3 8 13 -6 10 9 -2 -1 14 12 16 -4 17 21 -10 20 -15 -20 -7 22 -5 -9 -16 -23
right_child=3 2 4 15 5 6 -8 23 11 -11 -12 -13 -14 18 24 -17 -18 -19 19 -21 -22 25 -24 -25 -26 -27
leaf_value=-0.071817599815368671 -0.051395207412719732 -0.097996801757812516 -0.094780802059173608 0.12197519672393799 -0.062601604049682624 0.12247361518859866 -0.025171192527770999 -0.13301760076904298 0.034113600006103514 0.034102407508850095 -0.029156794624328627 0.096459203254699727 0.089833592681884761 -0.035724799919128393 0.035887997711181646 0.02970879190063478 -0.025206394157409662 -0.0027520001525878969 0.020435196113586435 -0.034246403289794926 0.0081695922241210896 0.14750399908447268 0.28144480015563966 -0.11301759600067141 0.10494398474121094 0.20424481617736817
leaf_weight=25 37 45 30 28 32 43 27 129 25 27 26 28 32 25 30 25 48 31 28 29 31 41 51 39 57 73
leaf_count=25 37 45 30 28 32 43 27 129 25 27 26 28 32 25 30 25 48 31 28 29 31 41 51 39 57 73
internal_value=0.000345158 -0.00494656 0.000367816 0.0092545 0.00261538 0.00582734 0.00804878 -0.0153846 0.00163743 -0.0045283 0.0100457 0.00522388 0.00207547 -0.00530973 0.0118135 0.0151598 -0.00243243 0.00735849 -0.00144578 0.00241379 0.0106667 0.0165979 0.01375 -0.0186982 0.0170455 0.0184348
internal_weight=1042 654 434 388 389 277 245 220 170 52 218 133 105 112 192 218 73 105 82 57 74 193 79 168 87 114
internal_count=1042 654 434 388 389 277 245 220 170 52 218 133 105 112 192 218 73 105 82 57 74 193 79 168 87 114
is_linear=0
shrinkage=0.04


Tree=3
num_leaves=26
num_cat=0
split_feature=8 18 17 13 7 16 19 18 19 13 18 9 8 3 13 3 9 11 20 18 9 9 10 19 8
split_gain=47.1706 16.3184 13.9366 10.8992 6.89808 4.3717 5.12251 4.35093 3.6364 3.21832 2.3915 2.52885 2.30176 3.23052 2.24092 1.80708 1.8156 2.0642 1.3766 1.36198 1.14533 1.1017 0.618155 0.299456 0.883784
threshold=8.4500000000000011 0.60355339059327384 -1.0000000180025095e-35 16.900000000000002 6.3395833333333345 97.500000000000014 -1.0000000180025095e-35 -0.12940952255126037 0.6078576107927941 10.050000000000002 -0.12940952255126037 64.500000000000014 11.350000000000003 6.5500000000000007 14.250000000000002 1.4500000000000002 104.50000000000001 7.7500000000000009 1.0000000180025095e-35 0.78656609248549303 100.50000000000001 79.500000000000014 0.75000000000000011 -1.0000000180025095e-35 13.750000000000002
decision_type=2 2 2 2 2 2 2 2 2 2 2 2 2 2 2 2 2 2 2 2 2 2 2 2 2
left_child=1 5 4 9 18 6 -1 -7 10 19 11 -6 13 21 20 -9 17 -17 -2 -3 -11 -4 -5 24 -14
right_child=2 3 12 22 8 7 -8 15 -10 14 -12 -13 23 -15 -16 16 -18 -19 -20 -21 -22 -23 -24 -25 -26
leaf_value=0.040738303579101541 -0.074132991462402348 0.018497792007446279 0.14394151164031982 -0.068771327781677272 0.024349052191162138 -0.12769689673828125 -0.072944892008056678 -0.12334541181182861 0.10818773668685912 -0.029126531509399423 0.077536828280944839 -0.043598148118591314 0.1578182044918823 -0.013812988035888693 0.034497795822143545 -0.056515583447875953 -0.095416257650833142 0.0015522630340576171 -0.025099391906433122 0.071479687572937003 0.015266439411163334 0.060701440607299824 -0.055804736858825699 0.20176383210205082 0.32631500766113275
leaf_weight=26 25 27 34 29 27 160 38 29 48 27 32 30 32 25 29 29 32 45 26 49 29 28 26 111 49
leaf_count=26 25 27 34 29 27 160 38 29 48 27 32 30 32 25 29 29 32 45 26 49 29 28 26 111 49
internal_value=0.000268456 -0.00739583 0.00970085 0.00129032 0.00126984 -0.0126111 -0.00307692 -0.0146622 0.00594203 0.00654321 0.00111111 -0.0037931 0.0153571 0.00977273 0.00116279 -0.00926471 -0.00672897 -0.0032 -0.0111538 0.0124675 -0.00350877 0.0146032 -0.0139286 0.0178238 0.0153659
internal_weight=1042 575 467 216 188 359 64 295 137 161 89 57 279 87 85 135 106 74 51 76 56 62 55 192 81
internal_count=1042 575 467 216 188 359 64 295 137 161 89 57 279 87 85 135 106 74 51 76 56 62 55 192 81
is_linear=0
shrinkage=0.04


Tree=4
num_leaves=26
num_cat=0
split_feature=8 18 13 8 16 19 19 18 14 18 5 3 8 4 12 13 3 9 4 16 9 18 6 8 3
split_gain=43.3599 15.292 9.0068 5.16201 4.5421 4.67123 4.3023 4.08947 4.56218 3.70618 3.48371 2.66678 2.69277 3.38104 2.64233 2.22088 1.80708 1.8156 1.67341 1.4278 1.24129 0.724649 0.541353 0.318261 0.556184
threshold=8.4500000000000011 0.60355339059327384 20.250000000000004 11.050000000000002 97.500000000000014 -1.0000000180025095e-35 1.0000000180025095e-35 1.0000000180025095e-35 137.50000000000003 -0.12940952255126037 3.0500000000000003 9.4500000000000011 17.950000000000003 7.0500000000000007 25.500000000000004 12.65 1.4500000000000002 104.50000000000001 5.1500000000000012 1007.5000000000001 100.50000000000001 -0.5 14.641666666666667 5.4500000000000011 5.2500000000000009
decision_type=2 2 2 2 2 2 2 2 2 2 2 2 2 2 2 2 2 2 2 2 2 2 2 2 2
left_child=1 4 6 7 5 -1 14 8 -2 23 -5 21 13 -13 -3 -8 -11 18 -18 -9 -16 -12 -14 -6 -25
right_child=3 2 -4 10 9 -7 15 19 -10 16 11 12 22 -15 20 -17 17 -19 -20 -21 -22 -23 -24 24 -26
leaf_value=0.039108771435937481 -0.047714145294470212 0.0020865692002868742 -0.069218872879028337 -0.02837407411713869 -0.13458901896140138 -0.07002709632773442 0.020153284806652821 0.1083393505110352 0.041790239724511694 -0.11841159533935545 0.099731435404425042 0.074144587546374513 0.091775093918212897 -0.0081161100915893413 0.072103162204284671 -0.048161282353515633 -0.052254962017309552 -0.091599607344799813 0.0020773018126220323 0.050186979311743159 0.12771696850143432 0.20495830494166264 0.299156470276709 -0.074589023729772955 -0.11058901800772705
leaf_weight=26 42 28 40 28 110 38 37 37 35 29 48 27 25 48 30 37 30 32 44 29 44 111 37 25 25
leaf_count=26 42 28 40 28 110 38 37 37 35 29 48 27 25 48 30 37 30 32 44 29 44 111 37 25 25
internal_value=0.000230105 -0.00711806 0.00129032 0.0092735 -0.0121667 -0.00246154 0.00519774 0.00291667 -0.00333333 -0.0142568 0.0120615 0.0133333 0.00913043 0.00394737 0.0104854 -0.00213333 -0.00926471 -0.00672897 -0.0032 0.0101493 0.0144 0.016875 0.0152381 -0.0183851 -0.014902
internal_weight=1042 575 216 467 359 64 176 143 77 295 324 296 137 75 102 74 135 106 74 66 74 159 62 160 50
internal_count=1042 575 216 467 359 64 176 143 77 295 324 296 137 75 102 74 135 106 74 66 74 159 62 160 50
is_linear=0
shrinkage=0.04


Tree=5
num_leaves=27
num_cat=0
split_feature=0 18 17 9 7 0 0 12 10 18 18 4 1 3 6 20 20 4 16 0 17 14 14 7 4 9
split_gain=36.5092 18.3917 16.0234 9.8082 8.53966 8.2245 5.67105 4.68155 3.40947 5.26491 3.06054 2.73807 2.56658 2.52227 1.96477 1.31162 1.16857 1.06638 1.0633 0.951113 0.892594 0.723538 0.42371 0.40749 0.0648798 0.0315164
threshold=5.2500000000000009 0.37940952255126048 0.12940952255126045 100.50000000000001 1.9145833333333337 8.8500000000000032 7.0500000000000007 58.500000000000007 4.6500000000000012 0.78656609248549303 -0.12940952255126037 4.7500000000000009 14.850000000000003 11.65 2.8416666666666672 1.0000000180025095e-35 -0.22252093395631442 5.1500000000000012 1587.5000000000002 4.4500000000000011 -0.25881904510252113 157.50000000000003 189.00000000000003 6.3520833333333346 6.6500000000000012 65.500000000000014
decision_type=2 2 2 2 2 2 2 2 2 2 2 2 2 2 2 2 2 2 2 2 2 2 2 2 2 2
left_child=1 10 3 5 -3 20 7 21 9 18 19 -12 13 -7 17 -5 -16 -11 -6 -1 23 -4 24 -2 25 -8
right_child=2 4 6 15 8 12 22 -9 -10 14 11 -13 -14 -15 16 -17 -18 -19 -20 -21 -22 -23 -24 -25 -26 -27
leaf_value=-0.12520545724927101 -0.063049958269959488 -0.095383300886465086 0.091941472652104506 0.071972359487885995 -0.0017991373906943409 0.044409302786963388 0.15307773092318988 -0.054117004088162626 0.060086379874884417 0.017644130421179155 -0.092112214492423572 -0.0067159890824821742 0.075408827477750004 -0.027563050359728506 0.11513357376923221 0.14811544269169047 0.023874584444461461 -0.017681536803283712 -0.069924929735044078 -0.05669573964939309 -0.043641998352889184 0.047443292367048112 0.15176938808701368 -0.036188684196320792 0.29042213363873487 0.13197866465497021
leaf_weight=135 31 34 31 25 34 47 27 40 26 29 40 48 27 33 29 33 37 29 37 28 28 30 25 31 78 73
leaf_count=135 31 34 31 25 34 47 27 40 26 29 40 48 27 33 29 33 37 29 37 28 28 30 25 31 78 73
internal_value=0.000281426 -0.00749507 0.00732143 -7.8125e-05 7.8125e-05 -0.00434343 0.0135082 0.00568627 0.00297297 0.00112245 -0.0151587 -0.00898876 0.00314815 -0.000493827 0.00608 0.0142373 0.0107463 0.000677966 -0.0075 -0.0184146 -0.0131868 0.0125806 0.0173529 -0.015873 0.0181006 0.0166337
internal_weight=1065 506 559 255 255 197 304 101 221 195 251 88 107 80 124 58 66 58 71 163 90 61 203 62 178 100
internal_count=1065 506 559 255 255 197 304 101 221 195 251 88 107 80 124 58 66 58 71 163 90 61 203 62 178 100
is_linear=0
shrinkage=0.04


Tree=6
num_leaves=25
num_cat=0
split_feature=8 18 8 13 3 4 18 16 19 18 4 14 0 19 12 16 7 0 18 4 2 2 1 16
split_gain=44.8664 14.6917 8.66772 7.5996 4.40006 4.53295 3.99555 6.09099 3.64771 3.613 3.3082 2.45023 2.40806 2.35359 2.23845 1.95667 1.68969 1.60232 1.33455 1.7157 1.1175 0.270773 0.196649 0.068732
threshold=6.9500000000000011 0.60355339059327384 10.350000000000003 16.900000000000002 4.9500000000000011 8.8500000000000032 1.0000000180025095e-35 162.50000000000003 0.6078576107927941 -0.12940952255126037 4.7500000000000009 171.50000000000003 7.1500000000000012 1.0000000180025095e-35 26.500000000000004 77.500000000000014 4.5520833333333339 10.250000000000002 -0.70710678118654757 5.7500000000000009 9.5500000000000025 1.7500000000000002 9.9500000000000011 1367.5000000000002
decision_type=2 2 2 2 2 2 2 2 2 2 2 2 2 2 2 2 2 2 2 2 2 2 2 2
left_child=1 9 4 13 11 12 7 18 17 15 23 -2 -6 14 -3 -1 -12 -9 19 22 -8 -5 -4 -11
right_child=2 3 6 21 5 -7 20 8 -10 10 16 -13 -14 -15 -16 -17 -18 -19 -20 -21 -22 -23 -24 -25
leaf_value=-0.057298134511415917 0.088263813746020325 0.0069105324124802085 0.072357465266191842 -0.054462404854970822 -0.062780072388811337 0.08939575254674452 0.18262640445685732 -0.069943504252515609 0.063902640504103742 -0.054157334175962579 0.011122338073647065 0.0065599180002003264 -0.015404172352643766 -0.0011369369385437979 0.098357672450669689 -0.11571724285029138 -0.036637677032554099 0.00048385674129491462 0.21340587673030242 0.039782604316682749 0.16303204412948144 -0.059436387719790464 0.15839453230013084 -0.10031146794576484
leaf_weight=25 49 25 25 25 45 45 95 27 36 31 25 47 34 48 48 154 45 37 45 31 41 27 27 28
leaf_count=25 49 25 25 25 45 45 95 27 36 31 25 47 34 48 48 154 45 37 45 31 41 27 27 28
internal_value=0.000281426 -0.00875519 0.0077265 0.000574713 0.00144796 -0.00352 0.0115068 0.00820961 0.000792079 -0.0139806 -0.00876923 0.00783505 -0.00925 0.00606557 0.0105405 -0.0176667 -0.0028169 -0.00492308 0.0139535 0.0107143 0.0169343 -0.0120755 0.0150943 -0.0156667
internal_weight=1065 481 584 173 220 124 364 228 100 308 129 96 79 121 73 179 70 64 128 83 136 52 52 59
internal_count=1065 481 584 173 220 124 364 228 100 308 129 96 79 121 73 179 70 64 128 83 136 52 52 59
is_linear=0
shrinkage=0.04


Tree=7
num_leaves=26
num_cat=0
split_feature=8 18 17 7 3 8 12 13 18 9 8 3 13 6 2 9 16 13 11 20 12 0 18 0 19
split_gain=41.7073 15.0612 14.6498 8.26751 7.02975 5.5233 5.03885 3.7716 4.14896 3.37196 4.56632 2.82067 2.76056 2.50291 2.41238 3.91966 1.95667 1.73872 1.53764 1.4053 1.21936 0.60861 0.772959 0.373557 0.360516
threshold=6.9500000000000011 -0.12940952255126037 -1.0000000180025095e-35 2.6083333333333338 7.5500000000000007 11.050000000000002 58.500000000000007 18.950000000000003 0.78656609248549303 100.50000000000001 17.950000000000003 11.450000000000001 11.65 9.5583333333333353 3.1500000000000008 94.500000000000014 77.500000000000014 11.250000000000002 4.4500000000000011 -0.22252093395631442 35.500000000000007 7.4500000000000011 -0.9159756150367534 2.0500000000000003 -1.0000000180025095e-35
decision_type=2 2 2 2 2 2 2 2 2 2 2 2 2 2 2 2 2 2 2 2 2 2 2 2 2
left_child=1 16 4 23 -2 6 12 8 14 10 11 13 24 -6 15 -5 -1 -10 -8 -16 -11 -7 -23 -3 -4
right_child=2 3 5 7 9 21 18 -9 17 20 -12 -13 -14 -15 19 -17 -18 -19 -20 -21 -22 22 -24 -25 -26
leaf_value=-0.055006209130959292 -0.062395993978099522 -0.13335499258660824 0.05146282383083612 0.026412295210200193 -0.018123169733764117 0.054740794902542918 0.011028661018406397 -0.062460180672430393 0.06406985592455762 0.014958123769403499 0.064794664989999376 -0.059535497528356879 0.016675968484323959 0.041138222459105749 -0.0069311463988132264 -0.0305658667784269 -0.11108855313627974 0.015066636157127587 -0.072332539986461983 -0.079931205821050996 0.092146864990879054 0.096845538575664886 0.2496152050888675 -0.047037297520577934 0.10043337056163737
leaf_weight=25 40 33 34 28 35 32 33 27 47 25 34 33 25 26 32 26 154 44 25 39 32 35 140 26 35
leaf_count=25 40 33 34 28 35 32 33 27 47 25 34 33 25 26 32 26 154 44 25 39 32 35 140 26 35
internal_value=0.000206379 -0.00850622 0.00738462 -0.0030363 -0.000619469 0.0123889 0.00653595 0.000245902 0.00202765 0.00268817 -0.000930233 -0.00547368 0.0122105 -0.000322581 -0.00269841 0.00363636 -0.0176667 0.00847826 -0.00271186 -0.0075 0.0106897 0.0166346 0.0176136 -0.0163333 0.0162857
internal_weight=1065 481 584 302 225 359 152 243 216 185 128 94 94 61 125 54 179 91 58 71 57 207 175 59 69
internal_count=1065 481 584 302 225 359 152 243 216 185 128 94 94 61 125 54 179 91 58 71 57 207 175 59 69
is_linear=0
shrinkage=0.04


Tree=8
num_leaves=28
num_cat=0
split_feature=8 18 10 18 7 8 18 16 13 14 13 9 4 2 18 0 8 16 11 16 16 10 14 13 0 2 5
split_gain=39.932 14.3385 9.40159 9.43563 8.1042 5.03939 3.86585 3.70535 3.46373 3.42615 4.03188 2.66328 2.60286 2.06151 2.046 1.90653 2.30134 1.87316 1.81576 1.60273 1.48004 0.989015 1.03566 0.510886 0.373557 0.19163 0.126609
threshold=6.9500000000000011 -0.12940952255126037 9.5500000000000025 1.0000000180025095e-35 2.6083333333333338 14.65 0.78656609248549303 267.50000000000006 11.250000000000002 145.50000000000003 12.750000000000002 82.500000000000014 8.4500000000000011 4.7500000000000009 -0.70710678118654757 4.4500000000000011 4.6500000000000012 77.500000000000014 10.450000000000001 1600.0000000000002 332.50000000000006 13.15 140.50000000000003 7.5500000000000007 2.0500000000000003 10.250000000000002 1.5500000000000003
decision_type=2 2 2 2 2 2 2 2 2 2 2 2 2 2 2 2 2 2 2 2 2 2 2 2 2 2 2
left_child=1 17 3 5 24 11 15 14 -8 12 13 23 -5 -11 21 16 18 -1 -6 -10 -13 22 -4 -2 -3 -14 -19
right_child=2 4 7 9 6 -7 8 -9 19 10 -12 20 25 -15 -16 -17 -18 26 -20 -21 -22 -23 -24 -25 -26 -27 -28
leaf_value=-0.052805960765720916 -0.052927887998871555 -0.12802079288314391 0.017308666957846983 0.038348206529099545 -0.069725846061256383 0.059227877134957509 0.061507061687575304 0.010159481752940031 0.049770933949353842 0.051621414315700991 -0.02590305560211922 0.0058174747756703843 0.17211812090092024 0.0038937476693890892 0.18860809168063131 0.0023859469615343442 -0.073026306742761241 -0.095125012841883252 0.0059350553783654907 -0.027313602181798517 -0.063892015007286834 0.13794702919529486 0.11150253213930306 -0.057129233002539942 -0.045155805619754831 0.14514555655878744 -0.11112500711983735
leaf_weight=25 29 33 29 39 28 44 47 31 25 27 28 28 54 30 103 27 42 26 39 35 26 35 25 31 26 25 128
leaf_count=25 29 33 29 39 28 44 47 31 25 27 28 28 54 30 103 27 42 26 39 35 26 35 25 31 26 25 128
internal_value=1.87617e-05 -0.00850622 0.00704274 0.00303867 -0.00316832 -0.00427673 8.19672e-05 0.0134821 0.00574074 0.00872549 0.00255814 -0.00869565 0.0131092 0.00862069 0.015544 -0.00437956 -0.00672727 -0.0174444 -0.00205882 -0.000655738 -0.00218182 0.0108889 0.00727273 -0.0144262 -0.0163333 0.01725 -0.0190968
internal_weight=1065 481 584 361 302 158 243 223 107 203 85 114 118 57 192 136 109 179 67 60 54 89 54 60 59 79 154
internal_count=1065 481 584 361 302 158 243 223 107 203 85 114 118 57 192 136 109 179 67 60 54 89 54 60 59 79 154
is_linear=0
shrinkage=0.04


Tree=9
num_leaves=26
num_cat=0
split_feature=8 17 4 9 8 9 14 4 0 17 8 0 1 6 3 0 20 0 1 11 8 4 3 5 20
split_gain=37.2211 15.9142 7.34148 7.19982 7.13221 6.62227 5.67534 5.32233 3.50267 4.14147 2.69494 2.56339 5.67281 2.04931 1.98624 1.50406 1.49334 1.44958 2.40721 1.20301 0.936041 0.766204 0.700305 0.352439 0.0974822
threshold=6.9500000000000011 0.12940952255126045 2.1500000000000008 99.500000000000014 17.950000000000003 86.500000000000014 191.50000000000003 8.5500000000000025 1.4500000000000002 -0.60355339059327362 10.850000000000003 8.8500000000000032 11.350000000000003 3.0916666666666672 2.7500000000000004 4.8500000000000005 -0.56174490092936669 7.4500000000000011 5.9500000000000011 8.9500000000000011 3.9500000000000006 4.9500000000000011 11.850000000000003 6.1500000000000012 -0.56174490092936669
decision_type=2 2 2 2 2 2 2 2 2 2 2 2 2 2 2 2 2 2 2 2 2 2 2 2 2
left_child=2 3 20 4 11 14 17 -5 -7 19 -8 23 -13 21 -4 -16 -15 18 -3 -10 -1 -11 -9 -2 -19
right_child=1 6 5 7 -6 8 10 22 9 13 -12 12 -14 16 15 -17 -18 24 -20 -21 -22 -23 -24 -25 -26
leaf_value=-0.097438432593544247 -0.034120295170098631 0.057539408213081615 -0.02622105809452659 -0.020781847991484456 0.077909305437866047 -0.11924000992494865 -0.014723798048323324 0.094826227217865822 -0.06693681221880611 0.013291248736800317 0.15026850448750589 0.037769019376147794 -0.045535604643263027 0.081570847215950801 -0.11468000874239248 -0.03158632655373779 0.024063534545016231 0.090602601947239986 0.054705875100924964 -0.0091891552177538922 -0.058732171528622812 -0.01353902620533713 0.11068579183572766 -0.055611280108352992 0.21651830651478626
leaf_weight=89 37 40 41 31 41 38 43 36 38 26 25 38 27 25 59 27 41 33 33 41 29 27 25 44 131
leaf_count=89 37 40 41 31 41 38 43 36 38 26 25 38 27 25 59 27 41 33 33 41 29 27 25 44 131
internal_value=5.62852e-05 0.00683761 -0.00817427 -7.14286e-05 -0.00457447 -0.00532967 0.0131373 0.00903226 -0.00135021 0.00080402 0.00289855 -0.00870748 -0.00272727 0.0055 -0.0126563 -0.016092 0.0101493 0.0160504 0.0110811 -0.00625 -0.0168067 -0.00037037 0.0158065 -0.0134146 0.0181818
internal_weight=1065 584 481 279 187 363 305 92 236 198 68 146 65 119 127 86 66 237 73 79 118 53 61 81 164
internal_count=1065 584 481 279 187 363 305 92 236 198 68 146 65 119 127 86 66 237 73 79 118 53 61 81 164
is_linear=0
shrinkage=0.04


Tree=10
num_leaves=27
num_cat=0
split_feature=8 18 7 8 18 0 13 16 9 3 13 11 18 4 3 12 6 16 10 18 11 18 18 10 16 10
split_gain=36.7265 16.9557 8.30968 4.91193 5.40536 4.85069 4.57484 4.46069 5.76791 3.74994 3.18622 2.93089 2.43742 2.37786 2.21145 2.26661 2.20443 2.06047 1.89733 1.81265 2.10043 1.47831 1.36552 1.76542 0.901412 1.45288
threshold=8.4500000000000011 0.37940952255126048 2.7020833333333338 11.050000000000002 -0.70710678118654757 4.1500000000000012 7.7500000000000009 187.50000000000003 81.500000000000014 3.0500000000000003 9.6500000000000004 18.450000000000003 -0.12940952255126037 4.1500000000000012 5.3500000000000005 39.500000000000007 7.4416666666666682 2162.5000000000005 6.6500000000000012 0.60355339059327384 7.0500000000000007 0.78656609248549303 -0.70710678118654757 11.550000000000002 122.50000000000001 5.5500000000000007
decision_type=2 2 2 2 2 2 2 2 2 2 2 2 2 2 2 2 2 2 2 2 2 2 2 2 2 2
left_child=1 5 -3 4 -2 12 21 22 10 -7 -9 14 -1 -14 15 17 18 -8 -6 20 -10 -4 23 -5 -11 -26
right_child=3 2 6 7 16 9 11 8 19 24 -12 -13 13 -15 -16 -17 -18 -19 -20 -21 -22 -23 -24 -25 25 -27
leaf_value=-0.10350246951222859 -0.044087032319286124 -0.064796646259983465 0.02909767203691075 0.012366671051162221 0.045494522358230469 0.02771108996442756 0.083965885676000301 0.035340408796155388 0.045637761379328942 -0.018220866729350985 -0.043290023625685702 0.036906885125091299 -0.093540895289802473 -0.0078450988298386197 -0.045372904086758974 -0.016234285623179599 -0.0040246905195965611 -0.011014500194241883 0.10587724404853606 0.1816695452336165 -0.002279443961607619 0.079045986958768036 0.24388325049180382 0.14598182201173923 -0.055023630603108914 -0.080981288319275188
leaf_weight=140 37 42 35 35 29 25 30 35 26 28 29 26 25 36 39 46 38 27 35 52 29 32 76 39 29 35
leaf_count=140 37 42 35 35 29 25 30 35 26 28 29 26 25 36 39 46 38 27 35 52 29 32 76 39 29 35
internal_value=-0.00032197 -0.00687919 0.000359712 0.00815618 0.00185714 -0.0131661 0.00330508 0.0108696 0.00639535 -0.00661017 -0.00307692 -0.000236686 -0.0169307 -0.01 -0.00251748 0.000576923 0.00660194 0.00586207 0.0110769 0.012037 0.00678571 0.0120588 0.015894 0.0117333 -0.0103226 -0.0129231
internal_weight=1055 595 277 460 139 318 235 321 171 117 64 168 201 61 142 103 102 57 64 107 55 67 150 74 92 64
internal_count=1055 595 277 460 139 318 235 321 171 117 64 168 201 61 142 103 102 57 64 107 55 67 150 74 92 64
is_linear=0
shrinkage=0.04


Tree=11
num_leaves=26
num_cat=0
split_feature=8 18 17 7 7 0 13 3 14 3 10 0 17 17 8 11 3 4 18 8 13 14 4 3 10
split_gain=36.5909 16.0257 13.9719 7.66121 6.03571 5.32869 4.09805 4.03749 3.72147 3.5185 3.16686 3.55211 2.52905 2.31095 2.18353 2.08402 2.02495 2.02495 1.37186 1.29051 1.12523 1.27876 0.682535 0.653085 0.138973
threshold=8.4500000000000011 0.37940952255126048 -1.0000000180025095e-35 1.9145833333333337 6.8875000000000002 4.1500000000000012 19.300000000000001 3.7500000000000004 240.50000000000003 1.4500000000000002 2.8500000000000001 13.850000000000003 -0.9159756150367534 -0.60355339059327362 6.2500000000000009 10.550000000000002 7.9500000000000011 4.7500000000000009 -0.9159756150367534 4.6500000000000012 9.6500000000000004 107.50000000000001 5.9500000000000011 5.2500000000000009 9.8500000000000032
decision_type=2 2 2 2 2 2 2 2 2 2 2 2 2 2 2 2 2 2 2 2 2 2 2 2 2
left_child=1 5 4 -3 16 12 9 -7 18 -5 -6 -12 17 19 15 -15 -2 -1 -4 -11 24 -22 23 -9 -20
right_child=2 3 8 6 10 7 -8 22 -10 13 11 -13 -14 14 -16 -17 -18 -19 20 -21 21 -23 -24 -25 -26
leaf_value=-0.081308780805711675 -0.060881959724481266 -0.079109794715400278 0.076956090433977734 -0.068056925713344638 0.068157970966970391 0.016634984880608883 -0.0481782559743772 -0.043034762203664666 -0.0060138974018418877 0.011441905004780236 -0.024282521676269368 0.048388059579492215 -0.099652403253675123 -0.00079467583509941877 0.099954130150311835 0.046888820531716779 -0.0079372347646394208 -0.031530953771640821 0.15278798907841712 -0.022163523869440135 0.09802913284361893 0.043674741463901261 -0.064537257975097295 -0.07567832181312055 0.16892464751004677
leaf_weight=28 28 34 48 26 35 39 26 25 25 30 49 32 136 42 47 47 37 37 51 25 25 27 25 28 103
leaf_count=28 28 34 48 26 35 39 26 25 25 30 49 32 136 42 47 47 37 37 51 25 25 27 25 28 103
internal_value=-0.000132576 -0.00667785 0.00832972 0.000359712 -0.00032967 -0.01279 0.00286885 -0.0059322 0.0139286 0.0046789 0.00512821 0.000731707 -0.0167327 0.0065625 0.00934307 0.00555556 -0.01 -0.01 0.0153725 -0.000357143 0.0168116 0.0113208 -0.0111392 -0.0137037 0.0185806
internal_weight=1055 595 460 277 181 318 243 117 279 217 116 81 201 191 136 89 65 65 254 55 206 52 78 53 154
internal_count=1055 595 460 277 181 318 243 117 279 217 116 81 201 191 136 89 65 65 254 55 206 52 78 53 154
is_linear=0
shrinkage=0.04


Tree=12
num_leaves=25
num_cat=0
split_feature=8 18 17 7 9 8 0 13 18 13 17 7 8 5 6 20 7 12 1 1 8 7 4 6
split_gain=34.0579 15.2127 13.6057 8.08191 7.82101 7.09711 5.87826 4.07139 4.49029 2.65344 2.59666 2.29712 2.031 2.76099 1.98715 2.11394 2.76499 1.89894 1.85824 3.63302 1.53211 1.24396 0.678899 0.635349
threshold=8.4500000000000011 -0.12940952255126037 0.12940952255126045 2.7020833333333338 99.500000000000014 17.950000000000003 4.4500000000000011 20.250000000000004 0.78656609248549303 8.6500000000000004 0.37940952255126054 4.2958333333333343 14.450000000000001 9.1500000000000004 3.0416666666666665 -0.22252093395631442 6.2583333333333346 59.500000000000007 8.4500000000000011 11.350000000000003 11.750000000000002 5.1250000000000009 9.6500000000000004 1.6916666666666671
decision_type=2 2 2 2 2 2 2 2 2 2 2 2 2 2 2 2 2 2 2 2 2 2 2 2
left_child=1 6 4 23 5 18 -1 8 14 -10 -8 -11 13 17 -5 16 -16 -4 -2 20 -20 -17 -6 -3
right_child=2 3 12 7 22 -7 10 -9 9 11 -12 -13 -14 -15 15 21 -18 -19 19 -21 -22 -23 -24 -25
leaf_value=-0.095376274601592453 -0.053889411081665041 -0.11917379770454697 0.10361396506996076 0.0029997645085746783 0.012843305076166517 0.067856834040746328 -0.056684268035011275 -0.046397559661326075 0.075056500145886038 -0.014917113702180202 0.0063674008816130365 0.048958538501672172 0.23055442477163621 0.036540220613360382 -0.030872694186129871 -0.026120714410987241 0.048013451012795479 0.03113625578763159 -0.035160358803059996 -0.041589782970305328 0.029458990269843392 -0.056408016660861371 0.076908675526961512 -0.046823864881688895
leaf_weight=142 36 29 69 47 25 42 37 27 32 32 39 49 95 32 38 28 29 38 25 25 32 36 41 30
leaf_count=142 36 29 69 47 25 42 37 27 32 32 39 49 95 32 38 28 29 38 25 25 32 36 41 30
internal_value=-9.4697e-05 -0.0064094 0.00806941 -0.00153439 0.00105727 -0.00372671 -0.0147945 0.00100313 0.00239726 0.00859649 -0.00571429 0.00463415 0.0148085 0.0115714 -0.00156425 -0.00409091 0.000882353 0.0146296 -0.0087395 -0.0053012 0.000344828 -0.00923077 0.0125373 -0.015
internal_weight=1055 595 460 377 226 160 218 318 291 113 76 81 234 139 178 131 67 107 118 82 57 64 66 59
internal_count=1055 595 460 377 226 160 218 318 291 113 76 81 234 139 178 131 67 107 118 82 57 64 66 59
is_linear=0
shrinkage=0.04


Tree=13
num_leaves=27
num_cat=0
split_feature=8 8 9 17 17 16 12 4 3 4 16 14 19 6 10 9 8 5 3 20 3 17 10 0 16 5
split_gain=32.6991 13.1573 7.31266 12.0693 7.10637 6.95842 6.12268 5.10813 5.01211 3.67734 5.40332 3.62993 3.27816 3.13434 2.59274 3.51427 2.3362 2.22242 1.51386 1.66103 1.05714 0.741417 0.436233 0.236866 0.235007 0.0263747
threshold=11.050000000000002 3.6500000000000008 101.50000000000001 0.12940952255126045 -0.60355339059327362 107.50000000000001 61.500000000000007 8.2500000000000018 5.4500000000000011 1.8500000000000003 887.50000000000011 176.50000000000003 1.0000000180025095e-35 8.2416666666666689 11.550000000000002 84.500000000000014 14.850000000000003 5.4500000000000011 4.2500000000000009 -0.56174490092936669 2.9500000000000006 -0.60355339059327362 4.6500000000000012 8.1500000000000004 672.50000000000011 6.2500000000000009
decision_type=2 2 2 2 2 2 2 2 2 2 2 2 2 2 2 2 2 2 2 2 2 2 2 2 2 2
left_child=1 9 3 13 12 20 11 8 -4 -1 25 -7 -2 22 15 16 -6 -13 19 -12 -5 -9 24 -17 -3 -11
right_child=4 2 7 5 14 6 -8 21 -10 10 18 17 -14 -15 -16 23 -18 -19 -20 -21 -22 -23 -24 -25 -26 -27
leaf_value=-0.083481226268743339 -0.03825264073722108 -0.045732910169378443 0.023773802004411843 0.062907757202349548 -0.0035721299017268749 0.09342355956165832 -0.079641225734685739 0.051548943238477279 -0.074673558949262503 -0.092735427261532374 -0.016788069848532317 0.0038207095493353904 0.023306067494840085 -0.022878457726020915 0.20711471344527752 0.11359227710203083 0.096506939698238023 -0.033882922723995325 -0.048586286407229978 0.0069750188202202072 0.025271178932534985 0.13384554685525482 -0.074151566312694206 0.13602622834420292 -0.067534320660403144 -0.1227691635951039
leaf_weight=77 40 25 45 27 40 31 43 31 35 35 27 35 41 32 90 25 43 34 26 36 46 36 53 42 27 33
leaf_count=77 40 25 45 27 40 31 43 31 35 35 27 35 41 32 90 25 43 34 26 36 46 36 53 42 27 33
internal_value=-0.000132576 -0.00478912 -0.00111776 -0.00423729 0.0104969 0.00165899 -0.00347222 0.00635135 -0.000493827 -0.0125957 -0.00898734 0.0019802 0.000243902 -0.0134783 0.0139419 0.010596 0.005 -0.00314286 -0.00244444 0.0009375 0.0116216 0.0144118 -0.0167925 0.0173529 -0.0135849 -0.0173913
internal_weight=1055 734 500 353 321 216 143 147 80 234 157 100 81 137 240 150 83 69 89 63 73 67 105 67 52 68
internal_count=1055 734 500 353 321 216 143 147 80 234 157 100 81 137 240 150 83 69 89 63 73 67 105 67 52 68
is_linear=0
shrinkage=0.04


Tree=14
num_leaves=27
num_cat=0
split_feature=8 18 17 7 3 0 13 18 19 14 3 13 20 8 10 9 11 8 7 2 1 1 10 9 17 10
split_gain=32.2271 16.3849 10.4142 6.90822 6.48924 5.43267 4.14138 5.02314 4.13706 3.87892 3.60276 3.21723 2.21185 1.7923 2.24778 4.91279 1.74579 2.29512 1.71278 1.64424 1.34362 1.24167 0.987936 0.69021 0.523593 0.0539332
threshold=8.4500000000000011 -0.12940952255126037 -1.0000000180025095e-35 2.7020833333333338 7.5500000000000007 4.4500000000000011 20.250000000000004 0.60355339059327384 1.0000000180025095e-35 240.50000000000003 5.2500000000000009 8.2500000000000018 1.0000000180025095e-35 14.450000000000001 10.450000000000001 98.500000000000014 9.9500000000000011 5.1500000000000012 7.1208333333333345 2.8500000000000001 9.1500000000000004 4.4500000000000011 1.3500000000000003 89.500000000000014 0.37940952255126054 12.850000000000003
decision_type=2 2 2 2 2 2 2 2 2 2 2 2 2 2 2 2 2 2 2 2 2 2 2 2 2 2
left_child=1 5 4 22 -2 -1 7 19 12 13 -7 -9 -6 14 15 18 -13 -18 -4 -5 -10 -21 -3 -14 -15 -16
right_child=2 3 9 6 8 10 -8 11 20 -11 -12 16 23 24 25 -17 17 -19 -20 21 -22 -23 -24 -25 -26 -27
leaf_value=-0.088221974566779021 -0.05334429546380829 -0.059008310819888624 0.064413585503931975 0.0028708825863379773 -0.043578563688899979 0.0020313623493338007 -0.043870134480931744 0.070981827323394142 0.039267940987304878 -0.0068759065412044157 -0.060103518497332031 -0.012589125661108867 -0.014021559822068959 0.14837175704061595 0.096012819891882387 0.077424176842114417 0.051243368637183088 0.0012937418012004898 -0.024803464221061836 -0.060389128062590308 0.046636139956887777 -0.023240650416647971 -0.072411047700504647 0.045146202931669745 0.21516357634660377 0.085738499210246316
leaf_weight=142 26 33 26 33 29 46 27 49 30 25 30 37 29 28 28 34 36 43 25 45 42 48 26 25 82 31
leaf_count=142 26 33 26 33 29 46 27 49 30 25 30 37 29 28 28 34 36 43 25 45 42 48 26 25 82 31
internal_value=-0.000132576 -0.00627517 0.00780911 -0.00121693 0.00032967 -0.0149772 0.00112853 0.00253425 0.00346154 0.0126429 -0.00623377 0.00710843 -0.00261905 0.0141176 0.0110345 0.00674419 0.0034188 0.00675 -0.00115385 -0.00346457 0.010411 -0.00617021 -0.0136667 0.00218182 0.018018 0.017
internal_weight=1055 595 460 377 181 218 318 291 155 279 76 165 83 254 144 85 116 79 51 126 72 93 59 54 110 59
internal_count=1055 595 460 377 181 218 318 291 155 279 76 165 83 254 144 85 116 79 51 126 72 93 59 54 110 59
is_linear=0
shrinkage=0.04


Tree=15
num_leaves=28
num_cat=0
split_feature=8 18 13 8 18 10 7 8 3 12 7 18 16 10 19 4 4 19 4 4 10 1 3 14 18 2 7
split_gain=32.8818 16.2162 7.3295 5.36759 6.47229 10.5722 3.90734 3.2237 2.84799 2.46648 2.7644 2.39984 2.27187 2.03029 3.78134 1.99451 3.85398 1.66849 1.60376 1.60323 1.4429 1.22666 1.25351 1.12179 0.847788 0.56238 0.362521
threshold=8.4500000000000011 0.37940952255126048 20.250000000000004 14.450000000000001 -0.12940952255126037 9.3500000000000032 4.3187500000000014 5.4500000000000011 3.1500000000000008 25.500000000000004 7.3625000000000016 -0.12940952255126037 92.500000000000014 11.750000000000002 1.0000000180025095e-35 8.7500000000000018 5.7500000000000009 -1.0000000180025095e-35 4.1500000000000012 11.15 1.0500000000000003 4.9500000000000011 5.2500000000000009 145.50000000000003 0.78656609248549303 13.850000000000003 3.1270833333333337
decision_type=2 2 2 2 2 2 2 2 2 2 2 2 2 2 2 2 2 2 2 2 2 2 2 2 2 2 2
left_child=1 7 6 4 5 17 20 11 -9 -8 24 -1 23 14 -5 16 -6 -2 -13 -17 -3 -10 -23 -7 -11 -16 -22
right_child=3 2 -4 13 15 12 9 8 21 10 -12 18 -14 -15 25 19 -18 -19 -20 -21 26 22 -24 -25 -26 -27 -28
leaf_value=-0.084773095793916217 -0.06960304115012772 0.0023704362569747419 -0.044332930204827967 0.0130956977602429 0.10813193376556163 0.039862076044476565 -0.021277198300016203 0.013117324668052639 -0.050260477963099709 0.032937199271895173 0.0010095034933853952 -0.076756950453671424 -0.003754492180748237 0.20608770937248252 0.067465933448415574 0.11491716262513503 -0.013645659807277326 -0.0054578413243175205 -0.023521011240264542 0.071076716059861308 -0.053832523560440181 -0.011491585847270223 -0.049046693921209757 0.07434240721230459 0.071286238137665575 0.18195837668115708 -0.019087091886653484
leaf_weight=127 33 43 42 49 28 25 25 25 29 33 35 25 29 59 43 43 32 37 27 37 25 28 47 25 44 26 27
leaf_count=127 33 43 42 49 28 25 25 25 29 33 35 25 29 59 43 43 32 37 27 37 25 28 47 25 44 26 27
internal_value=-0.000457579 -0.00679245 0.000290909 0.00745182 0.00406897 -0.00173333 0.00309013 -0.0130744 -0.00815385 0.0073913 0.0099115 -0.0165556 0.00825 0.0129213 0.0097479 0.0102128 0.00459016 -0.0129577 -0.0090566 0.014321 -0.003125 -0.0110476 -0.00815789 0.0133333 0.0141026 0.0157143 -0.00754717
internal_weight=1048 582 274 466 289 149 232 308 129 137 112 179 79 177 118 140 60 70 52 80 95 104 75 50 77 69 52
internal_count=1048 582 274 466 289 149 232 308 129 137 112 179 79 177 118 140 60 70 52 80 95 104 75 50 77 69 52
is_linear=0
shrinkage=0.04


Tree=16
num_leaves=28
num_cat=0
split_feature=8 18 17 3 16 8 0 0 3 20 2 10 10 18 0 3 6 5 16 4 4 5 2 18 8 11 3
split_gain=31.706 14.2732 9.36243 4.91931 4.01095 3.44144 3.37098 3.159 3.10263 2.97172 3.15562 3.80984 2.6635 2.47283 2.45828 3.03618 2.9987 2.06177 1.85088 1.38032 1.33499 1.29715 1.29234 1.51645 1.30503 0.83766 0.608145
threshold=8.4500000000000011 0.37940952255126048 -1.0000000180025095e-35 7.5500000000000007 1782.5000000000002 13.750000000000002 1.7500000000000002 4.4500000000000011 0.95000000000000007 0.81174490092936691 4.0500000000000007 9.3500000000000032 2.5500000000000003 -0.12940952255126037 13.850000000000003 11.450000000000001 9.8166666666666682 8.3500000000000032 332.50000000000006 4.7500000000000009 2.9500000000000006 3.5500000000000003 1.5500000000000003 0.78656609248549303 5.9500000000000011 10.950000000000001 10.65
decision_type=2 2 2 2 2 2 2 2 2 2 2 2 2 2 2 2 2 2 2 2 2 2 2 2 2 2 2
left_child=1 7 3 -2 8 9 -6 13 -3 10 -4 -12 -5 -1 15 16 -14 18 -9 -15 -13 -8 -10 24 -24 -25 -7
right_child=2 4 5 12 6 26 21 17 22 -11 11 20 14 19 -16 -17 -18 -19 -20 -21 -22 -23 23 25 -26 -27 -28
leaf_value=-0.081382171962159564 -0.040900230130702799 -0.061005111722086801 0.14346752149784447 0.045487759355293048 -0.072005991455753038 0.19447216860705083 0.0071686286889198671 0.0071951253881610815 -0.010499211259282682 0.11709355529363771 -0.019510911730866169 0.072562319922767571 -0.0071965250078720186 -0.073686672435524556 0.041923356640921415 -0.037176771384857969 0.039193268089029058 -0.081506225118876424 -0.037120778759557299 -0.025241067156147514 0.026005016724995968 -0.039016883770847104 -0.0015787499039973695 0.015693852568750478 0.048396765143491845 0.14152410903604279 0.21373250839918037
leaf_weight=131 30 26 28 38 28 79 49 42 25 34 42 26 41 29 32 25 26 28 44 34 27 26 32 33 30 25 38
leaf_count=131 30 26 28 38 28 79 49 42 25 34 42 26 41 29 32 25 26 28 44 34 27 26 32 33 30 25 38
internal_value=-0.000571973 -0.00679245 0.00719486 0.000414508 -0.000145455 0.0119273 -0.00634615 -0.0126861 0.00360465 0.00797468 0.005 0.00145833 0.00319018 -0.0157949 0.00032 -0.00301075 0.00147059 -0.00730435 -0.00413793 -0.0090625 0.00851852 -0.00184211 0.00589041 0.00760331 0.0031746 0.0122034 0.0171186
internal_weight=1048 582 466 192 274 274 103 308 171 157 123 95 162 194 124 92 67 114 86 63 53 75 145 120 62 58 117
internal_count=1048 582 466 192 274 274 103 308 171 157 123 95 162 194 124 92 67 114 86 63 53 75 145 120 62 58 117
is_linear=0
shrinkage=0.04


Tree=17
num_leaves=28
num_cat=0
split_feature=0 18 17 0 9 4 10 6 13 11 9 19 18 19 13 11 13 12 11 6 14 20 12 12 12 4 10
split_gain=26.3626 13.2106 7.92208 8.03531 8.29241 6.89706 5.62085 4.87811 4.82296 4.04738 3.72151 3.30239 3.09299 2.78278 2.3252 2.21618 2.32282 1.54245 1.61638 1.49892 1.39064 0.715014 0.45561 1.0378 0.300447 0.222719 0.0325726
threshold=4.4500000000000011 0.60355339059327384 -0.37940952255126065 7.8500000000000005 87.500000000000014 9.1500000000000004 11.950000000000001 9.8166666666666682 9.7500000000000018 3.7500000000000004 94.500000000000014 -1.0000000180025095e-35 -0.12940952255126037 0.6078576107927941 20.250000000000004 10.550000000000002 13.750000000000002 31.500000000000004 9.1500000000000004 5.6750000000000016 161.50000000000003 -0.56174490092936669 54.500000000000007 44.500000000000007 66.500000000000014 4.0500000000000007 2.5500000000000003
decision_type=2 2 2 2 2 2 2 2 2 2 2 2 2 2 2 2 2 2 2 2 2 2 2 2 2 2 2
left_child=1 12 5 4 6 7 19 22 -3 11 -7 -5 26 25 15 -10 -17 -14 -19 20 -4 -11 23 -2 -23 -6 -1
right_child=2 8 3 9 13 10 -8 -9 14 21 -12 -13 17 -15 -16 16 -18 18 -20 -21 -22 24 -24 -25 -26 -27 -28
leaf_value=-0.081326885846612615 -0.047546566088591632 0.039870574715618744 0.0017775661591764092 -0.023707775547260539 0.026411844066968476 -0.014730588924639285 0.050840172826145176 0.025250649165566942 -0.034065412668853913 0.048278378868332333 0.052654575947967006 0.041352096580740412 -0.082463367110274854 0.0037300512175514199 -0.044496752762005091 -0.0082260673183173691 0.037349331569334863 -0.061461974717828771 -0.0017335340331993267 -0.054504128920791255 -0.037465638354846273 0.19606279466347176 -0.054574593008752718 -0.0080053448014997391 0.2704110250072318 0.14252652970361682 -0.077943791047907426
leaf_weight=46 28 48 27 33 25 37 26 27 35 25 45 44 25 29 35 27 25 37 39 40 36 94 37 25 25 41 87
leaf_count=46 28 48 27 33 25 37 26 27 35 25 45 44 25 29 35 27 25 37 39 40 36 94 37 25 25 41 87
internal_value=-0.00049571 -0.00849383 0.00452713 0.00748879 0.00213333 -0.0021 -0.00446154 -0.00830508 0 0.0128829 0.00674699 0.00538462 -0.0146383 0.0110417 -0.00422764 -0.000681818 0.0045283 -0.00921569 -0.00623377 -0.00865385 -0.0046875 0.0168276 -0.0127473 -0.01 0.0181667 0.0155224 -0.0186567
internal_weight=1048 404 644 445 224 199 129 117 170 221 82 77 234 95 122 87 52 101 76 103 63 144 90 53 119 66 133
internal_count=1048 404 644 445 224 199 129 117 170 221 82 77 234 95 122 87 52 101 76 103 63 144 90 53 119 66 133
is_linear=0
shrinkage=0.04


Tree=18
num_leaves=28
num_cat=0
split_feature=8 18 17 0 9 0 19 14 0 16 18 18 3 11 1 3 2 3 8 5 5 3 19 14 20 14 16
split_gain=28.9685 14.1294 8.24642 4.41878 4.33212 4.37411 3.74174 3.38281 3.23089 2.92483 2.79317 2.02318 1.9121 1.85935 1.72431 2.88266 1.66065 1.62002 1.52492 1.50388 1.32909 1.12804 1.03887 0.827023 0.60625 0.369091 0.0941725
threshold=8.4500000000000011 0.37940952255126048 -1.0000000180025095e-35 1.5500000000000003 100.50000000000001 13.850000000000003 1.0000000180025095e-35 237.50000000000003 4.4500000000000011 1520.0000000000002 -0.9159756150367534 -0.12940952255126037 3.5500000000000003 14.15 8.2500000000000018 11.15 9.7500000000000018 4.2500000000000009 14.450000000000001 3.5500000000000003 9.1500000000000004 3.3500000000000001 0.6078576107927941 177.50000000000003 1.0000000180025095e-35 289.50000000000006 192.50000000000003
decision_type=2 2 2 2 2 2 2 2 2 2 2 2 2 2 2 2 2 2 2 2 2 2 2 2 2 2 2
left_child=1 8 4 13 5 14 9 10 11 21 -4 25 -8 -3 -2 16 -16 -10 20 -11 22 -5 26 -13 -19 -1 -12
right_child=2 3 7 6 -6 -7 12 -9 17 19 18 23 -14 -15 15 -17 -18 24 -20 -21 -22 -23 -24 -25 -26 -27 -28
leaf_value=-0.078073810412748107 -0.035447828449274112 -0.091794621243619687 0.032661519068766652 0.0051134078066886702 0.039393887952310219 0.043979644831804554 -0.048814221832750956 -0.0030944422611988288 -0.00073793894847337779 0.0146975252764517 0.10896551727550445 -0.067420182185698091 0.003580849168849376 -0.0041077544193997891 -0.029219745738513332 -0.038476381169774532 0.031049229899508823 -0.038821203153256503 0.18722775189955479 -0.0071261379812647971 0.08505619810349957 0.081208871799340651 0.032538553458953672 -0.057687948984292491 -0.047286409059184749 -0.072261808320239387 0.063521492664836574
leaf_weight=99 27 25 45 33 47 33 43 25 43 37 33 25 43 25 32 25 28 44 83 27 28 41 30 38 27 32 30
leaf_count=99 27 25 45 33 47 33 43 25 43 37 33 25 43 25 32 25 28 44 83 27 28 41 30 38 27 32 30
internal_value=-0.000228789 -0.00617496 0.00719486 0.000436364 0.000829016 -0.00260274 0.00284444 0.0116364 -0.0120388 0.00690647 0.01304 -0.0151795 -0.00367816 -0.0101961 -0.00637168 -0.00348837 0.00131148 -0.0066087 0.0150244 0.000615385 0.0119672 0.0122667 0.0142553 -0.0090625 -0.0102778 -0.0180303 0.0171875
internal_weight=1048 582 466 274 192 145 224 274 308 138 249 194 86 50 112 85 60 114 204 64 121 74 93 63 71 131 63
internal_count=1048 582 466 274 192 145 224 274 308 138 249 194 86 50 112 85 60 114 204 64 121 74 93 63 71 131 63
is_linear=0
shrinkage=0.04


Tree=19
num_leaves=27
num_cat=0
split_feature=8 18 17 13 7 16 14 13 6 0 18 12 18 8 3 5 1 16 3 0 16 4 11 14 14 8
split_gain=30.17 12.8378 8.13086 5.30449 4.52132 4.17134 3.39241 3.24173 3.23494 3.23089 2.26407 2.64641 2.02318 2.00619 3.31274 1.94928 2.60952 1.62051 1.62002 1.59199 1.59136 1.38032 1.11935 0.504916 0.369091 0.0301733
threshold=8.4500000000000011 0.37940952255126048 0.12940952255126045 7.7500000000000009 6.5083333333333346 602.50000000000011 224.50000000000003 20.250000000000004 3.4250000000000003 4.4500000000000011 0.78656609248549303 45.500000000000007 -0.12940952255126037 17.950000000000003 11.850000000000003 3.0500000000000003 7.9500000000000011 1797.5000000000002 4.2500000000000009 7.4500000000000011 1692.5000000000002 4.7500000000000009 3.6500000000000008 119.50000000000001 289.50000000000006 14.450000000000001
decision_type=2 2 2 2 2 2 2 2 2 2 2 2 2 2 2 2 2 2 2 2 2 2 2 2 2 2
left_child=1 9 4 8 15 13 19 10 -3 12 20 17 24 14 -6 -2 -17 -12 -11 -4 -5 -14 -21 -20 -1 -24
right_child=2 3 6 7 5 -7 -8 -9 -10 18 11 -13 21 -15 -16 16 -18 -19 23 22 -22 -23 25 -25 -26 -27
leaf_value=-0.074950857996238171 -0.051180406924363597 -0.00015149459694654865 0.027767385448482892 -0.00068687480515500004 0.0028901529883310849 0.064187666375317462 -0.00064399953088724261 -0.040258328142802231 0.088185486207595365 -0.00070842139053443279 0.09619602516866417 -0.033289043873981274 -0.06597320859001872 0.043085452970861644 -0.050654422391896027 -0.039945279846807472 0.028127177359518571 0.0061521643277635185 -0.051060507788302588 0.03285272182905679 -0.055677439707407718 -0.021659920485173813 0.13106218548502213 -0.042896703145734787 -0.069371335987429825 0.19173864945296715
leaf_weight=99 28 27 36 39 46 49 27 42 37 43 30 26 29 32 26 32 25 40 25 47 33 34 39 46 32 79
leaf_count=99 28 27 36 39 46 49 27 42 37 43 30 26 29 32 26 32 25 40 25 47 33 34 39 46 32 79
internal_value=-0.000381316 -0.0064494 0.00719486 -0.000145455 0.00200837 0.0061039 0.0125764 -0.00322275 0.00984615 -0.0120388 -0.000710059 0.00329897 -0.0151795 0.00152381 -0.00219178 -0.00534884 -0.00103448 0.00732394 -0.0066087 0.0143564 -0.0060274 -0.0090625 0.0160241 -0.0102778 -0.0180303 0.0181513
internal_weight=1048 582 466 274 238 153 228 210 64 308 168 96 194 104 72 85 57 70 114 201 72 63 165 71 131 118
internal_count=1048 582 466 274 238 153 228 210 64 308 168 96 194 104 72 85 57 70 114 201 72 63 165 71 131 118
is_linear=0
shrinkage=0.04


Tree=20
num_leaves=29
num_cat=0
split_feature=0 18 17 19 0 13 18 3 12 2 11 19 10 9 14 20 11 12 9 0 11 11 9 1 9 5 16 14
split_gain=24.8814 15.4539 8.10522 6.32392 5.1875 3.79907 4.63173 3.55146 3.36723 3.16862 3.03615 3.81939 4.83482 2.97734 2.74674 2.47246 2.00545 2.10415 1.43681 1.43175 1.23182 1.14448 1.05924 0.934544 0.757971 0.662949 0.348587 0.272866
threshold=6.7500000000000009 -0.12940952255126037 -0.37940952255126065 0.87837969732492682 4.5500000000000007 20.250000000000004 0.78656609248549303 4.2500000000000009 28.500000000000004 3.0500000000000003 4.9500000000000011 -1.0000000180025095e-35 12.450000000000001 93.500000000000014 111.50000000000001 -0.22252093395631442 9.6500000000000004 24.500000000000004 87.500000000000014 7.9500000000000011 5.2500000000000009 8.0500000000000025 96.500000000000014 8.8500000000000032 102.50000000000001 7.5500000000000007 367.50000000000006 289.50000000000006
decision_type=2 2 2 2 2 2 2 2 2 2 2 2 2 2 2 2 2 2 2 2 2 2 2 2 2 2 2 2
left_child=1 4 13 5 27 6 8 -6 -3 22 11 12 -4 15 -11 -2 -8 -18 -5 -12 -17 -16 -10 -13 -19 -9 -21 -1
right_child=2 3 10 18 7 -7 16 25 9 14 19 23 -14 -15 21 20 17 24 -20 26 -22 -23 -24 -25 -26 -27 -28 -29
leaf_value=-0.070381306183334214 -0.041116901626414411 -0.054794619492716218 -0.048063546196172736 -0.032339193518635984 0.015277402505125917 -0.038647995017090139 0.0081328087869231066 -0.024494810071486146 0.030719848169568992 0.0191155848371805 0.046391703868439507 0.026080581345512607 0.079409826649013915 0.034239904660288423 -0.041559496019385217 0.01394149029752974 0.0059060777546529946 0.039137298138667606 -0.044477939329491074 0.1912853214323588 -0.0098157054938207006 -0.020438601261377976 0.0052044438222004887 0.049636084968163914 0.13216937588938732 -0.083192198164947953 0.15610893209822727 -0.066147303147758671
leaf_weight=109 32 34 26 25 30 36 47 36 32 29 33 25 29 34 30 25 26 32 44 87 34 47 25 41 40 26 29 27
leaf_count=109 32 34 26 25 30 36 47 36 32 29 33 25 29 34 30 25 26 32 44 87 34 47 25 41 40 26 29 27
internal_value=-0.000336134 -0.005 0.00762626 -0.000669643 -0.0134498 0.00137203 0.00268222 -0.00602151 -0.00131313 0.00109756 0.0115129 0.00672131 -0.00107143 -0.000793651 -0.00299065 -0.00456522 0.00808219 0.0113131 -0.0117143 0.0153333 0.000333333 -0.00692308 0.00862069 0.0131343 0.0147945 -0.0114286 0.0174359 -0.0183942
internal_weight=1070 675 395 447 228 378 342 92 197 163 270 121 55 125 106 91 145 98 69 149 59 77 57 66 72 62 116 136
internal_count=1070 675 395 447 228 378 342 92 197 163 270 121 55 125 106 91 145 98 69 149 59 77 57 66 72 62 116 136
is_linear=0
shrinkage=0.04


Tree=21
num_leaves=29
num_cat=0
split_feature=8 18 16 17 17 7 13 8 20 5 18 20 13 3 3 7 14 9 12 6 5 1 3 2 11 11 16 14
split_gain=23.8132 13.9236 8.58771 6.87491 5.39969 5.30454 3.83904 2.32934 2.73055 3.1903 2.01598 2.08233 1.97 2.34848 3.02999 4.2831 2.25183 2.03782 2.77427 2.20912 1.83984 1.7897 1.71946 1.53951 1.42495 1.15311 0.970991 0.118298
threshold=10.950000000000001 -0.12940952255126037 92.500000000000014 -0.37940952255126065 0.37940952255126054 1.9145833333333337 5.2500000000000009 15.550000000000002 0.81174490092936691 9.0500000000000025 -0.12940952255126037 1.0000000180025095e-35 18.950000000000003 1.3500000000000003 4.6500000000000012 6.6416666666666675 156.50000000000003 90.500000000000014 39.500000000000007 2.7916666666666674 5.2500000000000009 4.4500000000000011 7.1500000000000012 5.4500000000000011 6.5500000000000007 4.0500000000000007 332.50000000000006 282.50000000000006
decision_type=2 2 2 2 2 2 2 2 2 2 2 2 2 2 2 2 2 2 2 2 2 2 2 2 2 2 2 2
left_child=1 2 4 10 -1 -3 24 8 9 20 11 -2 13 -8 17 23 -17 -15 19 -19 -5 27 26 -16 -7 -9 -23 -4
right_child=3 5 21 7 -6 6 12 25 -10 -11 -12 -13 -14 14 15 16 -18 18 -20 -21 -22 22 -24 -25 -26 -27 -28 -29
leaf_value=-0.027480244817572368 -0.039874232587840126 -0.053981390514733801 -0.070624443477471321 0.010644457308628929 0.038732905330147428 0.0064018812523793222 -0.067772143405948213 0.043143531432409857 0.095186900201933697 -0.020407509854401162 0.0284687309585674 0.0018001229700479726 -0.038543031916105107 0.030817879261184053 -0.021490286419627049 0.035397332613184708 -0.017643095049129691 0.0045340965284907855 -0.0060759354571009892 0.057567887978568599 0.094691368361430273 -0.014728793906175533 -0.055682609292383854 -0.056188228434550215 0.035700467661941605 0.18609912052942384 -0.04835789324564669 -0.061282595451847881
leaf_weight=36 31 46 90 37 33 34 34 25 28 25 35 34 32 43 34 46 27 31 33 26 42 28 34 25 40 82 34 25
leaf_count=36 31 46 90 37 33 34 34 25 28 25 35 34 32 43 34 46 27 31 33 26 42 28 34 25 40 82 34 25
internal_value=-0.000336134 -0.00439891 -0.0113879 0.00841176 0.000857143 -4.42478e-05 0.00142857 0.0120833 0.00842105 0.00533333 -0.00039604 -0.00454545 -0.000421687 0.0006 0.0018797 -0.00240602 0.00405405 0.0061194 0.00263736 0.00793103 0.00925 -0.0153774 -0.011134 -0.0103333 0.0096 0.0164815 -0.00698413 -0.0187931
internal_weight=1070 731 280 339 69 451 405 239 132 104 100 65 331 299 265 132 73 133 90 57 79 211 96 59 74 107 62 115
internal_count=1070 731 280 339 69 451 405 239 132 104 100 65 331 299 265 132 73 133 90 57 79 211 96 59 74 107 62 115
is_linear=0
shrinkage=0.04


Tree=22
num_leaves=29
num_cat=0
split_feature=8 18 0 10 18 19 19 11 13 5 11 4 11 11 0 5 0 0 4 4 8 18 8 6 8 18 4 14
split_gain=22.4496 13.2802 5.80707 4.99433 10.3491 4.79462 4.78057 3.26871 3.20722 3.06847 2.85365 3.29812 2.81956 2.41903 2.16659 3.2132 2.15368 1.59556 1.58618 1.83154 1.75805 1.39747 0.818977 0.855449 0.630096 0.360346 0.343194 0.272866
threshold=8.6500000000000004 -0.12940952255126037 4.5500000000000007 9.5500000000000025 0.25881904510252057 -1.0000000180025095e-35 1.0000000180025095e-35 17.650000000000002 5.0500000000000007 7.8500000000000005 3.6500000000000008 4.4500000000000011 14.65 5.2500000000000009 1.3500000000000003 5.1500000000000012 2.0500000000000003 8.8500000000000032 4.8500000000000005 8.8500000000000032 5.2500000000000009 0.78656609248549303 15.450000000000001 6.9833333333333343 13.65 0.60355339059327384 7.7500000000000009 289.50000000000006
decision_type=2 2 2 2 2 2 2 2 2 2 2 2 2 2 2 2 2 2 2 2 2 2 2 2 2 2 2 2
left_child=1 2 27 4 5 17 8 25 -3 -4 11 -5 14 24 -8 21 -10 -2 -18 20 -20 -16 23 -12 -7 -6 -24 -1
right_child=3 6 9 10 7 13 12 -9 16 -11 22 -13 -14 -15 15 -17 18 -19 19 -21 -22 -23 26 -25 -26 -27 -28 -29
leaf_value=-0.064741076196902003 -0.049746075848939704 0.039293402507447617 0.0019257461160994715 0.04790322114446504 0.054107369759696981 0.00097382245503411017 -0.10319197850691246 0.0079174058415064329 -0.022565179394495729 -0.069901245826788666 0.059656607835310085 -0.018497354005614391 0.0021950141655994672 -0.018779739097585325 -0.05907647412906606 0.012715939430420936 0.016795781198815352 -0.034539754936662205 0.0086026254354997188 0.046792389292557801 -0.014298211767785212 -0.021713221616340945 0.16462474958030662 0.075880357063587034 0.040713149682647727 0.14289651933017095 0.17404874675166446 -0.061050107203774413
leaf_weight=109 30 35 48 39 30 28 25 34 41 27 28 27 48 40 42 38 48 29 27 28 33 28 47 27 25 52 30 27
leaf_count=109 30 35 48 39 30 28 25 34 41 27 28 27 48 40 42 38 48 29 27 28 33 28 47 27 25 52 30 27
internal_value=-0.000336134 -0.00542149 -0.0134906 0.00625268 0.00267658 -0.00418301 -0.00106599 0.0116239 0.00300469 -0.00447368 0.0110553 0.0041791 -0.00582418 0.00148936 -0.00880597 -0.00623853 0.000786517 -0.013 0.00321168 0 -0.00393443 -0.0112676 0.0144361 0.0103571 0.00703704 0.0159036 0.0171795 -0.0183942
internal_weight=1070 604 211 466 268 152 393 116 212 75 198 66 181 93 133 108 177 59 136 88 60 70 132 55 53 82 77 136
internal_count=1070 604 211 466 268 152 393 116 212 75 198 66 181 93 133 108 177 59 136 88 60 70 132 55 53 82 77 136
is_linear=0
shrinkage=0.04


Tree=23
num_leaves=29
num_cat=0
split_feature=0 18 0 18 10 19 7 5 18 16 9 5 3 6 2 3 16 5 3 19 4 14 18 16 13 9 0 14
split_gain=21.2377 15.4749 5.95587 5.43663 6.86535 5.68603 5.08887 4.03576 3.61663 3.638 3.22222 2.80869 2.49926 2.41197 2.39396 2.40874 2.20732 1.84638 1.80188 1.50687 1.4035 0.996373 0.833333 0.799679 0.619731 0.604968 0.567165 0.272866
threshold=6.7500000000000009 -0.12940952255126037 4.5500000000000007 0.25881904510252057 9.5500000000000025 0.6078576107927941 1.9145833333333337 7.8500000000000005 0.78656609248549303 267.50000000000006 88.500000000000014 5.4500000000000011 4.2500000000000009 2.9750000000000001 3.1500000000000008 7.7500000000000009 92.500000000000014 3.9500000000000006 5.3500000000000005 -1.0000000180025095e-35 8.5500000000000025 131.50000000000003 -0.9159756150367534 1007.5000000000001 10.450000000000001 106.50000000000001 4.6500000000000012 289.50000000000006
decision_type=2 2 2 2 2 2 2 2 2 2 2 2 2 2 2 2 2 2 2 2 2 2 2 2 2 2 2 2
left_child=1 2 27 4 5 10 -3 12 9 -8 21 -6 -4 19 17 18 22 -11 26 -10 -15 -2 -13 -17 -5 -22 -16 -1
right_child=3 6 7 24 11 -7 8 -9 13 14 -12 16 -14 20 15 23 -18 -19 -20 -21 25 -23 -24 -25 -26 -27 -28 -29
leaf_value=-0.062151433149025923 -0.040210429323321362 -0.049324030891679367 0.023175782559795126 0.13718065855696412 -0.00028646680136045432 0.025955272389833209 0.017950115495334897 -0.07605651697557636 0.01475689260749629 0.0073273342095307118 0.0098601631953309267 0.088732643680216369 -0.019156700043084562 0.0094627882301794673 -0.021444289521814108 0.0087427162114284765 0.051033961305789292 -0.038190346323742602 -0.073168992731320354 -0.0064857123932358365 0.041009806411505263 -0.059597986670279914 0.13308802222738117 -0.014657151000673458 0.034441014486774543 0.11482926461229355 -0.021755504250612994 -0.058608102915623433
leaf_weight=109 36 46 25 68 38 40 28 27 34 37 25 29 40 48 25 26 46 28 29 37 30 28 57 25 28 27 27 27
leaf_count=109 36 46 25 68 38 40 28 27 34 37 25 29 40 48 25 26 46 28 29 37 30 28 57 25 28 27 27 27
internal_value=-0.000336134 -0.00464497 -0.0131004 0.0070202 0.00433333 -0.00261538 -0.0003125 -0.00516129 0.00114428 -0.00221239 -0.00822222 0.00959064 0.00030303 0.00542373 -0.00414141 -0.00721805 0.0123308 0.00212121 -0.0114634 -0.000277778 0.00924528 -0.0129231 0.016092 -0.000384615 0.0152577 0.0134483 -0.00679245 -0.0183942
internal_weight=1070 675 228 395 299 129 447 92 401 225 89 170 65 176 197 132 132 65 81 71 105 64 86 51 96 57 52 136
internal_count=1070 675 228 395 299 129 447 92 401 225 89 170 65 176 197 132 132 65 81 71 105 64 86 51 96 57 52 136
is_linear=0
shrinkage=0.04


Tree=24
num_leaves=28
num_cat=0
split_feature=8 18 17 19 0 8 12 5 3 11 20 3 18 4 20 12 13 16 13 11 14 3 3 11 8 14 14
split_gain=20.2026 13.9086 9.40992 5.92869 5.36467 3.40918 3.05364 4.67201 2.81658 2.76987 2.60057 2.76197 2.4825 2.0835 1.98816 3.38074 1.84929 1.83798 1.51488 1.37641 1.3342 1.92308 4.80429 1.10542 1.07573 0.811076 0.272866
threshold=8.6500000000000004 -0.12940952255126037 -1.0000000180025095e-35 1.0000000180025095e-35 4.5500000000000007 15.550000000000002 28.500000000000004 5.2500000000000009 4.2500000000000009 16.450000000000003 -0.22252093395631442 9.4500000000000011 0.78656609248549303 11.15 0.81174490092936691 58.500000000000007 5.1500000000000012 402.50000000000006 9.6500000000000004 9.1500000000000004 263.50000000000006 1.6500000000000001 5.3500000000000005 4.4500000000000011 12.750000000000002 152.50000000000003 289.50000000000006
decision_type=2 2 2 2 2 2 2 2 2 2 2 2 2 2 2 2 2 2 2 2 2 2 2 2 2 2 2
left_child=1 4 10 6 26 14 12 16 -6 20 -2 17 -3 -13 15 18 -8 -12 24 -18 21 -5 -23 -7 -4 -17 -1
right_child=2 3 5 9 8 23 7 -9 -10 -11 11 13 -14 -15 -16 25 19 -19 -20 -21 -22 22 -24 -25 -26 -27 -28
leaf_value=-0.05966537582306488 -0.03528925591392721 -0.032769356251689211 0.083287182883383409 -0.081439837904114132 0.011368141585060273 0.043671932600618732 0.059523544314358308 -0.0098275677811025027 -0.04180517181236662 0.012337770257400961 -0.026993986083175745 0.030633049669508736 0.0076369491178388677 -0.00045478265831700782 0.085216149496441643 0.01171543313010929 0.001181892398755764 0.0024689453840895581 0.0028850823737142052 0.084699192892388156 -0.02253566959958711 0.0047823111439236499 -0.065470409206233066 0.18266727464920457 0.011822724447023276 -0.0087980400477614754 -0.056263778798998486
leaf_weight=109 49 28 36 36 29 26 30 40 46 33 28 45 36 36 41 26 38 25 34 40 41 39 32 68 27 25 27
leaf_count=109 49 28 36 36 29 26 30 40 46 33 28 45 36 36 41 26 38 25 34 40 41 39 32 68 27 25 27
internal_value=-0.000597572 -0.00542149 0.0056531 -0.000964467 -0.0136792 0.0102113 0.00356808 0.00671141 -0.005 -0.00626374 -0.00141304 0.00148148 -0.00369231 0.00609756 0.00705263 0.00483221 0.0110092 -0.00555556 0.00918367 0.00759494 -0.0085906 -0.0109259 -0.00694444 0.0164211 0.0128125 -0.00346154 -0.0183942
internal_weight=1070 604 466 393 211 283 212 148 75 181 183 134 64 81 189 148 108 53 97 78 148 107 71 94 63 51 136
internal_count=1070 604 466 393 211 283 212 148 75 181 183 134 64 81 189 148 108 53 97 78 148 107 71 94 63 51 136
is_linear=0
shrinkage=0.04


Tree=25
num_leaves=30
num_cat=0
split_feature=0 18 17 7 11 13 6 18 12 2 9 0 7 17 12 19 19 13 3 4 0 0 19 7 0 10 13 16 12
split_gain=21.1806 16.057 6.85373 6.04272 4.00868 3.77454 3.16712 2.98066 3.27999 3.41945 2.93279 2.8928 3.06429 2.6838 2.55961 3.21013 2.49916 2.04428 2.86765 1.92016 1.48678 1.47343 1.26667 0.963865 0.942297 0.72168 0.716071 0.506218 0.0503622
threshold=6.7500000000000009 -0.12940952255126037 -1.0000000180025095e-35 2.7020833333333338 4.8500000000000005 19.300000000000001 9.8166666666666682 0.91597561503675351 28.500000000000004 3.1500000000000008 101.50000000000001 4.4500000000000011 5.6229166666666677 0.25881904510252091 60.500000000000007 -1.0000000180025095e-35 -1.0000000180025095e-35 7.0500000000000007 13.450000000000001 8.7500000000000018 2.0500000000000003 7.8500000000000005 1.0000000180025095e-35 4.0020833333333341 4.8500000000000005 1.7500000000000002 13.550000000000002 262.50000000000006 76.500000000000014
decision_type=2 2 2 2 2 2 2 2 2 2 2 2 2 2 2 2 2 2 2 2 2 2 2 2 2 2 2 2 2
left_child=1 11 6 20 14 7 22 8 -5 23 16 25 13 -13 -4 -16 -11 -8 -19 26 -3 -6 -2 -10 -18 -1 -9 -23 -27
right_child=2 3 4 5 21 -7 17 19 9 10 -12 12 -14 -15 15 -17 24 18 -20 -21 -22 27 -24 -25 -26 28 -28 -29 -30
leaf_value=-0.058850278283196715 -0.024062346032807297 -0.081947210226078371 0.042707051560408812 -0.044074621316820099 0.039242479943269189 -0.037832822212646597 0.067105832267632587 0.0023141823637174322 0.005323194001180127 0.0029041406548398641 0.026811206760336753 -0.030065170031367893 -0.065642834237106235 0.010327797548632986 -0.023392455684245732 0.018768412397902594 -0.05519363337671946 0.025898456579933365 -0.029550093668086461 0.14196080925897264 -0.017886837912338614 0.16435454242128106 -0.0017767913697575466 0.030531466566766384 -0.0056089828956143789 -0.055705601102397133 0.061066778202975701 0.11888496539036318 -0.046102452905938035
leaf_weight=32 30 35 38 40 27 33 33 34 42 33 48 27 30 38 27 28 26 25 33 27 26 76 25 39 28 86 25 41 26
leaf_count=32 30 35 38 40 27 33 33 34 42 33 48 27 30 38 27 28 26 25 33 27 26 76 25 39 28 86 25 41 26
internal_value=-0.000679887 -0.00494083 0.00682292 -0.000366133 0.0110084 0.00154255 0 0.00279883 0.000622568 0.00258065 -0.00132353 -0.01325 -0.00770833 -0.00272727 0.00446809 -0.00107143 -0.00568182 0.00456522 0 0.0091954 -0.0119355 0.0151724 -0.0075 0.00902439 -0.0109091 -0.0168276 0.005 0.0171186 -0.0184071
internal_weight=1058 675 383 436 237 375 146 342 256 216 135 239 95 65 93 55 87 91 58 86 61 144 55 81 54 144 59 117 112
internal_count=1058 675 383 436 237 375 146 342 256 216 135 239 95 65 93 55 87 91 58 86 61 144 55 81 54 144 59 117 112
is_linear=0
shrinkage=0.04


Tree=26
num_leaves=28
num_cat=0
split_feature=8 8 18 10 11 17 9 11 3 16 4 18 20 12 11 5 17 11 9 10 20 7 18 4 2 2 11
split_gain=20.8762 9.6685 8.4009 9.32083 5.89233 4.79872 3.91143 2.65146 2.47361 2.93773 2.0195 1.79605 1.76073 1.5283 1.50055 1.33641 1.2826 1.28192 1.22398 3.74481 1.07987 0.972053 0.844627 0.682251 0.555801 0.415505 0.183595
threshold=3.5500000000000003 15.450000000000001 0.25881904510252057 10.450000000000001 14.450000000000001 -0.60355339059327362 88.500000000000014 4.7500000000000009 1.3500000000000003 1367.5000000000002 3.1500000000000008 0.78656609248549303 -0.22252093395631442 55.500000000000007 10.65 5.1500000000000012 -1.0000000180025095e-35 2.8000000000000003 101.50000000000001 5.6500000000000012 1.0000000180025095e-35 6.3520833333333346 -0.12940952255126037 7.8500000000000005 6.3500000000000005 2.5500000000000003 2.4500000000000006
decision_type=2 2 2 2 2 2 2 2 2 2 2 2 2 2 2 2 2 2 2 2 2 2 2 2 2 2 2
left_child=4 2 3 6 11 -3 10 -7 -4 18 17 20 -11 -12 22 -5 -14 -2 19 -10 25 -17 -8 -21 -20 -1 -15
right_child=1 5 8 15 -6 7 14 -9 9 12 13 -13 16 26 -16 21 -18 -19 24 23 -22 -23 -24 -25 -26 -27 -28
leaf_value=-0.054279174972513382 -0.0013304074194502036 -0.00033649902084619042 -0.048524828418099089 0.011801918349127938 0.0044984514036180206 0.036661166516665344 -0.00097758592680827769 0.15620427504390613 -0.0055400777465472121 0.035289516971830609 -0.017687034916422616 -0.014665311692436039 -0.016923827046663967 -0.05298395891132137 -0.050834986022487705 0.074086583199109948 0.0080141090750920439 -0.048485103464444665 0.11190032106511105 0.075135692304938467 -0.073557377268109597 0.025563390991589757 0.022386299724987603 0.034243707433854062 0.052646249464324432 -0.045557380129132546 -0.064602047225463255
leaf_weight=81 39 43 31 33 41 33 32 85 36 48 48 34 34 28 25 26 39 26 31 32 35 31 25 27 28 41 46
leaf_count=81 39 43 31 33 41 33 32 85 36 48 48 34 34 28 25 26 39 26 31 32 35 31 25 27 28 41 46
internal_value=-0.00075543 0.00222491 9.00901e-05 -0.00405556 -0.0113305 0.0109877 -0.00777778 0.0151261 0.00495114 0.00615942 -0.0109574 -0.0142708 0.00147541 -0.0139837 -0.000481928 0.00703297 -0.00243243 -0.00515152 0.00980645 0.006875 -0.0160759 0.0106897 0.00310345 0.013 0.0143333 -0.0178862 -0.0176
internal_weight=1058 826 665 359 232 161 269 118 306 275 187 191 121 122 82 90 73 65 154 95 157 57 57 59 59 122 74
internal_count=1058 826 665 359 232 161 269 118 306 275 187 191 121 122 82 90 73 65 154 95 157 57 57 59 59 122 74
is_linear=0
shrinkage=0.04


Tree=27
num_leaves=29
num_cat=0
split_feature=0 18 17 16 11 19 13 12 18 0 9 19 16 12 4 0 11 11 19 13 11 11 11 2 18 8 12 16
split_gain=22.4781 13.4673 6.31432 4.43655 3.80318 3.79779 3.68722 3.42129 3.05082 2.91843 2.82179 2.54124 2.18511 2.04723 2.18039 1.93944 1.90388 1.82528 1.70661 1.56948 1.30737 1.21706 1.08255 1.07374 0.996462 0.547024 1.12179 0.506218
threshold=6.7500000000000009 0.60355339059327384 -1.0000000180025095e-35 77.500000000000014 4.8500000000000005 -0.8783796973249266 17.800000000000001 48.500000000000007 -0.12940952255126037 13.850000000000003 93.500000000000014 -1.0000000180025095e-35 1870.0000000000002 31.500000000000004 4.1500000000000012 7.8500000000000005 2.4500000000000006 1.0500000000000003 1.0000000180025095e-35 12.450000000000001 7.3500000000000005 2.1500000000000008 3.6500000000000008 4.5500000000000007 0.91597561503675351 4.5500000000000007 55.500000000000007 262.50000000000006
decision_type=2 2 2 2 2 2 2 2 2 2 2 2 2 2 2 2 2 2 2 2 2 2 2 2 2 2 2 2
left_child=1 3 9 18 11 -3 7 12 16 10 22 -4 19 -10 -15 -6 17 -5 -1 -7 -16 -13 -2 -22 -14 -18 -27 -17
right_child=2 5 4 8 15 6 -8 -9 13 -11 -12 21 24 14 20 27 25 -19 -20 -21 23 -23 -24 -25 -26 26 -28 -29
leaf_value=0.020917229436356165 -0.00051022633461768048 0.057884120174528424 -0.0056937465560509539 -0.037673001465800458 0.036650245105874862 0.011492173875392595 -0.037800666551694243 -0.0060504543570602818 -0.065135074478427674 0.02791838938907162 0.028914128879656786 0.0066361057145284267 -0.041634683382280713 -0.045509149639305975 -0.037280102273271734 0.15414500740371992 -0.062935084733232366 -0.0047644881654358784 -0.048569649947698218 0.098377373901423162 0.016986552397420702 0.047276408432873576 -0.033708111650255772 -0.0027281034507060475 0.016808621780641991 -0.05116676814624567 -0.062557255960080604 0.11290726227429687
leaf_weight=31 30 41 42 26 27 43 46 44 29 39 31 25 26 46 30 76 89 34 25 31 25 26 46 30 29 25 25 41
leaf_count=31 30 41 42 26 27 43 46 44 29 39 31 25 26 46 30 76 89 34 25 31 25 26 46 30 29 25 25 41
internal_value=-0.000906516 -0.00529586 0.00682292 -0.00975962 0.0108403 0.00183908 -0.000272727 0.00241379 -0.0113889 0.000272109 -0.00314815 0.00446809 0.00569231 -0.00720497 -0.005 0.0148966 -0.0147 -0.00852459 0.000701754 0.0101333 -0.00116279 0.0103846 -0.00727273 0.0025 -0.000357143 -0.0172857 -0.0133333 0.0171186
internal_weight=1058 675 383 415 237 260 219 173 359 146 107 93 129 160 131 144 199 60 56 74 85 51 76 55 55 139 50 117
internal_count=1058 675 383 415 237 260 219 173 359 146 107 93 129 160 131 144 199 60 56 74 85 51 76 55 55 139 50 117
is_linear=0
shrinkage=0.04


Tree=28
num_leaves=29
num_cat=0
split_feature=8 8 18 11 19 4 2 14 13 0 16 19 6 12 16 14 19 19 0 0 0 2 1 5 11 5 14 1
split_gain=20.8089 9.55092 7.2797 5.22628 4.42818 4.42127 5.32929 4.21448 5.04334 3.86722 2.68767 2.57422 2.57102 2.56431 2.27084 2.01441 2.12397 1.89435 1.63883 1.57259 1.76454 1.17857 2.84378 2.05169 1.21529 0.982267 0.231572 0.0863059
threshold=3.5500000000000003 15.450000000000001 -0.12940952255126037 14.450000000000001 0.87837969732492682 8.4500000000000011 6.4500000000000011 142.50000000000003 10.750000000000002 9.7500000000000018 107.50000000000001 1.0000000180025095e-35 13.975000000000003 45.500000000000007 92.500000000000014 228.50000000000003 0.87837969732492682 0.6078576107927941 1.6500000000000001 4.5500000000000007 3.0500000000000003 8.7500000000000018 7.3500000000000005 5.8500000000000005 2.4500000000000006 11.050000000000002 100.50000000000001 2.1500000000000008
decision_type=2 2 2 2 2 2 2 2 2 2 2 2 2 2 2 2 2 2 2 2 2 2 2 2 2 2 2 2
left_child=3 2 9 15 5 6 10 26 -9 14 -4 12 -3 19 17 27 18 -2 -17 20 -12 22 23 24 -16 -13 -7 -1
right_child=1 11 4 -5 -6 7 -8 8 -10 -11 13 25 -14 -15 21 16 -18 -19 -20 -21 -22 -23 -24 -25 -26 -27 -28 -29
leaf_value=-0.07011808477839622 0.012244170024901387 0.080267630442166685 0.03625499517108715 0.0045605315217557068 -0.011422168993204664 0.04542317505770193 -0.036189307591867961 0.076389605729034346 -0.024862017806469867 0.039850495990138804 0.030132937064533787 0.20165447103332942 -0.01528461478807408 -0.0090596558896120886 -0.0012907607907655105 -0.051807696763639013 -0.04697877708465803 -0.018902207025793132 -0.0013225000336557003 0.098498856237091911 -0.012452227492342233 -0.07323551915336976 0.00095434466675124339 -0.055297295771138288 -0.036644531395170078 0.048214191304107389 0.15381068368964307 -0.054653482973490618
leaf_weight=63 45 48 34 41 36 33 30 32 37 43 25 54 33 47 31 26 26 27 39 29 45 30 32 43 27 26 39 37
leaf_count=63 45 48 34 41 36 33 30 32 37 43 25 54 33 47 31 26 26 27 39 29 45 30 32 43 27 26 39 37
internal_value=-0.000944287 0.00203144 -9.00901e-05 -0.0115021 0.00345361 0.00482955 0.00113744 0.0102817 0.00314286 -0.00501792 0.00375691 0.0107407 0.00560976 0.00136054 -0.0070339 -0.0142708 -0.00978261 -0.00109589 -0.00575758 0.005 0.00169014 -0.00963415 -0.00791045 -0.0111765 -0.00610169 0.0158025 0.0169863 -0.0182178
internal_weight=1058 826 665 232 387 351 210 141 69 278 180 161 81 146 235 191 91 72 65 99 70 163 133 101 58 80 72 100
internal_count=1058 826 665 232 387 351 210 141 69 278 180 161 81 146 235 191 91 72 65 99 70 163 133 101 58 80 72 100
is_linear=0
shrinkage=0.04


Tree=29
num_leaves=29
num_cat=0
split_feature=0 18 17 19 11 7 12 6 3 3 19 0 16 5 18 16 9 5 2 14 11 10 5 18 14 7 16 3
split_gain=20.6256 15.3715 7.04977 6.05093 4.60575 3.48299 4.65014 3.00685 4.91026 2.66509 2.63373 2.62262 2.16717 1.98381 1.9777 3.06143 1.91744 1.71192 2.30795 2.6558 1.26549 1.00554 0.889048 0.842039 1.05603 0.807977 0.629612 0.148682
threshold=7.2500000000000009 -0.12940952255126037 -1.0000000180025095e-35 0.87837969732492682 4.9500000000000011 3.8729166666666672 23.500000000000004 2.808333333333334 3.7500000000000004 2.6500000000000008 -1.0000000180025095e-35 13.850000000000003 1637.5000000000002 4.0500000000000007 0.60355339059327384 847.50000000000011 82.500000000000014 7.8500000000000005 5.4500000000000011 139.50000000000003 2.2500000000000004 9.4500000000000011 5.6500000000000012 0.37940952255126048 234.50000000000003 3.7104166666666671 237.50000000000003 7.7500000000000009
decision_type=2 2 2 2 2 2 2 2 2 2 2 2 2 2 2 2 2 2 2 2 2 2 2 2 2 2 2 2
left_child=1 7 11 5 10 9 -7 -1 -9 23 -4 16 14 -14 15 -8 21 18 -10 -20 -12 -2 27 -3 -25 -5 -6 -16
right_child=2 3 4 25 26 6 12 8 17 -11 20 -13 13 -15 22 -17 -18 -19 19 -21 -22 -23 -24 24 -26 -27 -28 -29
leaf_value=-0.050112321974358665 -0.041432488709097194 -0.047080274421828022 -0.0059573143178501906 -0.021056571589558145 0.13781750137043058 -0.031510890484066377 0.017034144728801961 0.017315123896011368 -0.03788874990745715 0.0063672882567974657 0.0050418596135650877 0.025664066462970682 0.022378713416434159 -0.016381058769513786 0.10525194599003221 -0.017519973931605294 0.0035359546821102051 -0.065785990804317435 0.0027230564745461729 -0.035105689837856766 0.037570886328168317 -0.010212179174132174 0.062334973642671515 -0.038645851493095087 0.0019419529120474443 -0.04460286394553805 0.10632802574205172 0.082682095872716743
leaf_weight=71 31 26 42 26 78 30 46 36 43 38 25 39 38 39 26 25 42 46 28 26 27 25 25 43 26 38 48 25
leaf_count=71 31 26 42 26 78 30 46 36 43 38 25 39 38 39 26 25 42 46 28 26 27 25 25 43 26 38 48 25
internal_value=-0.000830973 -0.00481481 0.00698324 -0.00039823 0.0114027 0.00149485 0.00423529 -0.012749 -0.00988889 -0.00373134 0.00463158 -0.000144928 0.00622222 0.000769231 0.00905405 0.00416667 -0.00363636 -0.0131944 -0.01 -0.00436364 0.010566 -0.00842105 0.0135065 -0.00729167 -0.00485714 -0.0116923 0.016378 0.0165385
internal_weight=1058 701 357 451 220 387 254 250 179 133 94 137 224 77 147 71 98 143 97 54 52 56 76 95 69 64 126 51
internal_count=1058 701 357 451 220 387 254 250 179 133 94 137 224 77 147 71 98 143 97 54 52 56 76 95 69 64 126 51
is_linear=0
shrinkage=0.04


Tree=30
num_leaves=28
num_cat=0
split_feature=0 18 8 17 9 16 12 19 19 17 18 16 18 20 0 3 3 6 9 7 7 19 13 14 9 12 13
split_gain=17.9238 8.51116 6.26958 6.07921 3.74444 7.29827 4.74792 4.07961 3.45564 3.03614 2.56426 2.36193 2.95825 2.17605 2.1421 2.3204 3.35156 1.24278 1.93955 1.2028 3.83804 1.29573 0.995882 0.677482 0.46379 0.284146 0.231604
threshold=4.6500000000000012 -0.12940952255126037 14.850000000000003 -0.60355339059327362 99.500000000000014 157.50000000000003 47.500000000000007 0.6078576107927941 0.87837969732492682 0.37940952255126054 0.60355339059327384 1492.5000000000002 0.60355339059327384 1.0000000180025095e-35 1.6500000000000001 4.7500000000000009 3.3500000000000001 2.7916666666666674 80.500000000000014 5.4375000000000009 3.9291666666666676 -1.0000000180025095e-35 6.2500000000000009 177.50000000000003 66.500000000000014 39.500000000000007 5.2500000000000009
decision_type=2 2 2 2 2 2 2 2 2 2 2 2 2 2 2 2 2 2 2 2 2 2 2 2 2 2 2
left_child=1 17 4 -4 5 7 13 9 11 -2 -6 12 23 -7 -13 16 -16 -1 -19 20 -8 -21 -5 -3 -24 -12 -11
right_child=2 8 3 22 10 6 19 -9 -10 26 25 14 -14 -15 15 -17 -18 18 -20 21 -22 -23 24 -25 -26 -27 -28
leaf_value=-0.051040070051727046 0.0050080893696511988 -0.035574598871787252 -0.0060807893297534048 0.02916240702342698 -0.00062768010427808111 0.076126521432964417 -0.045046406679963374 -0.012722651329644136 -0.041853357801480605 0.025823689939666893 0.10322266388878305 -0.047091824326621894 0.019795796469483956 -0.0025723205939757322 -0.011600564199809895 -0.033605161208772931 0.028672928051680559 -0.051668668168051921 -0.024052555229036904 -0.059329072716954381 0.010266432491965087 -0.032576711662621369 0.10242094365458911 0.0092760756410235779 0.11063139875102962 0.041772457924599923 0.061620098957436725
leaf_weight=58 42 26 40 32 32 32 33 43 40 25 27 29 48 36 38 39 29 30 47 45 25 40 35 30 55 25 42
leaf_count=58 42 26 40 32 32 32 33 43 40 25 27 29 48 36 38 39 29 30 47 45 25 40 35 30 55 25 42
internal_value=-0.000527344 -0.00693976 0.00383607 0.0105521 0.00138393 -0.000384615 -0.00518868 0.00627451 -0.00292857 0.0103636 0.00894118 -0.00108333 0.00342857 0.00347826 -0.00455882 -0.00186916 0.00264706 -0.0151471 -0.0115385 -0.00930556 -0.00474576 -0.0123256 0.0149593 -0.00280702 0.0171429 0.0143396 0.0155882
internal_weight=1023 414 609 162 447 363 211 152 279 109 84 239 104 68 135 106 67 135 77 143 58 85 122 56 90 52 67
internal_count=1023 414 609 162 447 363 211 152 279 109 84 239 104 68 135 106 67 135 77 143 58 85 122 56 90 52 67
is_linear=0
shrinkage=0.04


Tree=31
num_leaves=31
num_cat=0
split_feature=0 18 17 20 16 8 20 12 16 8 18 12 9 1 0 1 16 5 10 10 18 11 11 12 10 8 1 3 4 0
split_gain=18.686 9.51702 5.75165 5.17221 4.18241 3.96575 3.40351 3.80595 3.3206 4.85869 4.5908 2.93409 2.45131 3.5531 2.4099 2.40722 2.3709 2.07873 1.88831 1.85096 1.65069 1.99 1.77136 1.46779 1.30865 2.49381 0.504286 0.491681 0.447216 0.0416453
threshold=5.6500000000000012 0.37940952255126048 0.12940952255126045 -0.22252093395631442 1505.0000000000002 15.550000000000002 0.81174490092936691 45.500000000000007 602.50000000000011 11.750000000000002 -0.60355339059327384 44.500000000000007 78.500000000000014 2.3500000000000001 1.5500000000000003 3.0500000000000003 307.50000000000006 5.8500000000000005 11.950000000000001 1.3500000000000003 -0.78656609248549325 3.8500000000000001 7.8500000000000005 28.500000000000004 7.8500000000000005 10.65 14.550000000000002 4.7500000000000009 3.7500000000000004 2.4500000000000006
decision_type=2 2 2 2 2 2 2 2 2 2 2 2 2 2 2 2 2 2 2 2 2 2 2 2 2 2 2 2 2 2
left_child=1 12 3 17 11 6 7 -4 9 16 -11 -3 29 28 -6 23 -5 -2 24 -13 -15 -22 -23 -16 -9 -26 -7 -17 -14 -1
right_child=2 4 5 8 14 26 -8 18 -10 10 -12 19 13 20 15 27 -18 -19 -20 -21 21 22 -24 -25 25 -27 -28 -29 -30 -31
leaf_value=-0.072776743464519303 -0.036792172012249991 0.043978289456550607 0.059368858621939129 -0.035876591667534846 -0.043312271279904217 0.094496579075752513 0.079774066031151669 0.0012789087217463192 0.070018420127004183 0.047668906260362437 -0.0098225957469393419 0.027177099178612708 -0.045047160153813118 0.0044242728013207432 -0.021961838193382946 -0.0011302750721129584 0.00061419973538949795 -6.7985778648704806e-05 0.041068446787886154 -0.030008134476639654 -0.03242629261937912 0.019327103879827553 -0.041672947926487396 0.01677050090861652 0.0052586604402573298 -0.025437868558755811 0.20115237544864534 -0.023221148220251779 -0.055438872273921622 -0.048111058584089622
leaf_weight=25 42 47 44 26 28 47 39 29 39 43 25 25 38 29 27 25 25 33 33 43 42 25 35 33 31 25 25 30 25 40
leaf_count=25 42 47 44 26 28 47 39 29 39 43 25 25 38 29 27 25 25 33 33 43 42 25 35 33 31 25 25 30 25 40
internal_value=-0.000410156 -0.0057529 0.00504931 0.00042735 -0.00030888 0.0089781 0.0060396 0.00343558 0.0045283 0.00116667 0.00811594 0.00534483 -0.0111538 -0.00882051 -0.00486111 -0.00224138 -0.00807692 -0.00815789 -0.000336134 0 -0.005 -0.00737864 -0.00262295 0.00327869 -0.00348837 -0.00701754 0.0169863 -0.00821429 -0.0165625 -0.0178788
internal_weight=1023 517 506 233 258 273 201 162 158 119 68 115 259 194 143 115 51 75 118 68 131 102 60 60 85 56 72 55 63 65
internal_count=1023 517 506 233 258 273 201 162 158 119 68 115 259 194 143 115 51 75 118 68 131 102 60 60 85 56 72 55 63 65
is_linear=0
shrinkage=0.04


Tree=32
num_leaves=29
num_cat=0
split_feature=0 18 17 8 18 5 12 4 11 12 10 11 4 5 2 8 11 11 17 11 14 20 1 4 6 9 12 5
split_gain=19.4697 8.11469 6.13181 8.18366 3.64941 3.56845 3.15261 2.89823 3.25154 3.46346 3.52521 2.87514 2.53444 2.40082 2.39318 2.1051 4.85186 2.04053 1.79773 1.53838 1.53616 1.40868 1.36058 1.25491 1.24278 1.93955 0.455746 0.0267545
threshold=4.6500000000000012 -0.12940952255126037 -0.60355339059327362 14.65 -0.70710678118654757 7.8500000000000005 57.500000000000007 1.7500000000000002 8.9500000000000011 46.500000000000007 2.1500000000000008 4.8500000000000005 9.1500000000000004 7.0500000000000007 11.850000000000003 5.3500000000000005 15.950000000000001 13.350000000000003 0.91597561503675362 4.8500000000000005 138.50000000000003 -0.22252093395631442 3.0500000000000003 8.7500000000000018 2.7916666666666674 80.500000000000014 45.500000000000007 12.950000000000001
decision_type=2 2 2 2 2 2 2 2 2 2 2 2 2 2 2 2 2 2 2 2 2 2 2 2 2 2 2 2
left_child=1 24 12 4 5 20 17 -3 22 10 15 -8 21 -13 -14 16 -10 18 26 -5 -4 -2 -9 -19 -1 -26 -6 -21
right_child=2 7 3 19 6 -7 11 8 9 -11 -12 13 14 -15 -16 -17 -18 23 -20 27 -22 -23 -24 -25 25 -27 -28 -29
leaf_value=-0.047660021294703266 -0.03769645034893529 -0.048319958573834844 0.007525315846789349 0.015529530111152568 0.084327883863203404 -0.042266648773608494 0.0066064544268606617 -0.01266501783682223 0.02268097825324121 0.028608835006627694 0.017892159850202986 -0.048619407408944292 0.029121562518098169 0.011128737861172624 -0.019994541362807806 -0.025680449426225528 -0.021083364665647614 -0.0043688064285950642 0.015724205892005065 0.18414360043441208 -0.014339564933788154 -0.0021648372208322897 -0.034007176873937082 0.091090529370527515 -0.047677479097966269 -0.023267423931928235 0.045697758499382318 0.081969028853432921
leaf_weight=58 32 38 38 37 36 34 42 46 38 29 26 26 28 25 36 42 25 25 38 62 25 41 35 28 30 47 31 25
leaf_count=58 32 38 38 37 36 34 42 46 38 29 26 26 28 25 36 42 25 25 38 62 25 41 35 28 30 47 31 25
internal_value=-0.000449219 -0.00713253 0.00409836 0.00625793 0.00309456 -0.00346939 0.00563492 -0.00321429 -0.00157025 0.00173913 -0.00106061 -0.000212766 -0.00333333 -0.00653846 0.00246154 -0.00433962 0.0003125 0.0090566 0.0122642 0.01504 0.0021875 -0.00837838 -0.00804878 0.00259259 -0.0151471 -0.0115385 0.0161765 0.0179545
internal_weight=1023 414 609 472 348 97 251 279 241 160 131 93 137 51 64 105 63 158 105 124 63 73 81 53 135 77 67 87
internal_count=1023 414 609 472 348 97 251 279 241 160 131 93 137 51 64 105 63 158 105 124 63 73 81 53 135 77 67 87
is_linear=0
shrinkage=0.04


Tree=33
num_leaves=31
num_cat=0
split_feature=0 9 0 17 9 17 8 11 1 10 11 5 19 19 7 19 7 7 7 13 8 7 8 17 7 17 0 10 1 11
split_gain=16.3263 6.65116 7.18958 5.43257 5.28881 5.04717 4.00597 3.62798 3.07682 2.9699 2.93063 2.92619 2.8157 2.55272 3.56525 6.24975 2.47863 2.08872 2.23814 2.92594 2.04135 1.99922 1.96653 1.36171 1.22738 1.06479 0.865371 0.44987 0.381569 0.143494
threshold=5.6500000000000012 78.500000000000014 1.6500000000000001 0.12940952255126045 98.500000000000014 -0.60355339059327362 15.550000000000002 11.550000000000002 8.1500000000000004 11.850000000000003 4.1500000000000012 7.7500000000000009 -1.0000000180025095e-35 0.6078576107927941 6.8562500000000011 -1.0000000180025095e-35 4.2270833333333346 4.3187500000000014 3.3520833333333333 8.8500000000000032 5.6500000000000012 8.8625000000000025 6.9500000000000011 -1.0000000180025095e-35 5.5687500000000005 -0.78656609248549292 2.5500000000000003 5.5500000000000007 14.550000000000002 5.8500000000000005
decision_type=2 2 2 2 2 2 2 2 2 2 2 2 2 2 2 2 2 2 2 2 2 2 2 2 2 2 2 2 2 2
left_child=1 27 7 4 8 10 13 -3 -2 12 -4 17 -10 14 16 -16 -5 18 19 -7 26 -14 23 -19 -15 -6 -12 -1 -8 -18
right_child=3 2 5 6 25 11 28 -9 9 -11 20 -13 21 24 15 -17 29 22 -20 -21 -22 -23 -24 -25 -26 -27 -28 -29 -30 -31
leaf_value=-0.064963307324033034 -0.030377851622116127 -0.060319152005923381 -0.034041105106375057 0.002792329261943447 0.016008662727521498 -0.011232085514182071 0.087437954758585124 -0.0049037499457470976 -0.03943569490885402 0.037212172361256783 -0.011302706195794085 -0.022680930620114097 0.017860066285275717 0.029814073064048402 -0.036249216846085092 0.022718222334558717 0.040742958752318224 0.02745030228642566 -0.0093018717990006831 0.020168802778548961 -0.036708258614113629 -0.021283487713236779 0.00058683022745025686 0.030894677976609389 -0.013419613246355802 0.070856816715811968 0.011917792863778569 -0.047709938606844533 0.18640164142958959 0.056594273739339056
leaf_weight=26 38 62 26 25 25 33 47 32 38 30 30 30 40 25 31 31 28 29 30 30 41 28 34 44 25 34 26 44 25 36
leaf_count=26 38 62 26 25 25 33 47 32 38 30 30 30 40 25 31 31 28 29 30 30 41 28 34 44 25 34 26 44 25 36
internal_value=-0.000527344 -0.00552124 -0.00370536 0.00457594 8.54701e-05 -0.00107345 0.00839416 -0.0134737 -0.00342857 -0.000583942 -0.00758065 0.00242424 -0.00373832 0.00544554 0.00802632 0.000634921 0.0131111 0.0041791 -0.000212766 0.0040625 -0.00428571 0.00115942 0.00796296 0.0116216 -0.00235294 0.0103333 0.000701754 -0.0169014 0.0164384 0.0172308
internal_weight=1023 517 447 506 233 353 273 94 174 136 123 230 106 201 151 62 89 200 93 63 97 68 107 73 50 59 56 70 72 64
internal_count=1023 517 447 506 233 353 273 94 174 136 123 230 106 201 151 62 89 200 93 63 97 68 107 73 50 59 56 70 72 64
is_linear=0
shrinkage=0.04


Tree=34
num_leaves=31
num_cat=0
split_feature=0 18 10 18 19 16 16 12 4 4 13 5 9 3 13 16 11 10 12 13 11 6 6 5 4 8 6 9 19 8
split_gain=15.8092 7.97799 4.55723 6.20705 5.39663 3.68571 3.38926 2.80405 2.60382 2.53069 2.52246 2.5216 2.34872 2.29106 2.54143 1.94167 1.54625 1.44097 3.18033 2.58403 1.24865 1.0539 3.21229 1.70569 1.39305 0.750049 0.673831 0.381347 0.371449 0.263846
threshold=5.6500000000000012 0.60355339059327384 11.850000000000003 0.25881904510252057 -1.0000000180025095e-35 1505.0000000000002 142.50000000000003 57.500000000000007 2.9500000000000006 2.0500000000000003 10.550000000000002 7.7500000000000009 97.500000000000014 4.6500000000000012 16.900000000000002 92.500000000000014 8.6500000000000004 5.1500000000000012 46.500000000000007 8.6500000000000004 0.8500000000000002 9.7750000000000004 13.566666666666668 8.9500000000000011 4.6500000000000012 4.9500000000000011 2.6500000000000004 86.500000000000014 1.0000000180025095e-35 3.5500000000000003
decision_type=2 2 2 2 2 2 2 2 2 2 2 2 2 2 2 2 2 2 2 2 2 2 2 2 2 2 2 2 2 2
left_child=1 6 3 4 8 12 -1 10 -2 29 -5 17 -3 14 26 20 -10 18 25 -20 -4 23 -23 24 -6 -11 -7 -13 -22 -8
right_child=2 5 15 7 21 13 9 -9 16 11 -12 27 -14 -15 -16 -17 -18 -19 19 -21 28 22 -24 -25 -26 -27 -28 -29 -30 -31
leaf_value=0.0027693339411345263 0.0026806360914657114 -0.0012944599562787218 0.033797231734057541 0.1087514992257734 0.011640375468952869 0.0015408999796568423 -0.036512369853016563 0.001812401902087455 -0.033698124653898473 -0.029460899732828682 0.019418984724545254 -0.072110817469598618 0.054082315170513075 -0.01393516966147164 -0.028409203935911852 0.012710020361273493 -0.028739859677579832 -0.041596385888096797 -0.023874540298687227 0.023834765281719256 0.066915546439668891 0.042568403379171546 -0.0012833724937250678 0.0048071187251798623 -0.01630524126577601 -0.051337300448322638 0.044926813105349302 -0.048902150450939694 0.088680509630230844 -0.026466154638530276
leaf_weight=37 25 39 25 55 25 25 49 46 46 25 33 30 46 43 30 31 30 32 32 26 43 25 25 31 35 28 25 25 31 25
leaf_count=37 25 39 25 55 25 25 49 46 46 25 33 30 46 43 30 31 30 32 32 26 43 25 25 31 35 28 25 25 31 25
internal_value=-0.000761719 -0.00567568 0.00426036 0.00201592 -0.0018107 0.000382775 -0.00974194 0.00888889 -0.00882353 -0.0112821 0.0130337 -0.00884422 0.00674419 -0.00403226 0 0.010687 -0.0124675 -0.00597222 -0.00375 0.00271186 0.0134 0.00323944 0.00784314 0.000652174 -0.00327869 -0.0107407 0.0054902 -0.0160714 0.016 -0.0176
internal_weight=1023 517 506 376 242 208 309 134 101 272 88 198 85 123 80 130 76 143 111 58 99 141 50 91 60 53 50 55 74 74
internal_count=1023 517 506 376 242 208 309 134 101 272 88 198 85 123 80 130 76 143 111 58 99 141 50 91 60 53 50 55 74 74
is_linear=0
shrinkage=0.04


Tree=35
num_leaves=31
num_cat=0
split_feature=0 18 17 7 19 5 14 4 9 14 16 18 13 13 9 0 2 4 11 9 11 4 11 1 5 11 4 4 5 0
split_gain=15.7666 11.1316 6.19033 5.51368 4.35011 4.29267 4.00374 3.67831 4.02155 2.92836 2.78487 2.81927 2.53125 2.47369 2.26622 2.42405 1.86594 2.19599 1.86342 1.49831 1.43629 1.43305 1.31962 1.12919 0.54443 0.54342 0.510992 0.744951 0.262066 0.0983374
threshold=4.6500000000000012 -0.12940952255126037 -0.37940952255126065 10.708333333333336 0.87837969732492682 11.15 162.50000000000003 9.1500000000000004 97.500000000000014 82.500000000000014 1575.0000000000002 0.78656609248549303 10.250000000000002 14.15 86.500000000000014 7.3500000000000005 7.5500000000000007 7.4500000000000011 0.75000000000000011 70.500000000000014 3.1500000000000008 7.2500000000000009 6.1500000000000012 5.1500000000000012 3.3500000000000001 10.350000000000003 5.9500000000000011 9.4500000000000011 2.1500000000000008 2.8500000000000001
decision_type=2 2 2 2 2 2 2 2 2 2 2 2 2 2 2 2 2 2 2 2 2 2 2 2 2 2 2 2 2 2
left_child=1 20 7 5 9 6 18 16 -9 28 11 12 -11 21 15 -8 -2 -18 -4 22 24 -12 -20 -21 -1 -5 -25 -28 -3 -22
right_child=2 4 3 25 -6 -7 14 8 -10 10 13 -13 -14 -15 -16 -17 17 -19 19 23 29 -23 -24 26 -26 -27 27 -29 -30 -31
leaf_value=-0.022286640997176105 -0.032110972178299557 -0.013444918267912822 0.0025927076398377835 0.099907680966528925 -0.032846797048381816 -0.019844762078188298 -0.026724491829650782 -0.016204679085973128 0.033183550570725903 -0.010503721876368104 -0.0016556221888627577 0.04407493839282392 0.025609464441958673 -0.03026743537583286 0.036622620947807966 0.021377971985113434 0.00048507611718980216 -0.02121960387965938 -0.01301648329031007 0.019809743771510038 -0.055207172451059335 0.019017286845223788 0.050186551818767952 0.015462140366328434 -0.027057829612317345 0.15763137296832139 0.010468291524176703 0.079427732929095995 -0.042992048673811463 -0.035958631152647823
leaf_weight=25 36 25 44 29 45 28 47 41 39 39 31 34 25 41 45 36 42 28 25 27 71 27 26 37 28 38 32 28 25 25
leaf_count=25 36 25 44 29 45 28 47 41 39 39 31 34 25 41 45 36 42 28 25 27 71 27 26 37 28 38 32 28 25 25
internal_value=-0.000953271 -0.00674208 0.00311606 0.00568849 -0.0021843 0.0037766 0.005 -0.00299465 0.00345679 -8.06452e-05 0.00212121 0.00686869 0.00184615 -0.0026 -0.000620155 -0.00452381 -0.00785047 -0.00394366 0.00827273 0.0101136 -0.0156 0.00271186 0.00423077 0.01248 -0.01 0.0161765 0.0144898 0.0118033 -0.00862745 -0.0185567
internal_weight=1069 441 628 442 292 375 347 186 80 247 197 98 64 99 128 83 106 70 219 175 149 58 51 124 53 67 97 60 50 96
internal_count=1069 441 628 442 292 375 347 186 80 247 197 98 64 99 128 83 106 70 219 175 149 58 51 124 53 67 97 60 50 96
is_linear=0
shrinkage=0.04


Tree=36
num_leaves=31
num_cat=0
split_feature=8 17 14 4 18 18 4 4 16 14 1 0 1 16 18 12 7 18 0 5 7 8 14 8 4 19 1 5 19 3
split_gain=17.2702 9.28811 6.57193 6.48026 5.88279 3.64121 3.35191 3.11701 2.69188 2.87179 2.27085 3.03499 2.06881 2.034 3.00446 2.83268 1.95611 1.68715 1.79107 1.57578 2.61411 1.83425 1.56321 1.21299 1.19474 1.13885 0.967985 1.47296 0.723676 0.454327
threshold=3.5500000000000003 -0.37940952255126065 162.50000000000003 9.1500000000000004 -0.12940952255126037 -0.12940952255126037 12.65 9.6500000000000004 1932.5000000000002 215.50000000000003 3.0500000000000003 7.3500000000000005 8.2500000000000018 107.50000000000001 -0.9159756150367534 44.500000000000007 6.8562500000000011 1.0000000180025095e-35 8.2500000000000018 7.8500000000000005 4.4187500000000002 8.1500000000000004 237.50000000000003 12.550000000000002 6.6500000000000012 1.0000000180025095e-35 3.2500000000000004 6.2500000000000009 1.0000000180025095e-35 6.0500000000000007
decision_type=2 2 2 2 2 2 2 2 2 2 2 2 2 2 2 2 2 2 2 2 2 2 2 2 2 2 2 2 2 2
left_child=4 3 7 12 -1 -5 -7 13 9 -6 -4 19 26 14 -3 -15 -13 18 -17 20 22 -22 -12 -9 -14 -16 -2 29 -10 -28
right_child=1 2 10 5 8 6 -8 23 28 -11 11 16 24 15 25 17 -18 -19 -20 -21 21 -23 -24 -25 -26 -27 27 -29 -30 -31
leaf_value=-0.040189443287481197 -0.031778918795686513 0.0018541325088980898 0.02814168558535167 -0.024275246982220295 -0.022114964344349914 0.057296916689518904 -0.00063497141660185719 0.049687868435182345 -0.015787299035932616 0.0038424502894985582 -0.044934104539519987 0.068375162324539593 0.0049515439572800088 0.044921814652223412 0.047816670437762422 -0.02285491061230676 -0.0079843921827170306 -0.011190477359191106 0.00928936292022918 -0.034465476369612745 0.015556875160103605 -0.0025165494416577693 -0.0013497002400147196 0.15243971389872413 -0.019808773552683585 0.01578672230516517 -0.02342305136032069 -0.013073576248176479 -0.043091899343443069 -0.044258681873867153
leaf_weight=96 25 45 36 31 29 37 29 29 28 48 26 34 33 30 55 31 26 27 33 28 26 28 25 46 25 29 25 43 27 39
leaf_count=96 25 45 36 31 29 37 29 29 28 48 26 34 33 30 55 31 26 27 33 28 26 28 25 46 25 29 25 43 27 39
internal_value=-0.000915888 0.00173397 0.00475676 -0.00409722 -0.010655 0.00428571 0.00955224 0.00840491 -0.00511278 -0.00025641 -0.000434783 -0.00216495 -0.00837696 0.00621514 0.00969231 0.00245902 0.0052459 -0.00108696 0.00246154 -0.00552239 -0.00320755 0.00290909 -0.00961538 0.0155263 -0.0020339 0.0141176 -0.0111278 -0.0127778 -0.0117857 -0.0166154
internal_weight=1069 841 554 287 228 97 66 325 132 77 229 193 190 250 129 121 60 91 64 133 105 54 51 75 58 84 132 107 55 64
internal_count=1069 841 554 287 228 97 66 325 132 77 229 193 190 250 129 121 60 91 64 133 105 54 51 75 58 84 132 107 55 64
is_linear=0
shrinkage=0.04


Tree=37
num_leaves=31
num_cat=0
split_feature=8 17 14 4 18 9 7 5 8 16 11 11 14 0 9 6 3 14 7 5 4 5 5 11 1 4 5 19 11 11
split_gain=16.7866 7.60169 6.7271 6.25922 6.16305 4.09351 3.31637 3.35306 3.74279 2.94 3.49211 2.57095 1.92264 1.85789 4.04762 2.99824 1.75496 1.67386 3.28957 1.38566 1.35733 1.8351 1.03869 0.973129 1.13326 0.827124 0.750049 0.723676 0.634582 0.43147
threshold=3.5500000000000003 -0.37940952255126065 162.50000000000003 9.1500000000000004 -0.12940952255126037 97.500000000000014 9.6395833333333361 8.4500000000000011 15.350000000000003 1932.5000000000002 11.550000000000002 1.9500000000000002 111.50000000000001 7.3500000000000005 75.500000000000014 4.6666666666666679 6.9500000000000011 269.50000000000006 4.3937500000000007 2.7500000000000004 7.5500000000000007 4.1500000000000012 5.6500000000000012 11.850000000000003 5.0500000000000007 11.350000000000003 6.0500000000000007 1.0000000180025095e-35 10.050000000000002 6.1500000000000012
decision_type=2 2 2 2 2 2 2 2 2 2 2 2 2 2 2 2 2 2 2 2 2 2 2 2 2 2 2 2 2 2
left_child=4 3 6 16 -1 -5 7 11 -9 10 -6 12 -3 15 -15 17 19 18 -4 -2 21 -18 -20 24 -13 -7 -17 -11 -8 -26
right_child=1 2 13 5 9 25 28 8 -10 27 -12 23 -14 14 -16 26 20 -19 22 -21 -22 -23 -24 -25 29 -27 -28 -29 -30 -31
leaf_value=-0.038581865555981948 -0.022486129305907862 -0.0097871153164492061 -0.01686470947002338 -0.015222180693896395 -0.030294872955409034 0.059527547725183344 0.07045468640824154 -0.018910864602468321 0.02065564943673728 -0.015155807074495318 0.021199938067636596 0.012094756295247517 0.022105795255485391 0.12684133216851065 -0.01129404053643448 -0.01914765542760705 -0.024802154047263374 0.029622731808102855 0.017601869170964016 -0.043078348934364463 -0.02014051495415508 0.0015067745719777293 -0.0041058119545854055 0.02736491817555356 0.015107367090254478 0.018281994228078916 -0.045790864498411424 -0.041368223369705352 0.147475304518181 0.068262065520457257
leaf_weight=96 33 32 27 42 42 28 27 39 25 28 35 32 30 27 35 25 25 34 26 53 43 36 27 34 26 27 28 27 39 41
leaf_count=96 33 32 27 42 42 28 27 39 25 28 35 32 30 27 35 25 25 34 26 53 43 36 27 34 26 27 28 27 39 41
internal_value=-0.000878505 0.00173397 0.00446847 -0.00354167 -0.0104803 0.00469388 0.00815951 0.00607692 -0.00184615 -0.00481203 0.00025641 0.00867347 0.00190476 -0.000782609 0.00507937 -0.00297619 -0.00774869 0.000695652 -0.00246914 -0.011954 -0.00419048 -0.000322581 0.00333333 0.011791 0.0138 0.0117857 -0.0107407 -0.0117857 0.0161194 0.0167647
internal_weight=1069 841 554 287 228 97 325 259 64 132 77 195 62 229 62 167 190 114 80 86 104 61 53 133 99 55 53 55 66 67
internal_count=1069 841 554 287 228 97 325 259 64 132 77 195 62 229 62 167 190 114 80 86 104 61 53 133 99 55 53 55 66 67
is_linear=0
shrinkage=0.04


Tree=38
num_leaves=31
num_cat=0
split_feature=0 18 0 17 9 7 7 19 12 19 16 13 18 9 5 11 5 2 3 7 8 4 4 12 11 4 2 7 4 7
split_gain=16.4243 10.6268 5.22714 4.06416 7.27297 3.47383 3.79249 3.31269 2.34491 3.47733 3.10206 2.29507 1.80167 3.21874 1.70149 2.4078 1.79312 1.64087 2.76559 2.18975 1.61352 1.59478 1.87927 1.43209 1.40027 1.39821 1.20924 2.94121 1.08031 0.758785
threshold=4.5500000000000007 -0.12940952255126037 14.850000000000003 0.12940952255126045 104.50000000000001 10.910416666666668 9.1833333333333353 0.87837969732492682 61.500000000000007 -0.8783796973249266 302.50000000000006 4.9500000000000011 0.78656609248549303 95.500000000000014 8.3500000000000032 11.65 5.3500000000000005 7.5500000000000007 10.450000000000001 6.15625 10.850000000000003 6.7500000000000009 3.3500000000000001 35.500000000000007 7.8500000000000005 4.7500000000000009 2.4500000000000006 3.229166666666667 7.1500000000000012 5.6916666666666673
decision_type=2 2 2 2 2 2 2 2 2 2 2 2 2 2 2 2 2 2 2 2 2 2 2 2 2 2 2 2 2 2
left_child=1 26 3 4 17 6 8 11 9 -5 20 -3 13 -13 15 16 -11 29 19 -19 -10 22 -14 -6 -20 -15 -1 -28 -21 -2
right_child=2 7 -4 5 23 -7 -8 -9 10 14 -12 12 21 25 -16 -17 -18 18 24 28 -22 -23 -24 -25 -26 -27 27 -29 -30 -31
