tree
version=v4
num_class=1
num_tree_per_iteration=1
label_index=0
max_feature_idx=20
objective=quantile
feature_names=pm2_5 pm2_5_lag1 pm2_5_lag3 pm2_5_lag6 pm2_5_lag12 pm2_5_lag24 pm2_5_mean6 pm2_5_mean24 pm10 o3 no2 temp_c rh_pct wind_kmh wind_dir precip_mm boundary_layer_m hour_sin hour_cos dow_sin dow_cos
feature_infos=[0.10000000000000001:22.899999999999999] [0.10000000000000001:22.899999999999999] [0.10000000000000001:22.899999999999999] [0.10000000000000001:22.899999999999999] [0.10000000000000001:22.899999999999999] [0.10000000000000001:22.899999999999999] [0.14999999999999999:21.666666666666668] [0.67499999999999993:18.516666666666666] [0.10000000000000001:38.600000000000001] [37:139] [0:19.399999999999999] [-3.7999999999999998:25.600000000000001] [15:100] [0.5:33.399999999999999] [1:360] [0:1.8] [10:3610] [-1:1] [-1:1] [-0.97492791218182362:0.97492791218182362] [-0.90096886790241903:1]
tree_sizes=1164 1323 1490 1419 1488 1589 1398 1485 1670 1488 1419 1415 1580 1498 1492 1409 1434 1514 1442 1599 1427 1515 1601 1678 1603 1674 1689 1770 1672 1952 1693 1767 1693 1845 1768 2046 1951 1881 1950 1949 1752 1925 1910 1864 1935 1867 1964 1874 1874 1963 1944 1947 2026 1938 1962 2115 1963 1963 1785 2128 2053 2035 2064 2018 1933 2034 2137 2050 2303 2203 1957 2042 2118 2030 2137 2037 2032 2032 2284 2133 2215 2298 2306 2472 2399 2030 2232 2209 2279 2124 2490 2033 2121 2451 2225 2293 2223 2176 2647 2139 2383 2323 2296 2230 2469 2390 2301 2318 2406 2384 2484 2570 2311 2540 2657 2484 2298 2288 2463 2559 2473 2291 2458 2748 2646 2307 2205 2550 2393 2559 2482 2467 2635 2821 2579 2312 2566 2373 2569 2472 2552 2382 2485 2455 2398 2569 2634 2645 2551 2622 2643 2481 2648 2558 2563 2550 2563 2447 2389 2814 2719 2849 2676 2733 2632 2643 2668 2232 2670 2582 2496 2401 2487 2469 2566 2757 2499 2582 2573 2494 2397 2632 2576 2645 2577 2644 2646 2673 2659 2572 2723 2647 2657 2767 2587 2583 2670 2489 2634 2811 2725 2479 2651 2571 2793 2565 2722 2730 2805 2651 2817 2785 2789 2642 2727 2819 2827 2723 2637 2801 2830 2819 2621 2736 2614 2733 2571 2620 2653 2634 2744 2811 2534 2711 2634 2500 2563 2832 2649 2806 2642 2710 2482 2653 2568 2750 2657 2838 2828 2815 2813 2806 2724 2832 2752 2477 2677 2512 2845 2588 2576 2676 2654 2750 2817 2581 2847 2715 2552 2641 2812 2718 2824 2819 2830 2735 2753 2712 2747 2832 2738 2753 2631 2836 2820 2721 2827 2648 2642 2568 2718 2828 2829 2716 2809 2800 2806 2645 2824 2831 2758 2587 2583 2417 2836 2855 2837 2822 2832 2645 2726 2828 2559 2658 2831 2738 2806 2817 2833 2728 2474 2725 2560 2755 2757 2851 2753 2813 2808 2568 2641 2658 2593 2813 2740 2557 2641 2823 2831 2666 2620 2563 2575 2642 2838 2827 2748 2669 2647 2678 2744 2747 2755 2736 2676 2859 2663 2765 2744 2771 2422 2593 2491 2585 2593 2736 2848 2833 2582 2603 2601 2762 2846 2663 2743 2841 2838 2830 2744 2764 2589 2595 2766 2763 2583 2855 2807 2665 2835 2762 2765 2587 2594 2765 2775 2591 2843 2767 2487 2832 2811 2726 2679 2568 2742 2845 2740 2741 2828 2812 2729 2820 2643 2813 2832 2817 2654 2826 2666 2839 2751 2745 2836 2757 2761 2499 2566 2836 2599 2745 2671 2850 2829 2834 2581 2859 2846 2779 2855 2677 2787 2572 2734 2827 2829 2582 2834 2844 2663 2744 2824 2760 2654 2759 2668 2582 2739 2666 2417 2679 2667 2858 2672 2672 2592 2655 2667 2645 2745 2595 2576 2573 2778 2575 2264 2607 2523 2687 2613 2684 2639 2688 2664 2844 2684 2332 2324 2511 2766 2610 2521 2769 2578 2858 2697 2564 2783 2575 2692 2615

Tree=0
num_leaves=13
num_cat=0
split_feature=8 17 11 8 1 8 7 13 8 1 1 1
split_gain=21.6848 9.9552 9.32395 4.4302 2.046 1.50876 1.42829 1.86544 0.118311 0.82584 0.0175953 0.0152539
threshold=12.850000000000003 -1.0000000180025095e-35 6.3500000000000005 18.150000000000002 8.9500000000000011 20.550000000000004 8.3125000000000018 10.750000000000002 9.1500000000000004 5.6500000000000012 12.850000000000003 5.1500000000000012
decision_type=2 2 2 2 2 2 2 2 2 2 2 2
left_child=6 5 3 -3 -4 10 8 -8 -1 -10 -2 -9
right_child=1 2 4 -5 -6 -7 7 11 9 -11 -12 -13
leaf_value=12.256393612194366 12.295193662643433 12.379193641662591 12.571193642616263 12.505593671417227 12.668393678951242 12.61519355773928 12.58719367980957 12.312793581390379 12.435993647766118 12.351193656921387 12.316793661499032 12.295993665885931
leaf_weight=558 37 36 26 25 58 26 39 25 25 132 25 30
leaf_count=558 37 36 26 25 58 26 39 25 25 132 25 30
internal_value=12.42 12.4307 12.4371 12.4251 12.4457 12.4201 12.4169 12.4215 12.4163 12.4173 12.4167 12.4168
internal_weight=1042 233 145 61 84 88 809 94 715 157 62 55
internal_count=1042 233 145 61 84 88 809 94 715 157 62 55
is_linear=0
shrinkage=1


Tree=1
num_leaves=14
num_cat=0
split_feature=0 17 4 13 2 11 0 19 18 10 11 18 1
split_gain=25.93 8.97909 4.91181 4.83809 3.2344 1.36893 0.326639 0.177779 0.33853 0.127057 0.199734 0.0297609 0.0166575
threshold=12.100000000000001 -1.0000000180025095e-35 9.9500000000000011 11.050000000000002 7.7500000000000009 6.3500000000000005 10.65 -0.8783796973249266 0.37940952255126048 11.950000000000001 5.6500000000000012 0.98296291314453421 5.1500000000000012
decision_type=2 2 2 2 2 2 2 2 2 2 2 2 2
left_child=2 -2 6 4 -4 -3 7 8 -1 11 -11 -9 -5
right_child=1 5 3 12 -6 -7 -8 9 -10 10 -12 -13 -14
leaf_value=-0.060447769355764298 0.078592221069367058 0.081776258388510575 0.17664024897766273 -0.036758153678124565 0.037763398992153127 0.24446423052603244 0.020204968298341643 -0.14634694426914313 0.0065602418670447724 -0.086110146666701776 0.0087170276550333388 -0.050010947728731991 -0.11423975064086335
leaf_weight=54 45 26 43 25 25 43 37 582 41 34 25 28 34
leaf_count=54 45 26 43 25 25 43 37 582 41 34 25 28 34
internal_value=3.06798e-05 0.0179478 -0.0021873 0.00509375 0.0122899 0.0269143 -0.00334663 -0.00352418 -0.001875 -0.00375522 -0.00193333 -0.00392799 -0.00326667
internal_weight=1042 114 928 127 68 69 801 764 95 669 59 610 59
internal_count=1042 114 928 127 68 69 801 764 95 669 59 610 59
is_linear=0
shrinkage=0.04


Tree=2
num_leaves=16
num_cat=0
split_feature=1 17 4 13 2 13 5 1 14 19 3 10 11 13 2
split_gain=18.3814 8.48814 5.04583 5.69823 2.68684 1.63269 1.58287 0.890406 0.40958 0.254907 0.583015 0.22413 0.36568 0.0297447 0.019475
threshold=12.100000000000001 -1.0000000180025095e-35 9.9500000000000011 9.3500000000000032 7.5500000000000007 7.7500000000000009 10.750000000000002 10.450000000000001 109.50000000000001 -0.8783796973249266 2.7500000000000004 11.950000000000001 5.8500000000000005 2.9500000000000006 4.5500000000000007
decision_type=2 2 2 2 2 2 2 2 2 2 2 2 2 2 2
left_child=2 6 7 4 -4 -3 -2 9 -5 10 -1 13 -13 -11 -12
right_child=1 5 3 8 -6 -7 -8 -9 -10 11 14 12 -14 -15 -16
leaf_value=0.063593824852901534 0.20024846203615249 0.22908565005158182 0.17976664082675683 0.027651410194097514 0.085595305545940012 0.2254856879124307 -0.10378345035553829 0.069885669506536768 -0.15003829085283107 -0.20904031466851097 -0.06811814729601004 -0.082707335874497842 0.043766751787152822 -0.13080192317421413 -0.06482984036634043
leaf_weight=26 25 25 26 25 27 36 26 43 48 28 25 36 25 577 44
leaf_count=26 25 25 26 25 27 36 26 43 48 28 25 36 25 577 44
internal_value=-8.4373e-05 0.0151504 -0.00193341 0.00548031 0.0153333 0.0250968 0.003 -0.00310062 -0.00178378 -0.00341732 -0.00145833 -0.00369415 -0.00135484 -0.00392739 -0.00337143
internal_weight=1042 112 930 126 53 61 51 804 73 761 95 666 61 605 69
internal_count=1042 112 930 126 53 61 51 804 73 761 95 666 61 605 69
is_linear=0
shrinkage=0.04


Tree=3
num_leaves=15
num_cat=0
split_feature=0 17 4 13 2 11 8 3 4 2 1 9 10 10
split_gain=24.1692 8.10481 4.49885 4.48496 2.91622 1.56718 0.881969 1.95311 0.132432 0.188331 0.0166575 0.0122598 0.00642737 0.018449
threshold=12.100000000000001 -1.0000000180025095e-35 9.9500000000000011 11.050000000000002 7.7500000000000009 6.3500000000000005 13.250000000000002 6.0500000000000007 8.7500000000000018 5.2500000000000009 5.1500000000000012 112.50000000000001 11.950000000000001 13.350000000000003
decision_type=2 2 2 2 2 2 2 2 2 2 2 2 2 2
left_child=2 -2 6 4 -4 -3 8 -8 11 -10 -5 12 -1 -14
right_child=1 5 3 10 -6 -7 7 -9 9 -11 -12 -13 13 -15
leaf_value=-0.14948350124620144 0.067438593745146283 0.06948578053647296 0.16360090132341956 -0.031583896624731767 0.032829050810629395 0.22555103514423511 0.11235674293619363 -0.084005465673896981 -0.0056649238264082349 -0.092348997265297564 -0.11077621702299276 -0.22350983093663879 -0.02506981333034973 -0.070180277647655429
leaf_weight=563 45 26 43 25 25 43 26 48 25 30 34 44 25 40
leaf_count=563 45 26 43 25 25 43 26 48 25 30 34 44 25 40
internal_value=-4.6022e-05 0.0172522 -0.0021873 0.00478125 0.0117101 0.0257714 -0.00329676 0.000853332 -0.00371978 -0.00178572 -0.00326667 -0.00387519 -0.00393005 -0.00333333
internal_weight=1042 114 928 127 68 69 801 74 727 55 59 672 628 65
internal_count=1042 114 928 127 68 69 801 74 727 55 59 672 628 65
is_linear=0
shrinkage=0.04


Tree=4
num_leaves=16
num_cat=0
split_feature=8 8 2 16 10 5 4 13 4 2 2 3 9 8 10
split_gain=21.6824 5.41491 6.84096 4.13983 4.05894 3.81402 1.48704 1.82324 0.132073 0.188331 0.0851637 0.0227917 0.0121989 0.00727265 0.0175953
threshold=18.350000000000005 12.850000000000003 6.2500000000000009 52.500000000000007 11.750000000000002 10.65 9.9500000000000011 9.3500000000000032 8.7500000000000018 5.2500000000000009 5.1500000000000012 9.1500000000000004 112.50000000000001 11.050000000000002 10.750000000000002
decision_type=2 2 2 2 2 2 2 2 2 2 2 2 2 2 2
left_child=1 6 -3 -2 11 -5 8 -8 12 -10 -9 -4 13 -1 -15
right_child=3 2 4 5 -6 -7 7 10 9 -11 -12 -13 -14 14 -16
leaf_value=-0.13390261165962089 0.19306744867972028 0.15958576159326621 -0.047379611154076184 0.27897245139289811 0.11800140976806994 0.014367170439283625 0.13971195642129275 -0.030320540759742515 -0.0054383268733518911 -0.088655037374685663 -0.046296350686050841 -0.080721575171656734 -0.21456943769917325 -0.16722245091893137 -0.0084132938191203519
leaf_weight=557 27 25 25 34 36 25 33 25 25 30 33 61 44 37 25
leaf_count=557 27 25 25 34 36 25 33 25 25 30 33 61 44 37 25
internal_value=-8.4373e-05 -0.00182236 0.00521622 0.0190345 0.00123577 0.0127333 -0.00310617 0.00169565 -0.00371627 -0.00178572 -0.00257627 -0.00349425 -0.00387349 -0.00392903 -0.00330159
internal_weight=1042 956 147 86 122 59 809 91 718 55 58 86 663 619 62
internal_count=1042 956 147 86 122 59 809 91 718 55 58 86 663 619 62
is_linear=0
shrinkage=0.04


Tree=5
num_leaves=17
num_cat=0
split_feature=0 17 4 10 5 16 4 18 0 4 12 12 12 18 10 1
split_gain=24.3352 7.74503 4.14924 4.23902 2.58717 1.89922 1.62342 2.15894 0.256599 0.302518 0.499698 0.0646579 0.278475 0.342476 0.0254376 0.0187169
threshold=12.100000000000001 0.12940952255126045 9.9500000000000011 6.6500000000000012 11.050000000000002 137.50000000000003 12.500000000000002 0.60355339059327384 10.950000000000001 8.7500000000000018 39.500000000000007 39.500000000000007 33.500000000000007 0.25881904510252057 13.750000000000002 5.2500000000000009
decision_type=2 2 2 2 2 2 2 2 2 2 2 2 2 2 2 2
left_child=2 4 8 6 -2 -3 7 -4 9 11 -11 12 -1 -14 -13 -8
right_child=1 5 3 -5 -6 -7 15 -9 -10 10 -12 14 13 -15 -16 -17
leaf_value=-0.11383436291670314 0.26598216881961662 0.19428530296741378 -0.079075552151553374 0.071604307260847669 -0.099028613699656098 0.31894133189025314 -0.1879080916027597 0.15612348340964069 0.01826764111156981 0.052947072622056897 -0.079000198953340789 -0.1300018259334087 -0.16329601663004972 0.015073291619867691 -0.068151321655843353 -0.052652339190328037
leaf_weight=146 32 41 25 26 25 25 25 26 26 27 34 473 29 33 31 41
leaf_count=146 32 41 25 26 25 25 25 26 26 27 34 473 29 33 31 41
internal_value=1.87608e-05 0.0166774 -0.00217179 0.00408333 0.00572414 0.0259104 0.00077966 0.00607692 -0.003295 -0.00342636 -0.000709678 -0.00365778 -0.00302392 -0.000761906 -0.00391287 -0.00334328
internal_weight=1065 123 942 143 57 66 117 51 799 773 61 712 208 62 504 66
internal_count=1065 123 942 143 57 66 117 51 799 773 61 712 208 62 504 66
is_linear=0
shrinkage=0.04


Tree=6
num_leaves=15
num_cat=0
split_feature=0 16 4 14 2 5 16 8 12 8 2 2 0 0
split_gain=22.172 5.25794 5.01618 4.64883 7.99826 3.92479 1.0561 0.53023 0.364445 1.01234 0.123316 0.392572 0.0206051 0.0175953
threshold=12.100000000000001 57.500000000000007 9.9500000000000011 157.50000000000003 8.0500000000000025 8.3500000000000032 177.50000000000003 14.950000000000001 39.500000000000007 9.7500000000000018 3.1500000000000008 3.8500000000000001 5.6500000000000012 4.5500000000000007
decision_type=2 2 2 2 2 2 2 2 2 2 2 2 2 2
left_child=2 -2 7 4 -4 -3 -7 8 9 10 -1 -12 -13 -5
right_child=1 5 3 13 -6 6 -8 -9 -10 -11 11 12 -14 -15
leaf_value=-0.096349347322434498 0.15925086865846269 0.30618367861464302 0.146471490924685 -0.19709701969370053 -0.061058997967988075 0.16399866253354828 0.013286852816982797 0.068584686110262916 -0.11377016690263463 0.034527094131173636 0.0024252545879650876 -0.10328100890411193 -0.11628137847473789 -0.16594955910375953
leaf_weight=105 34 25 42 37 39 29 35 36 534 25 25 49 25 25
leaf_count=105 34 25 42 37 39 29 35 36 534 25 25 49 25 25
internal_value=0.000131331 0.0160323 -0.0019597 0.00491667 0.0111707 0.0107111 0.00529231 -0.003195 -0.00341885 -0.00206957 -0.00300488 -0.00196 -0.00341333 -0.00330159
internal_weight=1065 123 942 143 81 89 64 799 763 229 204 99 74 62
internal_count=1065 123 942 143 81 89 64 799 763 229 204 99 74 62
is_linear=0
shrinkage=0.04


Tree=7
num_leaves=16
num_cat=0
split_feature=0 17 16 19 4 13 2 8 3 16 16 11 11 0 3
split_gain=19.3402 7.82543 5.22374 3.61051 2.7683 2.30553 3.70078 0.64171 1.75762 0.591201 0.115649 0.0939444 0.254443 0.0279211 0.0178886
threshold=11.15 0.37940952255126054 137.50000000000003 0.6078576107927941 9.8500000000000032 9.3500000000000032 8.0500000000000025 11.050000000000002 4.6500000000000012 517.50000000000011 57.500000000000007 11.750000000000002 13.350000000000003 4.9500000000000011 10.050000000000002
decision_type=2 2 2 2 2 2 2 2 2 2 2 2 2 2 2
left_child=4 3 -3 -2 7 6 -6 11 -9 -7 -10 -1 -13 -14 -11
right_child=1 2 -4 -5 5 9 -8 8 10 14 -12 12 13 -15 -16
leaf_value=-0.12001084363870471 -0.072221210216477816 0.18212962133706362 0.2915363217425771 0.25064406173782633 0.1467886895321899 0.028957858825676891 -0.024660667442044565 0.061748145349543759 -0.013979609330929194 -0.025061778411553996 -0.057797019290904646 -0.020306062182608071 -0.11339955220767588 -0.1533570829342619 -0.048619217237781599
leaf_weight=461 49 45 28 28 29 25 29 30 25 38 74 41 113 25 25
leaf_count=461 49 45 28 28 29 25 29 30 25 38 74 41 113 25 25
internal_value=-1.87627e-05 0.013245 0.0225405 0.00425641 -0.00220524 0.00282993 0.00894915 -0.00316364 -0.000584616 -0.00125843 -0.00316 -0.00368175 -0.00286667 -0.00368345 -0.0033125
internal_weight=1065 150 73 77 915 146 58 769 129 88 99 640 179 138 63
internal_count=1065 150 73 77 915 146 58 769 129 88 99 640 179 138 63
is_linear=0
shrinkage=0.04


Tree=8
num_leaves=18
num_cat=0
split_feature=0 16 5 4 14 2 16 14 8 3 2 11 11 12 0 3 0
split_gain=20.1489 5.12924 3.54838 3.34263 3.21658 6.5981 1.01697 0.972974 0.601046 1.45452 0.159502 0.117812 0.226438 0.416478 0.0279211 0.0248056 0.0175953
threshold=12.100000000000001 57.500000000000007 8.3500000000000032 9.9500000000000011 157.50000000000003 6.3500000000000005 162.50000000000003 112.50000000000001 11.050000000000002 5.8500000000000005 6.1500000000000012 11.250000000000002 13.350000000000003 35.500000000000007 4.9500000000000011 6.7500000000000009 4.5500000000000007
decision_type=2 2 2 2 2 2 2 2 2 2 2 2 2 2 2 2 2
left_child=3 -2 -3 8 5 -5 -4 -7 11 10 -10 -1 13 -13 -14 -11 -6
right_child=1 2 6 4 16 7 -8 -9 9 15 -12 12 14 -15 -16 -17 -18
leaf_value=-0.11651566022775939 0.14559564905864167 0.28227487860035427 0.15578233832136454 0.13480528981581449 -0.19169968020154796 -0.062178128188128644 -0.00044994680291302416 0.081368896507428123 0.059770977732114872 -0.03755186662332298 0.045257281047649131 0.0017186434581856239 -0.10886357011936883 -0.11102156139250427 -0.14722279961689144 -0.08560831513724336 -0.1583187322572345
leaf_weight=448 34 25 27 25 37 30 37 26 25 25 25 30 113 32 25 76 25
leaf_count=448 34 25 27 25 37 30 37 26 25 25 25 30 113 32 25 76 25
internal_value=-9.38096e-05 0.0150645 0.00982222 -0.00208696 0.00352778 0.00873171 0.00467692 0.000982455 -0.003095 -0.00081579 0.00470588 -0.00362404 -0.00278607 -0.000761906 -0.00368345 -0.00356863 -0.00330159
internal_weight=1065 123 89 942 143 81 64 56 799 151 50 648 200 62 138 101 62
internal_count=1065 123 89 942 143 81 64 56 799 151 50 648 200 62 138 101 62
is_linear=0
shrinkage=0.04


Tree=9
num_leaves=16
num_cat=0
split_feature=0 17 4 16 14 2 19 2 8 3 16 11 11 0 2
split_gain=17.6081 7.48367 2.77469 2.66429 2.58969 5.30933 1.61604 0.902185 0.363324 1.18 0.10859 0.0939444 0.254443 0.0279211 0.018449
threshold=11.65 0.12940952255126045 9.8500000000000032 137.50000000000003 153.50000000000003 6.3500000000000005 1.0000000180025095e-35 8.9500000000000011 11.050000000000002 4.4500000000000011 57.500000000000007 11.750000000000002 13.350000000000003 4.9500000000000011 5.6500000000000012
decision_type=2 2 2 2 2 2 2 2 2 2 2 2 2 2 2
left_child=2 6 8 -3 5 -4 -2 -7 11 -10 -11 -1 -13 -14 -6
right_child=1 3 4 -5 14 7 -8 -9 9 10 -12 12 13 -15 -16
leaf_value=-0.11054978348404612 -0.099539453985944812 0.16845426502600941 0.12941307822318193 0.27018388021384665 -0.17019303471494951 0.072332996510129671 0.2281787689163963 -0.067731867488811257 0.058297539973932853 -0.014459147667673198 -0.047438122058299115 -0.019562565433631173 -0.10450902731459411 -0.1413338876322158 -0.15672100474972869
leaf_weight=461 35 46 25 26 40 28 28 32 28 27 85 41 113 25 25
leaf_count=461 35 46 25 26 40 28 28 32 28 27 85 41 113 25 25
internal_value=-0.000356474 0.0130882 -0.00232009 0.0218082 0.00264901 0.0072093 0.0029375 0.000655737 -0.00327785 -0.00141844 -0.00325664 -0.00368175 -0.00286667 -0.00368345 -0.00333333
internal_weight=1065 135 930 72 150 85 63 60 780 140 112 640 179 138 65
internal_count=1065 135 930 72 150 85 63 60 780 140 112 640 179 138 65
is_linear=0
shrinkage=0.04


Tree=10
num_leaves=15
num_cat=0
split_feature=0 16 18 4 13 18 8 3 12 16 16 11 8 11
split_gain=15.6691 4.36507 3.76134 2.71972 2.99827 3.10614 0.979932 2.2971 0.916456 0.47713 0.434181 0.107518 0.233479 0.128202
threshold=12.500000000000002 57.500000000000007 -0.12940952255126037 9.9500000000000011 9.3500000000000032 0.25881904510252057 11.050000000000002 4.4500000000000011 63.500000000000007 52.500000000000007 517.50000000000011 11.750000000000002 8.6500000000000004 12.950000000000001
decision_type=2 2 2 2 2 2 2 2 2 2 2 2 2 2
left_child=3 -2 8 6 5 -5 11 -8 -3 -9 -6 -1 13 -13
right_child=1 2 -4 4 10 -7 7 9 -10 -11 -12 12 -14 -15
leaf_value=-0.10695868705483888 0.13033445561905999 -0.016405096905571032 0.25937652500529285 -0.010658526464449694 0.010779170771103968 0.13205465981540224 0.060104745394790299 0.0025626977920432132 0.052244024717038366 -0.049478350041215757 -0.022593960048497876 -0.035917536207148243 -0.0089570090025682635 -0.086676181338247976
leaf_weight=483 27 26 26 26 25 35 33 26 30 97 57 25 25 114
leaf_count=483 27 26 26 26 25 35 33 26 30 97 57 25 25 114
internal_value=-0.000435607 0.0138545 0.00906024 -0.00209504 0.00297222 0.0096129 -0.003 -0.000152867 0.00308772 -0.00267742 -0.0020241 -0.00368519 -0.00276364 -0.0034
internal_weight=1055 109 82 946 143 61 803 156 56 123 82 647 164 139
internal_count=1055 109 82 946 143 61 803 156 56 123 82 647 164 139
is_linear=0
shrinkage=0.04


Tree=11
num_leaves=15
num_cat=0
split_feature=0 17 4 13 18 0 8 3 13 14 11 8 11 0
split_gain=13.5988 5.06376 2.4293 2.67542 2.73732 1.55372 1.19737 2.17116 1.17713 0.347988 0.290453 0.655244 0.128861 0.0325976
threshold=12.500000000000002 0.12940952255126045 9.9500000000000011 9.3500000000000032 0.25881904510252057 16.050000000000004 13.250000000000002 5.9500000000000011 9.1500000000000004 109.50000000000001 11.750000000000002 8.9500000000000011 12.950000000000001 9.6500000000000004
decision_type=2 2 2 2 2 2 2 2 2 2 2 2 2 2
left_child=2 8 6 4 -4 -3 10 -8 -2 -5 13 12 -12 -1
right_child=1 5 3 9 -6 -7 7 -9 -10 -11 11 -13 -14 -15
leaf_value=-0.10280955848394524 0.21062814748440542 0.08456550980833058 -0.01023218540587169 0.0048680775710717075 0.12677247342278614 0.24980146724757454 0.087769622946221815 -0.047801224348853727 -0.062053783070982929 -0.16038140964704453 -0.034480834758862343 0.004168157127670765 -0.073907986550171403 -0.01753645587109506
leaf_weight=514 26 32 26 29 35 25 26 49 26 53 25 46 117 26
leaf_count=514 26 32 26 29 35 25 26 49 26 53 25 46 117 26
internal_value=-0.000549243 0.0127636 -0.00209504 0.00269444 0.00896774 0.0208966 -0.00295025 0.0018421 0.00362264 -0.0020241 -0.00344582 -0.00207408 -0.00341259 -0.00391867
internal_weight=1055 109 946 143 61 57 803 75 52 82 728 188 142 540
internal_count=1055 109 946 143 61 57 803 75 52 82 728 188 142 540
is_linear=0
shrinkage=0.04


Tree=12
num_leaves=17
num_cat=0
split_feature=0 13 5 4 13 18 8 8 19 10 6 13 16 5 8 8
split_gain=11.2274 5.10887 5.52798 2.69047 2.34177 2.83102 1.98269 0.538892 0.779969 0.636689 0.357501 0.208009 0.0413705 0.094995 0.0102075 0.0144759
threshold=11.65 9.2500000000000018 11.050000000000002 9.9500000000000011 9.3500000000000032 0.37940952255126048 21.150000000000002 11.050000000000002 -0.8783796973249266 10.750000000000002 6.541666666666667 2.9500000000000006 2152.5000000000005 2.9500000000000006 9.6500000000000004 10.350000000000003
decision_type=2 2 2 2 2 2 2 2 2 2 2 2 2 2 2 2
left_child=3 2 6 7 5 -5 -2 11 -9 -10 -6 -1 14 -14 -13 -16
right_child=1 -3 -4 4 10 -7 -8 8 9 -11 -12 12 13 -15 15 -17
leaf_value=-0.02519644054749097 0.11772296022501794 -0.0016775009225947638 0.014840687743352652 -0.0078310326436736351 0.00085040578518264139 0.11960490587444694 0.23740939883019138 0.049133262290232453 -0.064540256779841904 0.013310954177499256 -0.035096341183361128 -0.10570181097816503 -0.098870916815583257 -0.024244983587585717 -0.052393459652108114 -0.06614684329999207
leaf_weight=36 29 38 32 26 37 32 28 25 88 29 44 491 42 25 25 28
leaf_count=36 29 38 32 26 37 32 28 25 88 29 44 491 42 25 25 28
internal_value=-0.000700759 0.0104062 0.0156 -0.00223036 0.00288571 0.00894915 0.0229655 -0.00313418 -0.000895106 -0.00227119 -0.0015122 -0.00362346 -0.00379739 -0.00276471 -0.00391927 -0.00318519
internal_weight=1055 127 89 928 139 58 57 789 142 117 81 647 611 67 544 53
internal_count=1055 127 89 928 139 58 57 789 142 117 81 647 611 67 544 53
is_linear=0
shrinkage=0.04


Tree=13
num_leaves=16
num_cat=0
split_feature=0 13 5 4 13 17 8 8 2 4 2 12 12 10 1
split_gain=9.18489 4.1229 4.50243 2.73585 2.34177 2.49977 2.31362 0.460556 0.357501 0.327862 0.542239 0.0907248 0.37185 0.0262597 0.0243735
threshold=11.65 9.2500000000000018 10.950000000000001 9.9500000000000011 9.3500000000000032 -0.60355339059327362 21.450000000000003 14.050000000000002 6.1500000000000012 8.7500000000000018 5.2500000000000009 36.500000000000007 33.500000000000007 2.7500000000000004 9.8500000000000032
decision_type=2 2 2 2 2 2 2 2 2 2 2 2 2 2 2
left_child=3 2 6 7 5 -5 -2 9 -6 11 -11 12 13 -1 -13
right_child=1 -3 -4 4 8 -7 -8 -9 -10 10 -12 14 -14 -15 -16
leaf_value=-0.091860093169193052 0.11301404181601721 -0.0016104008856909682 0.014197985901647909 -0.021809101025744286 0.00081638955377532024 0.11949831641193084 0.22871302611947714 0.042398021502925334 -0.033692487536026654 0.038375216744866096 -0.075270202639007369 -0.099817721626222725 0.0040459837000491163 -0.034602236723154836 -0.010005576799070938
leaf_weight=113 29 38 33 28 37 30 27 40 44 25 32 490 31 26 32
leaf_count=113 29 38 33 28 37 30 27 40 44 25 32 490 31 26 32
internal_value=-0.000890152 0.00915625 0.0138222 -0.00227341 0.00288571 0.00894915 0.0206316 -0.00318481 -0.0015122 -0.003408 -0.00048276 -0.00364791 -0.00280702 -0.00368572 -0.00391587
internal_weight=1055 127 89 928 139 58 56 789 81 749 57 692 170 139 522
internal_count=1055 127 89 928 139 58 56 789 81 749 57 692 170 139 522
is_linear=0
shrinkage=0.04


Tree=14
num_leaves=16
num_cat=0
split_feature=0 13 13 7 18 11 8 11 3 11 17 11 7 8 14
split_gain=9.04708 4.1229 2.99468 1.71567 1.99485 1.44202 1.13985 0.427887 0.890523 0.38819 0.575772 0.806549 0.412605 0.0635506 0.0782935
threshold=11.65 9.2500000000000018 6.0500000000000007 8.3125000000000018 0.78656609248549303 9.0500000000000025 13.550000000000002 8.4500000000000011 13.550000000000002 11.750000000000002 -0.37940952255126065 13.350000000000003 6.1812500000000012 11.250000000000002 122.50000000000001
decision_type=2 2 2 2 2 2 2 2 2 2 2 2 2 2 2
left_child=3 2 -2 6 7 -4 9 -5 -9 13 -11 -12 -13 -1 -15
right_child=1 -3 5 4 -6 -7 -8 8 -10 10 11 12 -14 14 -16
leaf_value=-0.090993265864417222 0.1740000901593006 -0.0015459848502633558 0.078362465105624751 -0.082745687586193772 0.10978839057728786 0.21796449858971131 0.04421827330530187 0.063586656824839369 -0.15664281413497147 -0.1419668876739073 0.0061421435418804026 -0.030514533232674074 0.019402732713682539 -0.080792545249294842 -0.0037155043798479752
leaf_weight=488 31 38 29 53 48 29 34 27 28 96 27 49 25 28 25
leaf_count=488 31 38 29 53 48 29 34 27 28 96 27 49 25 28 25
internal_value=-0.000814395 0.00915625 0.0138222 -0.0021873 0.00163057 0.0191186 -0.0029599 -0.0013945 0.00107143 -0.00329093 -0.00175758 0.00035294 -0.00181333 -0.00384502 -0.00244445
internal_weight=1055 127 89 928 156 58 772 108 55 738 197 101 74 541 53
internal_count=1055 127 89 928 156 58 772 108 55 738 197 101 74 541 53
is_linear=0
shrinkage=0.04


Tree=15
num_leaves=15
num_cat=0
split_feature=8 11 5 12 4 13 8 9 2 4 8 7 13 1
split_gain=8.13331 4.84268 4.94007 4.26331 1.78291 2.53486 1.6698 0.684551 0.307315 0.115205 0.031942 0.100225 0.0339363 0.102221
threshold=13.250000000000002 7.1500000000000012 11.050000000000002 52.500000000000007 8.7500000000000018 9.4500000000000011 6.4500000000000011 70.500000000000014 13.450000000000001 14.400000000000002 11.050000000000002 5.7458333333333345 15.850000000000003 2.1500000000000008
decision_type=2 2 2 2 2 2 2 2 2 2 2 2 2 2
left_child=4 7 3 -3 10 6 -6 -2 -4 -7 12 -12 -1 -14
right_child=1 2 8 -5 5 9 -8 -9 -10 -11 11 -13 13 -15
leaf_value=-0.086965115717015026 0.048530464537493601 0.093517227142435738 0.011366906520082699 0.16080929476891229 -0.046306838933353127 -0.080368832495615994 0.080172091011788821 -0.040642841006473224 -0.056753451361794965 -0.0019180526205104739 -0.00714151157107754 -0.10125389810161553 -0.16788975852757951 -0.040191357606709305
leaf_weight=513 25 33 25 47 26 73 39 59 25 25 25 48 59 26
leaf_count=513 25 33 25 47 26 73 39 59 25 25 25 48 59 26
internal_value=-0.00106006 0.00587907 0.010687 0.0167901 -0.00284551 0.000902438 0.0069697 -0.0016 0.000784313 -0.00315152 -0.00375595 -0.00286487 -0.00385977 -0.00302326
internal_weight=1048 214 130 80 834 163 65 84 50 98 671 73 598 85
internal_count=1048 214 130 80 834 163 65 84 50 98 671 73 598 85
is_linear=0
shrinkage=0.04


Tree=16
num_leaves=15
num_cat=0
split_feature=0 0 3 11 4 5 11 12 18 8 17 12 12 10
split_gain=9.03427 3.10946 3.32063 3.96039 1.24413 1.14484 1.29536 1.45941 1.50339 0.129189 0.120849 0.0304843 0.0766688 0.0263202
threshold=14.850000000000003 9.6500000000000004 9.3500000000000032 7.1500000000000012 8.7500000000000018 6.7500000000000009 8.4500000000000011 31.500000000000004 0.78656609248549303 13.050000000000002 -0.25881904510252113 36.500000000000007 33.500000000000007 2.7500000000000004
decision_type=2 2 2 2 2 2 2 2 2 2 2 2 2 2
left_child=1 4 3 -3 9 6 -6 -8 -9 11 -4 12 13 -1
right_child=-2 2 10 -5 5 -7 7 8 -10 -11 -12 -13 -14 -15
leaf_value=-0.097440794378272508 0.1691492178511432 -0.0057482678219758282 -0.14838576854779442 0.11214752836252663 -0.093845251898435053 -0.018640282723862846 -0.021302859634144938 0.048971399196553141 0.10368095984345713 -0.0048368714860011356 -0.0036485702598277599 -0.097474763063496422 -0.012383406380857376 -0.027309385201680844
leaf_weight=114 48 37 44 43 33 68 25 25 25 26 38 464 32 26
leaf_count=114 48 37 44 43 33 68 25 25 25 26 38 464 32 26
internal_value=-0.00109819 -0.00191808 0.0031411 0.00888889 -0.00289869 9.03945e-05 0.0026422 0.00552631 0.00941176 -0.00369231 -0.00250603 -0.00380534 -0.00328324 -0.00368794
internal_weight=1048 1000 162 80 838 176 108 75 50 662 82 636 172 140
internal_count=1048 1000 162 80 838 176 108 75 50 662 82 636 172 140
is_linear=0
shrinkage=0.04


Tree=17
num_leaves=16
num_cat=0
split_feature=0 0 20 17 5 4 13 13 9 4 0 11 11 11 6
split_gain=7.43492 2.53479 2.36123 3.60833 1.50185 1.35629 1.17489 0.450465 0.648987 0.236599 0.0675835 0.242596 0.0287423 0.304453 0.0197136
threshold=14.850000000000003 9.6500000000000004 1.0000000180025095e-35 -0.25881904510252113 8.8500000000000032 8.7500000000000018 6.0500000000000007 11.950000000000001 101.50000000000001 4.6500000000000012 8.0500000000000025 5.6500000000000012 11.750000000000002 12.450000000000001 5.5333333333333341
decision_type=2 2 2 2 2 2 2 2 2 2 2 2 2 2 2
left_child=1 5 9 -4 -5 10 -7 8 -8 -3 12 -12 -1 -14 -9
right_child=-2 2 3 4 -6 6 7 14 -10 -11 11 -13 13 -15 -16
leaf_value=-0.09937161329904072 0.16238324913709751 0.017126791607740586 -0.14413461085570656 0.11438521137439754 0.026494273781013652 0.070658103641737149 -0.014022189593972709 -0.2021126764270105 0.078302609993688196 -0.052562159143950675 -0.038029556857632818 -0.0006595050102756742 0.002649402964563629 -0.1040052360871479 -0.034290070292152974
leaf_weight=408 48 25 30 28 27 26 45 25 35 52 56 25 25 148 45
leaf_count=408 48 25 30 28 27 26 45 25 35 52 56 25 25 148 45
internal_value=-0.00117445 -0.00191808 0.00265031 0.0072093 0.0132143 -0.00280334 0.000316383 -0.0010596 0.000987653 -0.00241026 -0.00363198 -0.00248781 -0.00378694 -0.00328736 -0.00338028
internal_weight=1048 1000 162 85 55 838 176 150 80 77 662 81 581 173 70
internal_count=1048 1000 162 85 55 838 176 150 80 77 662 81 581 173 70
is_linear=0
shrinkage=0.04


Tree=18
num_leaves=15
num_cat=0
split_feature=0 8 3 20 7 5 7 11 11 8 20 16 17 9
split_gain=7.36074 2.34331 3.1454 2.83999 1.02048 1.78103 0.713827 0.257622 0.396745 0.244616 0.150348 0.0511593 0.0825595 0.0338907
threshold=14.850000000000003 13.250000000000002 9.1500000000000004 1.0000000180025095e-35 8.1500000000000021 4.3500000000000005 10.808333333333335 11.750000000000002 12.950000000000001 8.1500000000000004 1.0000000180025095e-35 32.500000000000007 0.60355339059327384 62.500000000000007
decision_type=2 2 2 2 2 2 2 2 2 2 2 2 2 2
left_child=1 4 3 -3 7 -6 -7 11 -9 -10 -4 12 -1 -13
right_child=-2 2 10 -5 5 6 -8 8 9 -11 -12 13 -14 -15
leaf_value=-0.028596740725481122 0.15588791917161357 0.010497665814407864 -0.070844799177531184 0.10011336782756328 0.079487812154377072 -0.12234061940009305 0.012827350572951484 0.003851317362647981 -0.087784402552046545 -0.0060529936621640289 -0.004433937834613105 -0.026230545323886294 -0.019384344278705098 -0.087124298751528495
leaf_weight=31 48 37 54 40 25 68 25 46 116 46 35 25 25 427
leaf_count=31 48 37 54 40 25 68 25 46 116 46 35 25 25 427
internal_value=-0.00109819 -0.00183816 0.00249102 0.00835897 -0.0027018 0.000739495 -0.00182979 -0.00326918 -0.00206699 -0.00299387 -0.00262222 -0.00375639 -0.00252632 -0.00390287
internal_weight=1048 1000 166 77 834 118 93 716 208 162 89 508 56 452
internal_count=1048 1000 166 77 834 118 93 716 208 162 89 508 56 452
is_linear=0
shrinkage=0.04


Tree=19
num_leaves=17
num_cat=0
split_feature=0 8 2 4 4 13 18 7 2 16 8 12 6 0 1 4
split_gain=7.36074 2.09086 2.94212 1.74444 1.39204 1.39004 1.44451 0.316199 0.251392 0.086953 0.153289 0.0569316 0.11124 0.382531 0.0187169 0.0146725
threshold=14.850000000000003 13.250000000000002 7.0500000000000007 4.6500000000000012 8.7500000000000018 9.4500000000000011 0.60355339059327384 11.352083333333335 5.1500000000000012 52.500000000000007 10.350000000000003 35.500000000000007 3.308333333333334 3.7500000000000004 5.2500000000000009 0.75000000000000011
decision_type=2 2 2 2 2 2 2 2 2 2 2 2 2 2 2 2
left_child=1 4 -3 -4 9 6 -6 -5 -7 10 14 12 -11 -14 -1 -13
right_child=-2 2 3 7 5 8 -8 -9 -10 11 -12 15 13 -15 -16 -17
leaf_value=-0.024434069279520344 0.14965240240474895 0.092397082336868816 0.094556318781837206 -0.04187483944873429 -0.002412873986378183 -0.014894205476326928 0.07199099310776555 -0.00024703374472525268 -0.02526940018162956 -0.12026733690387083 -0.001510964915964984 -0.25425749702388895 0.0028171086328903634 -0.053406160441261265 -0.034178810494817212 -0.11558343043059865
leaf_weight=25 48 25 33 74 30 38 35 34 60 81 29 43 26 46 41 380
leaf_count=25 48 25 33 74 30 38 35 34 60 81 29 43 26 46 41 380
internal_value=-0.00109819 -0.00183816 0.0022515 -2.817e-05 -0.00265389 0.000658536 0.00515151 -0.00249541 -0.00234344 -0.00345833 -0.00229167 -0.00364645 -0.00293507 -0.00175343 -0.00334328 -0.00389623
internal_weight=1048 1000 166 141 834 163 65 108 98 671 95 576 153 72 66 423
internal_count=1048 1000 166 141 834 163 65 108 98 671 95 576 153 72 66 423
is_linear=0
shrinkage=0.04


Tree=20
num_leaves=15
num_cat=0
split_feature=0 5 11 11 13 7 3 7 6 6 12 7 10 10
split_gain=7.99802 3.843 6.05094 1.59075 1.63785 2.10301 1.55539 2.68197 0.383681 0.989477 0.464653 0.664523 0.137291 0.389056
threshold=12.100000000000001 10.750000000000002 7.1500000000000012 8.5500000000000025 8.9500000000000011 8.1500000000000021 4.6500000000000012 4.8145833333333341 3.1250000000000004 3.7916666666666674 46.500000000000007 7.5062500000000014 9.7500000000000018 10.850000000000003
decision_type=2 2 2 2 2 2 2 2 2 2 2 2 2 2
left_child=3 2 -2 12 5 6 7 -5 -6 -10 -11 -12 -1 -14
right_child=1 -3 -4 4 8 -7 -8 -9 9 10 11 -13 13 -15
leaf_value=-0.099364894325877806 0.0037416629257490527 -0.0030089781812089145 0.18667632285263594 -0.082273302324494979 -0.14926145927307885 0.094193598164672099 -0.082718977065101854 0.040601686796818852 0.012298635152178373 -0.018501127342105708 -0.018693436797670611 0.013529306867918178 0.0023147457424107067 -0.028967861569509524
leaf_weight=409 30 43 39 29 113 32 62 33 28 97 38 25 28 64
leaf_count=409 30 43 39 29 113 32 62 33 28 97 38 25 28 64
internal_value=-0.000933708 0.00913274 0.0149143 -0.00211887 -0.000410481 0.00290446 0.000511999 0.00495238 -0.00213245 -0.00101587 -0.00223603 0.000437499 -0.00367331 -0.00223656
internal_weight=1070 112 69 958 457 156 124 62 301 188 160 63 501 92
internal_count=1070 112 69 958 457 156 124 62 301 188 160 63 501 92
is_linear=0
shrinkage=0.04


Tree=21
num_leaves=16
num_cat=0
split_feature=8 8 20 7 11 7 13 8 6 3 2 10 10 18 11
split_gain=8.66288 1.66617 2.02292 2.85872 1.0342 1.365 2.25297 0.543102 1.43353 0.455933 0.336682 0.166968 0.399996 0.153637 0.577479
threshold=21.450000000000003 13.250000000000002 1.0000000180025095e-35 9.4458333333333346 9.1500000000000004 7.5750000000000002 9.2500000000000018 8.1500000000000004 5.2250000000000005 6.5500000000000007 5.8500000000000005 9.5500000000000025 11.050000000000002 0.78656609248549303 13.950000000000001
decision_type=2 2 2 2 2 2 2 2 2 2 2 2 2 2 2
left_child=1 4 9 -4 11 7 -7 13 -9 -3 -8 -1 -13 -6 -15
right_child=-2 2 3 -5 5 6 10 8 -10 -11 -12 12 -14 14 -16
leaf_value=-0.11170341189024285 0.1730635915539385 0.015572255929287215 0.089541416175666799 -0.0027740735510878491 -0.15133541511655876 0.090356936156245168 0.0040760856244430703 0.021952602334467577 -0.017948322824124098 -0.047635811155865508 -0.012680143919840417 0.00091270682351134158 -0.025173136095113808 0.0094218747336773396 -0.044258498211604269
leaf_weight=390 45 25 39 46 131 28 25 25 49 67 30 26 52 29 63
leaf_count=390 45 25 39 46 131 28 25 25 49 67 30 26 52 29 63
internal_value=-0.000896359 -0.00165692 0.00186517 0.00627907 -0.0023934 -0.000839896 0.00366667 -0.00210738 0.000853332 -0.00223656 -0.00107143 -0.00365032 -0.00192405 -0.00308929 -0.00180645
internal_weight=1070 1025 177 85 848 380 83 297 74 92 55 468 78 223 92
internal_count=1070 1025 177 85 848 380 83 297 74 92 55 468 78 223 92
is_linear=0
shrinkage=0.04


Tree=22
num_leaves=17
num_cat=0
split_feature=8 10 5 4 12 11 8 2 4 8 20 12 6 1 4 10
split_gain=9.2015 1.72737 1.40686 1.24812 1.42988 4.05938 0.67945 1.19239 0.605205 0.260824 0.429164 0.178766 0.37698 1.23851 0.100225 0.0334712
threshold=20.900000000000002 15.750000000000002 10.050000000000002 9.8500000000000032 46.500000000000007 9.1500000000000004 8.9500000000000011 5.7500000000000009 2.7500000000000004 15.250000000000002 1.0000000180025095e-35 35.500000000000007 3.308333333333334 3.5500000000000003 12.500000000000002 9.7500000000000018
decision_type=2 2 2 2 2 2 2 2 2 2 2 2 2 2 2 2
left_child=1 3 -2 6 14 -6 11 -8 -9 -10 -11 12 -1 -14 -5 -13
right_child=2 -3 -4 4 5 -7 7 8 9 10 -12 15 13 -15 -16 -17
leaf_value=-0.10399202331147857 0.19021429993918515 0.032889275240631337 0.062691504800347062 -0.0022751769061387182 -0.068320373826988412 0.086731172331072151 0.023619165965640385 0.0014372117235902746 -0.063807220620056448 -0.036880151575090857 0.019546990763416133 -0.14068830542502994 0.010073667407101215 -0.046000257128842564 -0.03385947006665576 -0.020474321928580889
leaf_weight=93 25 25 25 25 48 39 44 36 136 34 30 365 25 47 48 25
leaf_count=93 25 25 25 25 48 39 44 36 136 34 30 365 25 47 48 25
internal_value=-0.000896359 -0.0017238 0.0156863 -0.00198795 0.00124224 0.00468182 -0.00260766 -0.000996442 -0.00212658 -0.00298508 -0.000861539 -0.00341727 -0.00228916 -0.00010959 -0.00286487 -0.00388747
internal_weight=1070 1020 50 995 160 87 835 280 236 200 64 555 165 72 73 390
internal_count=1070 1020 50 995 160 87 835 280 236 200 64 555 165 72 73 390
is_linear=0
shrinkage=0.04


Tree=23
num_leaves=18
num_cat=0
split_feature=0 0 11 13 20 18 6 6 19 4 2 10 11 3 7 0 0
split_gain=7.48543 2.30452 3.24239 2.0918 2.63539 1.4932 1.92851 1.97027 1.15215 0.550858 0.637402 0.457822 0.393456 0.496546 0.0272548 0.0208135 0.0169802
threshold=16.450000000000003 9.6500000000000004 4.8500000000000005 9.5500000000000025 1.0000000180025095e-35 0.60355339059327384 3.1250000000000004 3.8750000000000004 -0.8783796973249266 9.8500000000000032 6.8500000000000005 8.8500000000000032 6.0500000000000007 3.8500000000000001 5.0000000000000009 10.15 7.9500000000000011
decision_type=2 2 2 2 2 2 2 2 2 2 2 2 2 2 2 2 2
left_child=1 5 15 4 -4 11 14 -8 -9 -10 -11 -1 16 -14 -7 -3 -13
right_child=-2 2 3 -5 -6 6 7 8 9 10 -12 12 13 -15 -16 -17 -18
leaf_value=-0.14369393925171611 0.12526897040558682 -0.025248602219335853 0.00071385899685855506 -0.020603086531707903 0.12888237634575292 -0.084569876983476316 0.01849336833561303 0.073553729307067175 -0.034004206104119555 0.016284054823700458 -0.02141467094182696 -0.019655349051437621 -0.045551694186898806 0.0032975637049897557 -0.067430370676890825 -0.029312184758417754 -0.030216420240498604
leaf_weight=444 35 25 28 30 42 103 37 26 57 28 29 25 26 25 25 50 35
leaf_count=444 35 25 28 30 42 103 37 26 57 28 29 25 26 25 25 50 35
internal_value=-0.000709618 -0.00133205 0.00284091 0.00752475 0.0112676 -0.00218351 6.53585e-05 0.00276404 0.000567375 -0.00118261 0.00158621 -0.00341727 -0.00110714 0.00146154 -0.00365892 -0.00342105 -0.00327869
internal_weight=1070 1035 175 100 70 860 305 177 140 114 57 555 111 51 128 75 60
internal_count=1070 1035 175 100 70 860 305 177 140 114 57 555 111 51 128 75 60
is_linear=0
shrinkage=0.04


Tree=24
num_leaves=17
num_cat=0
split_feature=8 0 3 11 18 13 4 9 11 10 11 20 2 0 13 0
split_gain=7.5834 1.89345 2.77046 3.05542 1.19783 1.31802 1.44045 0.882106 0.364974 0.359837 0.407279 0.321365 1.20352 0.299434 0.380941 0.0175953
threshold=21.450000000000003 9.6500000000000004 7.5500000000000007 7.1500000000000012 0.37940952255126048 8.6500000000000004 8.7500000000000018 96.500000000000014 5.1500000000000012 9.5500000000000025 6.0500000000000007 -0.56174490092936669 2.8500000000000001 5.5500000000000007 11.950000000000001 12.350000000000003
decision_type=2 2 2 2 2 2 2 2 2 2 2 2 2 2 2 2
left_child=1 4 3 -3 9 6 7 -6 15 -1 -11 12 -7 -13 -15 -4
right_child=-2 2 8 -5 5 11 -8 -9 -10 10 -12 13 -14 14 -16 -17
leaf_value=-0.14541489698667062 0.15352171707799017 -0.0092224537595660388 -0.064238516629523151 0.070355490130127069 0.0059109772161948151 -0.14062721038555201 0.058834657142655358 -0.06560832808241493 0.017165786347392745 -0.027218084517377745 0.00055270764070931909 -0.063213434033686483 0.006564269700321276 0.0058059851289320357 -0.015069406108405983 -0.0070731713637024983
leaf_weight=391 45 26 37 33 25 52 43 43 44 40 42 129 38 30 27 25
leaf_count=391 45 26 37 33 25 52 43 43 44 40 42 129 38 30 27 25
internal_value=-0.00067227 -0.00138402 0.00253012 0.0094 -0.00213705 -0.000484537 0.00317857 -0.000463769 -0.0013458 -0.00348523 -0.00106024 -0.0019639 -9.43194e-10 -0.00290909 -0.00048276 -0.00330159
internal_weight=1070 1025 165 59 860 387 111 68 106 473 82 276 90 186 57 62
internal_count=1070 1025 165 59 860 387 111 68 106 473 82 276 90 186 57 62
is_linear=0
shrinkage=0.04


Tree=25
num_leaves=18
num_cat=0
split_feature=8 8 17 20 7 4 13 9 10 10 18 3 18 6 4 10 1
split_gain=6.32833 2.81989 2.79542 4.02221 3.70794 1.1969 1.17202 1.41283 0.403936 0.608677 0.346731 0.331235 0.15979 0.465214 1.41427 0.107285 0.018449
threshold=22.950000000000006 13.550000000000002 -1.0000000180025095e-35 1.0000000180025095e-35 9.4458333333333346 8.7500000000000018 9.4500000000000011 99.500000000000014 8.8500000000000032 10.850000000000003 0.78656609248549303 7.0500000000000007 0.37940952255126048 3.308333333333334 5.4500000000000011 14.200000000000001 14.15
decision_type=2 2 2 2 2 2 2 2 2 2 2 2 2 2 2 2 2
left_child=1 5 16 11 -5 8 7 -7 12 -10 -8 -4 -1 -14 -15 -11 -3
right_child=-2 2 3 4 -6 6 10 -9 9 15 -12 -13 13 14 -16 -17 -18
leaf_value=-0.16087338200652063 0.17628544496095916 -0.087653054522907364 0.01776892624652214 0.087452992824523734 0.052198073152876945 -0.018691084063540222 -0.096227493273591924 0.056074214013421698 0.0042377055087093165 -0.018097144116652249 6.2095486668730146e-06 -0.049960327791802123 -0.075067743092815109 0.0076397475266088127 -0.041666329307475082 -0.022011616633898768 -0.107562114246849
leaf_weight=328 26 40 25 27 35 31 57 36 48 58 41 29 142 29 56 25 25
leaf_count=328 26 40 25 27 35 31 57 36 48 58 41 29 142 29 56 25 25
internal_value=-0.000747876 -0.00124685 0.00327472 0.00697436 0.0138413 -0.00221127 0.000843373 0.00488235 -0.00294614 -0.000939395 -0.00193939 -0.00101818 -0.00341727 -0.00257895 -0.000232559 -0.003 -0.00333333
internal_weight=1058 1032 181 116 62 851 165 67 686 131 98 54 555 227 85 83 65
internal_count=1058 1032 181 116 62 851 165 67 686 131 98 54 555 227 85 83 65
is_linear=0
shrinkage=0.04


Tree=26
num_leaves=18
num_cat=0
split_feature=8 5 18 6 12 18 11 10 13 16 2 10 7 9 6 2 5
split_gain=4.8326 4.01594 1.35413 2.30534 1.75497 1.83406 1.85767 1.20632 0.892206 0.698183 0.554663 0.367134 0.419002 0.142782 0.134192 0.0985781 0.0181731
threshold=18.250000000000004 8.7500000000000018 0.25881904510252057 3.308333333333334 32.500000000000007 0.78656609248549303 9.5500000000000025 14.200000000000001 8.2500000000000018 137.50000000000003 5.2500000000000009 9.5500000000000025 5.5083333333333337 90.500000000000014 2.9250000000000003 4.2500000000000009 8.5500000000000025
decision_type=2 2 2 2 2 2 2 2 2 2 2 2 2 2 2 2 2
left_child=2 -2 7 14 15 8 -7 11 10 -3 -6 -1 -13 -10 -4 -5 -14
right_child=1 9 3 4 5 6 -8 -9 13 -11 -12 12 16 -15 -16 -17 -18
leaf_value=-0.13615929789691567 0.16733058552874519 0.026624951559317069 -0.084397035973359791 -0.0092767922594813711 -0.0047983736524392787 -0.019916087604292455 0.074944706507863876 0.0026456304308451373 -0.00028006759339524657 -0.039752951870640964 0.026228526097165829 0.0021586734803937151 -0.039559887926850903 -0.051016597392205834 -0.0017959703349375059 -0.03194588296539385 -0.021676930366157067
leaf_weight=406 32 27 147 25 25 25 45 33 30 30 27 41 39 30 25 46 25
leaf_count=406 32 27 147 25 25 25 45 33 30 30 27 41 39 30 25 46 25
internal_value=-0.000823419 0.00804444 -0.00164536 4.69474e-05 0.00247244 0.00454645 0.00957746 -0.00296514 0.00134513 0.00158621 0.00513207 -0.00344531 -0.00132076 -0.00196721 -0.00351445 -0.00283333 -0.00332308
internal_weight=1058 89 969 425 253 182 70 544 112 57 52 511 105 60 172 71 64
internal_count=1058 89 969 425 253 182 70 544 112 57 52 511 105 60 172 71 64
is_linear=0
shrinkage=0.04


Tree=27
num_leaves=19
num_cat=0
split_feature=0 11 4 18 6 19 12 13 13 10 16 11 16 13 19 17 0 0
split_gain=4.49523 2.53088 2.50424 0.935054 1.69103 1.27387 1.14928 1.03663 1.04485 0.440284 0.483577 0.325206 0.193223 0.133886 0.0427224 0.0959296 0.018449 0.0152539
threshold=10.450000000000001 10.850000000000003 4.5500000000000007 0.37940952255126048 2.9250000000000003 1.0000000180025095e-35 28.500000000000004 10.050000000000002 5.4500000000000011 8.8500000000000032 142.50000000000003 7.9500000000000011 737.50000000000011 7.5500000000000007 0.87837969732492682 -0.5 4.2500000000000009 14.050000000000002
decision_type=2 2 2 2 2 2 2 2 2 2 2 2 2 2 2 2 2 2
left_child=3 2 -2 9 -5 6 -6 8 -8 14 13 17 -7 -11 -1 -16 -14 -4
right_child=1 -3 11 4 5 12 7 -9 -10 10 -12 -13 16 -15 15 -17 -18 -19
leaf_value=-0.13389815775181707 0.074963815752372015 0.14604667708762617 -0.076179138572955635 -0.070552183516571068 -0.068753614182450656 -0.0044224061717828391 0.032030513352823531 0.0019187949436524148 0.052756788550006359 -0.024629892339836475 0.0034889165583592043 0.0023658562868105518 -0.036713913010007967 -0.0074665686225969096 -0.03864947647624048 -0.16139978510364955 -0.013578594545150558 -0.020055931996749449
leaf_weight=324 33 43 30 141 33 25 32 47 36 50 34 35 25 37 25 43 40 25
leaf_count=324 33 43 30 141 33 25 32 47 36 50 34 35 25 37 25 43 40 25
internal_value=-0.000898962 0.00512575 0.00216129 -0.00202464 -0.00051579 0.00153975 0.00381208 0.00568965 0.00881159 -0.00313619 -0.00101639 -0.00131868 -0.0021978 -0.00259091 -0.00378626 -0.00278261 -0.00333333 -0.00321429
internal_weight=1058 166 123 892 379 238 148 115 68 513 121 90 90 87 392 68 65 55
internal_count=1058 166 123 892 379 238 148 115 68 513 121 90 90 87 392 68 65 55
is_linear=0
shrinkage=0.04


Tree=28
num_leaves=18
num_cat=0
split_feature=8 5 4 7 18 8 14 2 4 16 20 18 6 4 7 11 5
split_gain=4.55759 3.47978 1.16839 1.42668 2.55937 0.816619 1.23101 1.16764 1.2087 0.698183 0.443481 0.121893 0.48955 1.39611 0.10601 0.0326326 0.0267235
threshold=18.250000000000004 8.7500000000000018 9.8500000000000032 9.4291666666666689 0.60355339059327384 8.6500000000000004 124.50000000000001 6.1500000000000012 2.6500000000000008 137.50000000000003 0.81174490092936691 0.37940952255126048 3.308333333333334 5.4500000000000011 6.1020833333333346 12.550000000000002 10.350000000000003
decision_type=2 2 2 2 2 2 2 2 2 2 2 2 2 2 2 2 2
left_child=2 -2 5 4 -4 11 16 -8 -9 -3 -5 15 -13 -14 -10 -1 -7
right_child=1 9 3 10 -6 6 7 8 14 -11 -12 12 13 -15 -16 -17 -18
leaf_value=-0.15087100351795163 0.15479549502409037 0.022561400866849497 -0.042223854932237799 -0.046115700974484392 0.074162723892106291 -0.033131994583913402 0.01588523474591054 0.011002510164743377 -0.064896615902900634 -0.038167781514263026 0.010097538963577042 -0.060947899977972071 0.006476391868490171 -0.031966066340157674 -0.044676318303586017 -0.11376426077036157 -0.0211811227901702
leaf_weight=281 32 27 37 61 34 96 47 25 25 30 25 149 29 54 56 25 25
leaf_count=281 32 27 37 61 34 96 47 25 25 30 25 149 29 54 56 25 25
internal_value=-0.00101228 0.0076 -0.00181031 0.00134177 0.0055 -0.00242067 -0.000640001 0.00174026 -0.000598132 0.00158621 -0.00211494 -0.00332468 -0.00260944 -0.000142858 -0.00297561 -0.00385668 -0.00363935
internal_weight=1058 89 969 157 71 812 274 153 106 57 86 538 232 83 81 306 121
internal_count=1058 89 969 157 71 812 274 153 106 57 86 538 232 83 81 306 121
is_linear=0
shrinkage=0.04


Tree=29
num_leaves=21
num_cat=0
split_feature=8 5 11 7 18 6 16 19 19 3 14 7 10 7 8 7 3 0 10 0
split_gain=4.35031 2.56806 3.54308 2.85524 1.09229 1.43959 0.982175 1.44526 0.956936 1.03525 1.51998 0.926403 0.192736 0.301659 0.146776 0.094995 0.0838839 0.0333146 0.0284441 0.0159794
threshold=13.550000000000002 8.5500000000000025 7.6500000000000012 8.5145833333333361 0.25881904510252057 2.9250000000000003 137.50000000000003 1.0000000180025095e-35 1.0000000180025095e-35 4.0500000000000007 230.50000000000003 8.1500000000000021 9.7500000000000018 5.2375000000000007 8.6500000000000004 11.352083333333335 6.4500000000000011 1.0500000000000003 2.9500000000000006 3.5500000000000003
decision_type=2 2 2 2 2 2 2 2 2 2 2 2 2 2 2 2 2 2 2 2
left_child=4 2 -2 -4 12 18 7 -3 9 10 -7 16 17 -14 19 -8 -11 -1 -6 -10
right_child=1 6 3 -5 5 8 15 -9 14 11 -12 -13 13 -15 -16 -17 -18 -19 -20 -21
leaf_value=-0.14952660080648336 -0.0020533100190807973 0.035049140913117116 0.070588327083318789 0.15068297453255172 -0.086796691291275221 -0.0024422877169393304 -0.049976792940395684 -0.0035817388581947814 -0.034581794047217777 -0.0043889063667383642 0.011739896361704088 0.047257761056056724 -0.001695506376258671 -0.035058542676617156 -0.0025354099985033635 -0.011136895798606184 -0.05352808937647794 -0.13416971992530399 -0.054623060702149111 -0.051811692751292535
leaf_weight=25 35 26 29 25 122 25 42 25 25 25 25 49 43 49 28 25 32 346 25 32
leaf_count=25 35 26 29 25 122 25 42 25 25 25 25 49 43 49 28 25 32 346 25 32
internal_value=-0.000898962 0.00428846 0.00937778 0.0157091 -0.00216432 -0.000596402 0.00040336 0.00453846 0.00130578 0.00315923 0.00784314 0.000897195 -0.00347414 -0.00180645 -0.00209302 -0.00276471 -0.00255173 -0.00388172 -0.0037027 -0.00324138
internal_weight=1058 207 89 54 851 388 118 51 241 156 50 106 463 92 85 67 57 371 147 57
internal_count=1058 207 89 54 851 388 118 51 241 156 50 106 463 92 85 67 57 371 147 57
is_linear=0
shrinkage=0.04


Tree=30
num_leaves=18
num_cat=0
split_feature=8 8 2 18 13 12 10 4 16 6 2 19 8 17 8 8 4
split_gain=3.27911 1.60644 1.70309 1.4705 1.584 1.45945 2.14846 1.29316 1.34681 0.514081 2.1691 0.198996 0.118903 0.0888957 0.0825595 0.0272098 0.0316917
threshold=24.350000000000005 13.250000000000002 6.3500000000000005 0.25881904510252057 8.5500000000000025 62.500000000000007 9.2500000000000018 8.5500000000000025 297.50000000000006 3.1250000000000004 3.8500000000000001 0.6078576107927941 10.550000000000002 0.98296291314453421 6.9500000000000011 1.6500000000000001 0.75000000000000011
decision_type=2 2 2 2 2 2 2 2 2 2 2 2 2 2 2 2 2
left_child=1 3 -3 13 7 11 -7 8 -5 -6 -11 -4 -12 15 -10 -1 -17
right_child=-2 2 5 4 9 6 -8 -9 14 10 12 -13 -14 -15 -16 16 -18
leaf_value=-0.13167953106051758 0.14465565555124971 0.062215118425708066 -0.03423765301184075 0.0040162430019224449 -0.085237367854664847 -0.041873297713934339 0.054049506913626248 0.047513730914385523 -0.11965456507395424 0.0059868976283067215 -0.028348694420924754 -0.0026494006757260048 -0.0093668582801175789 -0.027157283134863711 -0.019717419780828624 -0.23874281264891978 -0.077195712616987905
leaf_weight=26 25 25 64 25 113 26 40 33 31 36 82 30 25 34 25 26 357
leaf_count=26 25 25 64 25 113 26 40 33 31 36 82 30 25 34 25 26 357
internal_value=-0.00094922 -0.00131331 0.00204301 -0.00207863 -0.000215634 0.000496893 0.00501492 0.00368696 0.000926828 -0.00196109 -0.000361112 -0.00269474 -0.00322222 -0.00363063 -0.00252632 -0.00379512 -0.00388542
internal_weight=1023 998 185 813 370 160 66 114 81 256 143 94 107 443 56 409 383
internal_count=1023 998 185 813 370 160 66 114 81 256 143 94 107 443 56 409 383
is_linear=0
shrinkage=0.04


Tree=31
num_leaves=19
num_cat=0
split_feature=8 8 17 9 18 16 11 4 20 1 1 14 7 9 3 0 0 0
split_gain=3.26093 1.42827 1.61001 3.1096 1.56912 1.02952 0.946534 0.672007 1.42326 0.378337 0.589791 0.48319 0.305445 0.199954 0.081188 0.0605978 0.0333573 0.019475
threshold=24.350000000000005 12.450000000000001 0.12940952255126045 70.500000000000014 0.25881904510252057 292.50000000000006 8.5500000000000025 8.7500000000000018 -0.22252093395631442 2.4500000000000006 3.1500000000000008 231.50000000000003 8.8041666666666689 89.500000000000014 6.0500000000000007 8.5500000000000025 1.1500000000000001 14.050000000000002
decision_type=2 2 2 2 2 2 2 2 2 2 2 2 2 2 2 2 2 2
left_child=1 4 13 -4 15 -6 14 9 -9 -7 -11 -12 -10 17 -5 16 -1 -3
right_child=-2 2 3 6 5 7 -8 8 12 10 11 -13 -14 -15 -16 -17 -18 -19
leaf_value=-0.17838229746731102 0.13886942932919966 -0.077050055856861269 0.066859765645878491 -0.0079147163356597799 0.0028527302783181822 -0.10179198629556245 0.02535224733097154 0.04526183878401599 0.015816074475858283 0.0055879835938466857 -0.042054150475043572 0.001587665526124153 -0.03016557956338993 0.0026578072143160071 -0.038453928243272623 -0.017885265618256752 -0.093206600410779647 -0.04090124188861801
leaf_weight=25 25 44 33 25 34 94 31 30 25 28 69 34 47 25 30 48 351 25
leaf_count=25 25 44 33 25 34 94 31 30 25 28 69 34 47 25 30 48 351 25
internal_value=-0.000910157 -0.00127327 0.00162617 0.0047 -0.00206107 -0.000121548 0.000643677 -0.000817074 0.00186408 -0.0020354 -0.000636365 -0.00203846 -0.00120548 -0.00227369 -0.0025 -0.00370824 -0.00388329 -0.00337143
internal_weight=1023 998 213 119 785 361 86 327 102 225 131 103 72 94 55 424 376 69
internal_count=1023 998 213 119 785 361 86 327 102 225 131 103 72 94 55 424 376 69
is_linear=0
shrinkage=0.04


Tree=32
num_leaves=18
num_cat=0
split_feature=8 5 18 6 6 13 8 6 12 8 17 0 11 13 0 0 0
split_gain=3.30746 3.78915 1.49413 1.47394 1.26977 1.29925 1.12656 0.838596 0.736731 0.517593 0.908875 0.206528 0.424394 0.126046 0.0605978 0.0333573 0.0189769
threshold=18.250000000000004 7.5500000000000007 0.25881904510252057 2.9250000000000003 3.8750000000000004 8.2500000000000018 6.5500000000000007 6.0083333333333337 63.500000000000007 12.450000000000001 0.60355339059327384 5.7500000000000009 9.5500000000000025 8.6500000000000004 8.5500000000000025 1.1500000000000001 10.050000000000002
decision_type=2 2 2 2 2 2 2 2 2 2 2 2 2 2 2 2 2
left_child=2 -2 9 13 6 7 -5 -6 -3 14 16 -7 -13 -4 15 -1 -11
right_child=1 8 3 4 5 11 -8 -9 -10 10 -12 12 -14 -15 -16 -17 -18
leaf_value=-0.1712470055686186 0.13331465215603161 -0.029941927843071335 -0.032432447725034688 0.00098159436889852839 0.00021396148431780649 -0.033453115211807327 0.0087565225480552827 0.043443185042084852 0.027916737773495567 -0.071297041205929085 0.01740969297075548 -0.027082733881664139 0.00061320775811884228 -0.089699490294712969 -0.017169854993526513 -0.089478336394348476 -0.070116735506632916
leaf_weight=25 25 35 25 43 43 58 25 33 28 25 38 35 39 105 48 351 42
leaf_count=25 25 35 25 43 43 58 25 33 28 25 38 35 39 105 48 351 42
internal_value=-0.000988282 0.00638202 -0.00168804 0.000137591 0.00179061 0.000229664 0.00649275 0.00436364 0.0010625 -0.00308679 -0.000566039 -0.00216541 -0.000746668 -0.00335878 -0.00370824 -0.00388329 -0.00335294
internal_weight=1023 88 935 406 276 208 68 76 63 529 105 132 74 130 424 376 67
internal_count=1023 88 935 406 276 208 68 76 63 529 105 132 74 130 424 376 67
is_linear=0
shrinkage=0.04


Tree=33
num_leaves=20
num_cat=0
split_feature=8 8 2 16 9 4 17 16 6 16 2 0 4 2 11 11 0 1 13
split_gain=3.29734 1.443 1.2614 1.27241 0.74972 1.28459 0.49708 0.657596 1.35401 0.412676 0.608871 0.473194 0.337423 0.354172 0.216421 0.0886294 0.0459504 0.0836036 0.0298061
threshold=24.350000000000005 13.250000000000002 6.3500000000000005 72.500000000000014 107.50000000000001 8.7500000000000018 -1.0000000180025095e-35 1302.5000000000002 3.2000000000000006 157.50000000000003 3.9500000000000006 8.5500000000000025 8.4500000000000011 10.750000000000002 13.450000000000001 13.15 1.6500000000000001 1.2500000000000002 13.450000000000001
decision_type=2 2 2 2 2 2 2 2 2 2 2 2 2 2 2 2 2 2 2
left_child=1 4 -3 -4 6 14 16 9 -9 10 -8 -12 -5 -14 -6 18 17 -1 -11
right_child=-2 2 3 12 5 -7 7 8 -10 15 11 -13 13 -15 -16 -17 -18 -19 -20
leaf_value=-0.10025678139354043 0.12798206606979037 0.058365726429573259 0.049514007488327634 -0.02707335872177 -0.0080006989608957038 0.041188393695977057 0.0013818738432493057 -0.05678746080788491 0.008626162126118702 -0.054270697333965889 -0.036235513837834084 0.001405943291345296 0.012134036142750257 -0.056708685831791582 -0.13962192298158407 -0.0085319204272287247 -0.10750669326134266 -0.094072324639890612 -0.10579540040333091
leaf_weight=36 25 25 48 58 25 35 27 38 28 152 65 34 25 29 41 31 250 26 25
leaf_count=36 25 25 48 58 25 35 27 38 28 152 65 34 25 29 41 31 250 26 25
internal_value=-0.000988282 -0.00135335 0.00182796 0.000496893 -0.00207863 0.00113725 -0.00253577 -0.00159601 0.00202985 -0.00231642 -0.000503938 -0.00196 -0.00184071 0.000436363 -0.00214925 -0.0034067 -0.00373163 -0.00266667 -0.00375281
internal_weight=1023 998 185 160 813 101 712 400 66 334 126 99 112 54 66 208 312 62 177
internal_count=1023 998 185 160 813 101 712 400 66 334 126 99 112 54 66 208 312 62 177
is_linear=0
shrinkage=0.04


Tree=34
num_leaves=19
num_cat=0
split_feature=8 18 13 8 19 9 9 0 5 6 6 16 2 1 0 0 6 0
split_gain=3.20668 1.40501 1.83286 1.62396 1.36038 1.29016 1.66512 0.953185 1.51184 0.673863 1.96005 0.375356 0.161503 0.100225 0.0605978 0.0333573 0.0260368 0.0229472
threshold=24.350000000000005 0.25881904510252057 8.5500000000000025 12.450000000000001 -0.8783796973249266 72.500000000000014 63.500000000000007 4.6500000000000012 6.3500000000000005 3.1250000000000004 3.9416666666666678 462.50000000000006 3.2500000000000004 9.7500000000000018 8.5500000000000025 1.1500000000000001 2.5083333333333337 4.3500000000000005
decision_type=2 2 2 2 2 2 2 2 2 2 2 2 2 2 2 2 2 2
left_child=1 3 4 14 -3 6 -5 12 -9 16 -11 -12 -6 -7 15 -1 -4 -13
right_child=-2 2 9 5 7 13 -8 8 -10 10 11 17 -14 -15 -16 -17 -18 -19
leaf_value=-0.16053528091066885 0.12286278342699876 0.048371895501645473 -0.084781902592829403 -0.0057012539910164797 -0.021037720564537836 -0.046236604872502148 0.046413697812093764 0.021334026715256357 -0.0062106301211925013 0.0049592584242670948 0.00073597735546358941 -0.049884481940802305 -0.085054933651676962 -0.076229942581940172 -0.016539298525439304 -0.084526396745230839 -0.073630602871143563 -0.01406885946108298
leaf_weight=25 25 26 88 48 26 25 38 33 28 39 38 25 25 48 48 351 25 62
leaf_count=25 25 26 88 48 26 25 38 33 28 39 38 25 25 48 48 351 25 62
internal_value=-0.00079297 -0.00115315 0.000624999 -0.00241781 0.0043741 0.001025 0.00432184 0.00240708 0.00574193 -0.0012518 0.000387878 -0.00206349 -0.00161539 -0.00286487 -0.00370824 -0.00388329 -0.00361404 -0.0035
internal_weight=1023 998 415 583 138 159 86 112 61 277 164 125 51 73 424 376 113 87
internal_count=1023 998 415 583 138 159 86 112 61 277 164 125 51 73 424 376 113 87
is_linear=0
shrinkage=0.04


Tree=35
num_leaves=22
num_cat=0
split_feature=0 18 13 7 0 3 3 11 13 17 1 7 16 2 10 13 5 2 17 3 1
split_gain=2.97693 1.69139 1.81327 2.53958 1.08283 1.97673 1.07116 0.502049 0.682498 0.645763 0.475951 0.796176 0.575276 0.356658 0.139171 0.104159 0.094995 0.0267235 0.0246734 0.0217788 0.0189769
threshold=16.700000000000006 0.60355339059327384 9.5500000000000025 8.1500000000000021 6.6500000000000012 3.0500000000000003 2.6500000000000008 5.1500000000000012 9.0500000000000025 0.37940952255126054 2.2500000000000004 4.6812500000000012 527.50000000000011 3.3500000000000001 10.550000000000002 10.250000000000002 8.3500000000000032 8.1500000000000004 -0.98296291314453399 3.0500000000000003 4.3500000000000005
decision_type=2 2 2 2 2 2 2 2 2 2 2 2 2 2 2 2 2 2 2 2 2
left_child=1 4 3 6 14 -6 -3 15 9 -9 19 -12 -13 -8 18 17 -10 -7 -1 -4 -14
right_child=-2 2 10 -5 5 7 13 8 16 -11 11 12 20 -15 -16 -17 -18 -19 -20 -21 -22
leaf_value=-0.048123273555604681 0.084067792077719722 0.015923827840862187 -0.078535954814287753 0.094430240746384911 0.0080191061981983152 -0.015512823824162981 0.005186641067540093 -0.034982017015896309 -0.0015584452324782585 0.051264453221194675 0.0052600984214353731 0.0099316562501939806 -0.020376299044699966 -0.054871141126471186 -0.0096880883854766914 -0.008930271860659254 -0.033126687707773869 -0.050585689960636789 -0.12622248658058338 -0.051043720703128084 -0.012332730256310671
leaf_weight=31 31 25 55 28 25 25 25 39 25 38 32 26 25 34 25 25 42 96 350 25 42
leaf_count=31 31 25 55 28 25 25 25 39 25 38 32 26 25 34 25 25 42 96 350 25 42
internal_value=-0.000893459 -0.00126275 0.00116981 0.00523894 -0.00233241 -0.000569621 0.00169412 -0.00151203 0.000165516 0.00271795 -0.00106796 0.00047619 -0.00140426 -0.00126667 -0.00369533 -0.00315646 -0.00276471 -0.00363935 -0.00388482 -0.00345679 -0.00335294
internal_weight=1069 1038 317 112 721 315 84 290 144 77 205 125 93 59 406 146 67 121 381 80 67
internal_count=1069 1038 317 112 721 315 84 290 144 77 205 125 93 59 406 146 67 121 381 80 67
is_linear=0
shrinkage=0.04


Tree=36
num_leaves=21
num_cat=0
split_feature=8 18 1 19 12 8 14 17 13 13 16 12 7 3 4 3 19 7 14 8
split_gain=4.07707 1.2811 1.27821 1.21284 1.18074 0.946137 0.997601 1.30302 1.12593 1.24491 0.935766 0.725763 0.347014 0.184017 0.175178 0.129858 0.109087 0.103978 0.0266692 0.026965
threshold=21.450000000000003 0.78656609248549303 2.2500000000000004 1.0000000180025095e-35 28.500000000000004 7.8500000000000005 121.50000000000001 0.25881904510252091 5.4500000000000011 8.2500000000000018 1332.5000000000002 54.500000000000007 7.4458333333333346 10.750000000000002 3.6500000000000008 9.5500000000000025 0.6078576107927941 4.8437500000000009 66.500000000000014 1.0500000000000003
decision_type=2 2 2 2 2 2 2 2 2 2 2 2 2 2 2 2 2 2 2 2
left_child=1 5 17 4 -4 15 13 16 14 -10 -6 -11 -5 -7 -9 18 -8 -3 -1 -20
right_child=-2 2 3 12 10 6 7 8 9 11 -12 -13 -14 -15 -16 -17 -18 -19 19 -21
leaf_value=-0.10217018627811879 0.095789772292626127 -0.092534561564815626 -0.016115261159232647 -0.044452758466540766 0.015916459762137014 -0.030487883866858061 -0.09790286392939615 0.00030430144199407159 0.016046220095966374 -0.0030243174372148697 0.045500735078357536 0.076113397646063841 0.0066821222790045473 -0.012831306220445289 -0.041698055917838622 -0.027827635324064945 -0.018936474440230257 -0.020513207631832207 -0.090266574288408299 -0.11121246223706927
leaf_weight=26 46 53 26 32 36 125 61 25 39 29 27 26 25 37 26 25 25 25 29 326
leaf_count=26 46 53 26 32 36 125 61 25 39 29 27 26 25 37 26 25 25 25 29 326
internal_value=-0.000968225 -0.00149609 0.00117333 0.00337415 0.00626667 -0.002245 -0.000842641 0.000844827 0.00315068 0.00572631 0.0091875 0.00178571 -0.00117241 -0.00323926 -0.00161539 -0.00359705 -0.00303448 -0.00293671 -0.00378011 -0.00387641
internal_weight=1069 1023 224 146 89 799 393 231 145 94 63 55 57 162 51 406 86 78 381 355
internal_count=1069 1023 224 146 89 799 393 231 145 94 63 55 57 162 51 406 86 78 381 355
is_linear=0
shrinkage=0.04


Tree=37
num_leaves=20
num_cat=0
split_feature=8 18 13 7 3 8 4 16 20 3 8 7 20 6 13 17 13 0 3
split_gain=4.15663 1.08043 1.47834 1.71481 1.03503 0.75909 1.93931 0.459371 0.307864 0.830782 0.214942 0.990964 0.208772 0.191331 0.152002 0.119929 0.0313589 0.0244949 0.0199457
threshold=21.450000000000003 0.60355339059327384 9.5500000000000025 7.8729166666666677 2.7500000000000004 13.950000000000001 4.5500000000000007 517.50000000000011 -0.56174490092936669 3.4500000000000006 8.4500000000000011 4.5312500000000009 0.81174490092936691 4.075000000000002 10.350000000000003 -0.98296291314453399 3.1500000000000008 5.6500000000000012 7.8500000000000005
decision_type=2 2 2 2 2 2 2 2 2 2 2 2 2 2 2 2 2 2 2
left_child=1 5 3 4 -3 10 -7 -4 9 -9 15 -12 -13 -6 18 -1 -17 -10 -8
right_child=-2 2 7 -5 13 6 14 8 17 -11 11 12 -14 -15 -16 16 -18 -19 -20
leaf_value=-0.05117942109999378 0.091958181400921074 0.013150886982394422 0.0082495884441907506 0.045772249673644953 0.0038660537071212239 0.056618555003600433 -0.0087159797861654249 -0.10003009155782547 -0.042883851903277204 0.0068938207242873872 0.0040348318604615041 -0.044198263196374335 -0.00011259079286046736 -0.058315920284380214 -0.0065297610330704789 -0.091532466048645095 -0.11153848385296433 -0.0077737974855299086 -0.044622577625960655
leaf_weight=28 46 27 28 25 25 30 25 37 89 25 34 137 34 31 30 26 320 26 46
leaf_count=28 46 27 28 25 25 30 25 37 89 25 34 137 34 31 30 26 320 26 46
internal_value=-0.00108037 -0.00161328 0.000343948 0.00411009 0.00128571 -0.00247539 0.000272726 -0.00165049 -0.0024045 -0.000126985 -0.00309655 -0.00203884 -0.00327907 -0.00182456 -0.00239216 -0.00366933 -0.0038732 -0.00362069 -0.00338889
internal_weight=1069 1023 313 108 83 710 131 205 177 62 579 205 171 56 101 374 346 115 71
internal_count=1069 1023 313 108 83 710 131 205 177 62 579 205 171 56 101 374 346 115 71
is_linear=0
shrinkage=0.04


Tree=38
num_leaves=21
num_cat=0
split_feature=8 18 13 11 7 12 3 10 4 8 7 10 4 8 0 18 17 7 11 8
split_gain=4.05072 1.19268 1.31389 1.50875 1.80587 1.13117 0.978729 0.905649 0.692574 1.3613 0.312897 0.285334 0.243839 0.155636 0.15162 0.577304 0.124212 0.116528 0.230018 0.0903273
threshold=21.450000000000003 0.60355339059327384 11.450000000000001 18.450000000000003 8.1500000000000021 51.500000000000007 3.4500000000000006 9.2500000000000018 4.5500000000000007 14.050000000000002 4.3520833333333346 2.5500000000000003 8.4500000000000011 10.850000000000003 6.2500000000000009 0.25881904510252057 -0.98296291314453399 4.3937500000000007 13.350000000000003 15.450000000000001
decision_type=2 2 2 2 2 2 2 2 2 2 2 2 2 2 2 2 2 2 2 2
left_child=1 7 3 4 5 6 -3 14 9 10 -9 17 -10 -12 16 19 -1 -4 -19 -16
right_child=-2 2 11 -5 -6 -7 -8 8 12 -11 13 -13 -14 -15 15 -17 -18 18 -20 -21
leaf_value=-0.037219915385139003 0.088279854144884165 0.015528210044201095 -0.08063616836004911 -0.065193270329890862 0.054937531733448119 -0.068909125172761793 0.0029650625974040785 0.012171387900682602 -0.016985692287627842 0.055892282441690151 -0.036155418763182089 0.00026749990681678993 0.00070733428610862627 3.0468583167797066e-05 -0.076653272443994308 0.0027088860145205672 -0.11324644026414696 0.003308444186962016 -0.033476480894866545 -0.061989625262604646
leaf_weight=29 46 25 65 36 28 29 37 28 67 25 32 28 26 29 99 29 314 33 32 32
leaf_count=29 46 25 65 36 28 29 37 28 67 25 32 28 26 29 99 29 314 33 32 32
internal_value=-0.000930842 -0.00145703 0.000598725 0.00320513 0.00536667 0.00256522 0.0055873 -0.00236287 -0.000134616 0.00194783 -0.000400001 -0.00196227 -0.00268085 -0.002 -0.00327778 -0.00223603 -0.00375581 -0.00274809 -0.00151515 -0.00336364
internal_weight=1069 1023 313 155 119 91 62 710 207 114 89 158 93 61 503 160 343 130 65 131
internal_count=1069 1023 313 155 119 91 62 710 207 114 89 158 93 61 503 160 343 130 65 131
is_linear=0
shrinkage=0.04


Tree=39
num_leaves=21
num_cat=0
split_feature=8 18 4 13 10 4 8 1 1 5 7 14 8 18 10 7 8 5 0 0
split_gain=4.02446 1.14782 1.33779 1.49144 0.862212 0.889864 1.22642 0.598821 1.07791 0.449285 0.318061 0.243927 0.210071 0.157652 0.252419 0.405973 0.147022 0.1085 0.0159794 0.0148718
threshold=21.450000000000003 0.60355339059327384 8.7500000000000018 9.5500000000000025 9.5500000000000025 4.5500000000000007 14.050000000000002 2.2500000000000004 3.1500000000000008 5.2500000000000009 4.4187500000000002 222.50000000000003 14.950000000000001 -0.12940952255126037 2.0500000000000003 4.5312500000000009 10.850000000000003 12.250000000000002 5.4500000000000011 6.5500000000000007
decision_type=2 2 2 2 2 2 2 2 2 2 2 2 2 2 2 2 2 2 2 2
left_child=1 4 7 -4 12 6 10 -3 -9 -5 -6 18 13 -1 -15 -16 -12 -7 -10 -17
right_child=-2 2 3 9 5 17 -8 8 11 -11 16 -13 -14 14 15 19 -18 -19 -20 -21
leaf_value=-0.11079052596407976 0.084748659979088856 -0.073343370235909963 0.035204355225095289 -0.037933144627510025 0.012140928773421647 -0.034010614521466108 0.053656591144022568 0.0047246511252116022 -0.020255468067302124 0.0060661354253616099 -0.034176563811264313 0.00012913394073369981 -0.015517223152315752 -0.085395759376093353 0.0033749627653652261 -0.089844944062784704 0.0001582264996465434 -0.0079710017333547017 -0.019341590686076566 -0.0018615217932641895
leaf_weight=290 46 83 47 26 26 60 25 28 32 41 26 31 47 90 39 29 28 25 25 25
leaf_count=290 46 83 47 26 26 60 25 28 32 41 26 31 47 90 39 29 28 25 25 25
internal_value=-0.000893459 -0.00141797 0.000598725 0.00403478 -0.00230661 -9.48681e-10 0.00245283 -0.00138 0.000478632 0.00017647 -9.41901e-10 -0.00170787 -0.00314779 -0.00340084 -0.00245652 -0.000978724 -0.00174546 -0.00302326 -0.00324138 -0.0032
internal_weight=1069 1023 313 114 710 190 105 199 116 67 80 88 520 473 183 93 54 85 57 54
internal_count=1069 1023 313 114 710 190 105 199 116 67 80 88 520 473 183 93 54 85 57 54
is_linear=0
shrinkage=0.04


Tree=40
num_leaves=19
num_cat=0
split_feature=8 11 18 6 6 7 7 10 4 11 20 10 17 8 3 18 16 2
split_gain=2.80138 3.91208 1.60961 1.69022 1.96683 1.5972 4.30117 1.19484 0.486101 0.880013 0.43061 0.388948 0.372786 0.190753 0.0940326 0.0852846 0.187376 0.076546
threshold=20.900000000000002 10.65 0.60355339059327384 3.1583333333333337 3.8750000000000004 7.6354166666666679 9.4291666666666689 8.8500000000000032 4.4500000000000011 5.7500000000000009 1.0000000180025095e-35 11.15 0.60355339059327384 14.950000000000001 5.2500000000000009 0.1294095225512602 847.50000000000011 5.2500000000000009
decision_type=2 2 2 2 2 2 2 2 2 2 2 2 2 2 2 2 2 2
left_child=2 -2 7 10 -5 14 -7 13 9 12 -4 -10 -9 15 -6 -1 17 -17
right_child=1 -3 3 4 5 6 -8 8 11 -11 -12 -13 -14 -15 -16 16 -18 -19
leaf_value=-0.10134857079757342 -0.028434749922337778 0.099740003747362652 -0.058835194537350956 0.012293419170662909 -0.0062271110595863424 0.053375185064551148 -0.0073092705791366064 -0.04041044924880749 0.0058894685187917892 0.020387877736898843 0.00071839770302143389 -0.016440432126983196 0.0070257774465009694 -0.021251454102163087 -0.068013729437704576 -0.059578059259793578 -0.09686900620942307 -0.00084914111901496724
leaf_weight=326 27 25 84 30 25 29 44 34 38 47 39 58 33 35 41 25 76 25
leaf_count=326 27 25 84 30 25 29 44 34 38 47 39 58 33 35 41 25 76 25
internal_value=-0.000809982 0.00815094 -0.00128889 0.00120136 0.00378823 0.00174286 0.00578378 -0.00233238 0.000189573 0.00194783 -0.00235484 -0.00189691 -0.001 -0.00341803 -0.00274627 -0.00363797 -0.00270866 -0.000784315
internal_weight=1041 52 989 292 169 139 73 697 210 114 123 96 67 487 66 452 126 50
internal_count=1041 52 989 292 169 139 73 697 210 114 123 96 67 487 66 452 126 50
is_linear=0
shrinkage=0.04


Tree=41
num_leaves=21
num_cat=0
split_feature=8 11 8 2 3 4 7 4 0 17 11 10 9 1 4 3 3 5 3 0
split_gain=2.80138 3.91208 1.03076 1.24307 1.46803 1.38422 2.59146 0.629219 1.42905 1.39279 1.07073 0.54726 0.274586 0.421933 0.569718 0.189886 0.122076 0.0245718 0.0240751 0.0148718
threshold=20.900000000000002 10.65 5.7500000000000009 3.2500000000000004 1.9500000000000002 10.050000000000002 9.4291666666666689 4.4500000000000011 7.1500000000000012 0.37940952255126054 4.4500000000000011 6.6500000000000012 94.500000000000014 2.4500000000000006 5.5500000000000007 10.950000000000001 4.1500000000000012 5.3500000000000005 5.3500000000000005 6.6500000000000012
decision_type=2 2 2 2 2 2 2 2 2 2 2 2 2 2 2 2 2 2 2 2
left_child=2 -2 12 4 -4 7 -7 8 18 -10 -11 19 -1 17 -15 16 -9 -14 -5 -8
right_child=1 -3 3 5 -6 6 11 15 9 10 -12 -13 13 14 -16 -17 -18 -19 -20 -21
leaf_value=-0.11048482095913496 -0.027297359925444274 0.095750403597468101 -0.0065706351919035365 -0.055514020858029658 0.0077186811408002896 0.050309638522285961 -0.02021427919214409 -0.0012185595119386979 -0.021498765637405645 0.0010846178246854436 0.031259869836821594 0.0033388262105459384 -0.071856648728202646 0.0035956726941816265 -0.078576944559467538 -0.0061667548482346804 -0.036329168827680197 -0.19493384931006227 -0.12844750273969646 -0.059756385273471609
leaf_weight=194 27 25 25 70 36 34 25 28 35 28 28 25 74 42 42 33 191 25 25 29
leaf_count=194 27 25 25 70 36 34 25 28 35 28 28 25 74 42 42 33 191 25 25 29
internal_value=-0.000809982 0.00815094 -0.00128889 -0.000274063 0.00509677 -0.000876813 0.00305263 -0.00189522 -0.000128343 0.00343478 0.00729824 -0.000950001 -0.00293122 -0.00180435 0.000282352 -0.00319368 -0.00361818 -0.00356 -0.00354167 -0.0032
internal_weight=1041 52 989 612 61 551 113 438 186 91 56 79 377 183 84 252 219 99 95 54
internal_count=1041 52 989 612 61 551 113 438 186 91 56 79 377 183 84 252 219 99 95 54
is_linear=0
shrinkage=0.04


Tree=42
num_leaves=21
num_cat=0
split_feature=8 11 18 1 11 11 14 5 7 0 5 7 9 18 8 7 8 7 0 13
split_gain=2.80138 2.90328 1.98236 1.77127 1.51298 2.10483 2.09261 3.71187 0.866019 0.822003 0.716569 0.959454 0.363699 0.728628 0.178121 0.506781 0.526137 0.0805544 0.0283334 0.0251397
threshold=20.900000000000002 10.65 0.60355339059327384 2.2500000000000004 18.750000000000004 9.1500000000000004 96.500000000000014 4.6500000000000012 6.0312500000000009 9.0500000000000025 5.5500000000000007 7.1208333333333345 67.500000000000014 -0.5 6.9500000000000011 4.9312500000000012 9.1500000000000004 4.3520833333333346 6.0500000000000007 15.550000000000002
decision_type=2 2 2 2 2 2 2 2 2 2 2 2 2 2 2 2 2 2 2 2
left_child=2 -2 9 17 5 8 -7 -8 -5 14 -11 -12 -13 -14 19 16 -16 -4 -17 -1
right_child=1 -3 3 4 -6 6 7 -9 -10 10 11 12 13 -15 15 18 -18 -19 -20 -21
leaf_value=-0.1182116654259186 -0.026205465528426477 0.09192038745356941 -0.07411742728393092 0.0031164012950590748 -0.076311622934768425 -0.01254527373384404 0.044729466020858463 0.0044193910124987633 -0.043341868956615508 -0.059765601245686986 0.011635370846871497 -0.027325196493802054 0.012312130532427282 -0.0028205403800537782 -0.0071544326861078021 -0.035668699575071315 0.013683942510311371 -0.01539183414854569 -0.039916810415483124 -0.088800487508322756
leaf_weight=277 27 25 61 25 35 26 33 40 41 52 25 29 26 40 46 25 27 31 120 30
leaf_count=277 27 25 61 25 35 26 33 40 41 52 25 29 26 40 46 25 27 31 120 30
internal_value=-0.000809982 0.00815094 -0.00128889 0.0014744 0.00358209 0.00518072 0.00884 0.0122703 -0.00035821 -0.00244699 -4.62437e-05 0.00165289 -0.000208334 0.00143283 -0.00323194 -0.0023379 0.000378377 -0.00309678 -0.00369863 -0.00385714
internal_weight=1041 52 989 292 200 165 99 73 66 697 172 120 95 66 525 218 73 92 145 307
internal_count=1041 52 989 292 200 165 99 73 66 697 172 120 95 66 525 218 73 92 145 307
is_linear=0
shrinkage=0.04


Tree=43
num_leaves=20
num_cat=0
split_feature=0 9 18 6 11 11 11 12 9 10 10 2 11 8 18 0 13 3 0
split_gain=3.19959 3.75256 1.35885 1.25296 1.12179 1.06969 1.58506 1.98765 3.35094 0.939654 0.993701 0.619035 0.398223 0.201163 0.093084 0.224481 0.0302676 0.0223032 0.0208135
threshold=13.850000000000003 62.500000000000007 0.60355339059327384 2.5083333333333337 9.4500000000000011 18.750000000000004 9.1500000000000004 32.500000000000007 101.50000000000001 9.5500000000000025 10.850000000000003 3.1500000000000008 9.1500000000000004 14.950000000000001 0.37940952255126048 4.7500000000000009 15.550000000000002 2.5500000000000003 8.1500000000000004
decision_type=2 2 2 2 2 2 2 2 2 2 2 2 2 2 2 2 2 2 2
left_child=2 -2 9 17 -3 6 11 -8 -9 13 -11 -5 18 14 16 -16 -1 -4 -12
right_child=1 4 3 5 -6 -7 7 8 -10 10 12 -13 -14 -15 15 -17 -18 -19 -20
leaf_value=-0.088526477738338244 -0.048295607661107257 0.0099437829414258348 -0.051487651119993788 0.0029917452432566848 0.077424096831583744 -0.073852024922241646 -0.00099568447887279183 0.0039116984576604962 0.049777081914487757 0.011073405120592898 -0.010928027193539721 -0.038476413600546391 0.00079592043575680649 -0.018444381399269669 -0.091001390978156266 0.00081275575653307465 -0.083051328495081234 -0.05167253018272297 -0.01185148180026554
leaf_weight=379 33 25 58 25 25 36 37 34 33 36 25 44 45 34 45 25 27 25 50
leaf_count=379 33 25 58 25 25 36 37 34 33 36 25 44 45 34 45 25 27 25 50
internal_value=-0.000963533 0.00652381 -0.00161835 0.000655289 0.0133333 0.00230476 0.00360919 0.00670476 0.0107647 -0.00261469 0.00010191 -0.00108572 -0.00165289 -0.00344423 -0.00365619 -0.00225352 -0.00389189 -0.00347619 -0.00342105
internal_weight=1041 83 958 292 50 209 173 104 67 666 156 69 120 510 476 70 406 83 75
internal_count=1041 83 958 292 50 209 173 104 67 666 156 69 120 510 476 70 406 83 75
is_linear=0
shrinkage=0.04


Tree=44
num_leaves=21
num_cat=0
split_feature=8 11 8 11 17 5 7 4 4 3 2 16 6 9 7 4 0 12 3 11
split_gain=2.80138 2.90328 0.902174 0.895075 1.05894 1.15549 1.82725 1.14985 0.909265 1.42071 0.653698 0.417594 0.355836 0.333718 0.29071 1.19273 0.112497 0.181997 0.110221 0.078982
threshold=20.900000000000002 10.65 5.7500000000000009 4.4500000000000011 -0.78656609248549292 6.3500000000000005 8.1500000000000021 3.8500000000000001 2.9500000000000006 4.7500000000000009 3.7500000000000004 32.500000000000007 8.908333333333335 94.500000000000014 3.3020833333333344 5.5500000000000007 9.3500000000000032 62.500000000000007 8.1500000000000004 8.8500000000000032
decision_type=2 2 2 2 2 2 2 2 2 2 2 2 2 2 2 2 2 2 2 2
left_child=2 -2 13 11 19 6 8 -7 -6 10 -10 -4 -9 -1 -15 -16 -13 -18 -17 -5
right_child=1 -3 3 4 5 7 -8 12 9 -11 -12 16 -14 14 15 18 17 -19 -20 -21
leaf_value=-0.10001594737491715 -0.024623169419382612 0.0858101358073836 0.00091272747794064204 -0.0090148240638454735 -0.041953319628651356 0.012078582795143874 0.043755012708485523 -0.016697709053184757 0.0070133879735387785 -0.02593409964210534 0.0029917301509151725 -0.043379886180064046 0.00071093281617706891 -0.13480428453966964 0.0053542360294006955 -0.064871889563774973 -0.058974856437160716 -0.00090480467701335623 -0.041539214106919992 -0.073989591589783132
leaf_weight=194 27 25 37 31 32 38 37 84 30 33 28 119 32 57 38 63 28 25 25 58
leaf_count=194 27 25 37 31 32 38 37 84 30 33 28 119 32 57 38 63 28 25 25 58
internal_value=-0.000809982 0.00815094 -0.00128889 -0.000339316 0.000762375 0.00185397 0.0042236 -0.000619356 0.00183871 0.00386956 0.00759322 -0.00245714 -0.00259829 -0.0028254 -0.00158696 -0.000503938 -0.00328324 -0.0017037 -0.00305618 -0.00306667
internal_weight=1041 52 989 612 403 314 160 154 123 91 58 209 116 377 183 126 172 53 88 89
internal_count=1041 52 989 612 403 314 160 154 123 91 58 209 116 377 183 126 172 53 88 89
is_linear=0
shrinkage=0.04


Tree=45
num_leaves=20
num_cat=0
split_feature=8 18 6 19 6 8 4 20 13 7 19 9 17 6 0 14 18 7 7
split_gain=2.07666 1.27098 1.52843 1.2099 1.00454 0.991579 1.1453 0.572321 0.332005 0.317263 0.499987 0.260306 0.613115 0.252347 0.550625 0.22818 0.0373454 0.0939471 0.0240751
threshold=21.450000000000003 0.25881904510252057 3.1583333333333337 -0.8783796973249266 3.6083333333333338 15.450000000000001 4.7500000000000009 0.81174490092936691 10.15 4.3520833333333346 -1.0000000180025095e-35 72.500000000000014 0.37940952255126054 7.6250000000000009 6.0500000000000007 191.50000000000003 1.0000000180025095e-35 4.3187500000000014 4.3520833333333346
decision_type=2 2 2 2 2 2 2 2 2 2 2 2 2 2 2 2 2 2 2
left_child=1 5 9 -4 -5 11 -7 13 -8 -3 -11 12 18 14 15 -6 -13 -18 -1
right_child=-2 2 3 4 7 6 8 -9 -10 10 -12 16 -14 -15 -16 -17 17 -19 -20
leaf_value=-0.12200207370354438 0.039382975536141993 -0.059251082041284729 0.023447245370240472 0.0071020694907805862 -0.034629038347464912 0.048841455467155903 -0.03639513325140048 0.0055748482625055818 0.0043113450664250706 0.0027289702308317919 -0.11107502637705227 -0.087201551936418417 0.0037982319735973273 -0.018602802463161518 0.0063640466096352597 -0.002088386843898362 -0.037198732160759286 -0.048565186808511851 -0.064694155353383062
leaf_weight=25 45 106 41 30 47 25 37 38 27 25 27 285 46 38 43 25 26 47 70
leaf_count=25 45 106 41 30 47 25 37 38 27 25 27 285 46 38 43 25 26 47 70
internal_value=-0.000922202 -0.0013003 0.000380047 0.00225095 0.00106306 -0.00249915 0.00137778 -2.08343e-05 -0.00147692 -0.00271698 -0.000150944 -0.003192 -0.00171831 -0.00111688 -0.000172415 -0.00230137 -0.00376602 -0.00286487 -0.00354167
internal_weight=1053 1008 420 262 221 588 89 191 64 158 52 499 141 153 115 72 358 73 95
internal_count=1053 1008 420 262 221 588 89 191 64 158 52 499 141 153 115 72 358 73 95
is_linear=0
shrinkage=0.04


Tree=46
num_leaves=21
num_cat=0
split_feature=8 5 18 13 6 10 6 2 8 17 12 20 18 10 7 3 20 14 13 2
split_gain=2.55018 1.51998 1.19343 1.53188 1.70086 1.06939 0.64659 0.749249 0.642598 0.637682 0.753444 0.700019 0.472053 0.679183 0.247688 0.148646 0.0690008 0.053599 0.0245184 0.0163241
threshold=20.900000000000002 10.250000000000002 0.25881904510252057 7.8500000000000005 6.0083333333333337 9.2500000000000018 3.1583333333333337 3.7500000000000004 7.7500000000000009 0.25881904510252091 54.500000000000007 1.0000000180025095e-35 0.78656609248549303 1.9500000000000002 4.6979166666666679 10.750000000000002 1.0000000180025095e-35 147.00000000000003 15.550000000000002 10.550000000000002
decision_type=2 2 2 2 2 2 2 2 2 2 2 2 2 2 2 2 2 2 2 2
left_child=2 -2 5 4 8 15 16 -8 14 19 -11 -12 17 -14 -4 18 -5 -9 -1 -7
right_child=1 -3 3 6 -6 9 7 12 -10 10 11 -13 13 -15 -16 -17 -18 -19 -20 -21
leaf_value=-0.066710430410998389 0.063838060426524998 -0.011135037145159432 -0.064631677724543077 -0.058805594624919411 0.027175792392463132 -0.074519009482125836 0.0070166673588447906 -0.0070007589782655893 0.0087906500898558074 -0.0046445492773179347 -0.0010956958065291345 0.040065283222685349 -0.0051234806684235176 0.014271743656608729 0.0021152426605861902 -0.07368122668057106 -0.01510099178169157 -0.030305953741520973 -0.07379409439706279 -0.022044112333580702
leaf_weight=332 25 25 28 90 32 33 32 42 27 45 36 35 37 26 30 48 38 36 31 25
leaf_count=332 25 25 28 90 32 33 32 42 27 45 36 35 37 26 30 48 38 36 31 25
internal_value=-0.000884251 0.00784314 -0.00132669 0.000305488 0.00416949 -0.00249147 -0.0012053 0.000390804 0.00116279 0.000137142 0.00184615 0.00438889 -0.00087324 0.0016875 -0.00122034 -0.00360194 -0.00334884 -0.00293671 -0.00387912 -0.00325424
internal_weight=1053 50 1003 418 117 585 301 173 85 174 116 71 141 63 58 411 128 78 363 58
internal_count=1053 50 1003 418 117 585 301 173 85 174 116 71 141 63 58 411 128 78 363 58
is_linear=0
shrinkage=0.04


Tree=47
num_leaves=20
num_cat=0
split_feature=8 18 13 4 10 10 11 11 2 19 10 4 18 12 2 1 18 1 0
split_gain=1.94278 1.03058 1.40118 1.37303 1.44565 0.851218 0.702582 1.03614 0.425387 0.53446 1.04912 0.246001 0.410522 0.117562 0.104981 0.194229 0.103609 0.0212143 0.0189769
threshold=21.650000000000002 0.25881904510252057 7.8500000000000005 8.7500000000000018 4.8500000000000005 9.2500000000000018 5.7500000000000009 10.850000000000003 1.8500000000000003 -1.0000000180025095e-35 1.6500000000000001 9.0500000000000025 0.78656609248549303 66.500000000000014 10.050000000000002 10.250000000000002 0.1294095225512602 2.6500000000000008 11.350000000000003
decision_type=2 2 2 2 2 2 2 2 2 2 2 2 2 2 2 2 2 2 2
left_child=1 5 3 4 -3 14 13 -8 -4 10 -10 17 -13 18 16 -16 -1 -11 -7
right_child=-2 2 8 -5 -6 6 7 -9 9 11 -12 12 -14 -15 15 -17 -18 -19 -20
leaf_value=-0.077245828043735087 0.041903063920770221 -0.055725336195340022 -0.053652836423180326 0.033140338314246377 0.0029647718175182286 -0.014907191731951284 0.038462668238842562 -0.0030875052856228456 -0.0058602915140218729 -0.042332469075616129 0.006410052521612716 -0.019004596957746943 0.0076532942231454177 -0.002817682953499997 0.0023800465804483979 -0.063450320684665065 -0.058763253032840163 -0.02209942577367453 -0.023545332494249741
leaf_weight=320 42 45 75 36 37 42 45 33 42 25 35 40 34 34 25 32 34 52 25
leaf_count=320 42 45 75 36 37 42 45 33 42 25 35 40 34 34 25 32 34 52 25
internal_value=-0.001074 -0.00142688 8.53071e-05 0.0037647 0.000867469 -0.00250423 -0.000200001 0.00263291 -0.00135526 -0.000489084 0.00220513 -0.00186842 -0.000213334 -0.00239216 -0.00350486 -0.00186207 -0.00376338 -0.0034359 -0.00335294
internal_weight=1053 1011 421 118 82 590 179 78 303 228 77 151 74 101 411 57 354 77 67
internal_count=1053 1011 421 118 82 590 179 78 303 228 77 151 74 101 411 57 354 77 67
is_linear=0
shrinkage=0.04


Tree=48
num_leaves=20
num_cat=0
split_feature=8 18 13 3 12 8 4 6 2 5 18 4 5 18 6 4 0 20 0
split_gain=1.95619 1.00295 1.44696 1.23661 1.15958 0.735646 0.800936 0.518731 1.10933 0.284417 0.263959 0.237924 0.221033 0.129952 0.184568 0.163934 0.421214 0.0714393 0.0224698
threshold=22.950000000000006 0.25881904510252057 7.7500000000000009 8.3500000000000032 51.500000000000007 15.450000000000001 4.6500000000000012 3.1250000000000004 3.7500000000000004 10.750000000000002 0.91597561503675351 11.350000000000003 9.4500000000000011 1.0000000180025095e-35 5.1833333333333345 1.8500000000000003 4.6500000000000012 1.0000000180025095e-35 4.1500000000000012
decision_type=2 2 2 2 2 2 2 2 2 2 2 2 2 2 2 2 2 2 2
left_child=1 5 3 4 -3 11 -7 17 -9 -8 12 13 18 15 -15 16 -1 -4 -10
right_child=-2 2 7 -5 -6 6 9 8 10 -11 -12 -13 -14 14 -16 -17 -18 -19 -20
leaf_value=-0.17261080665400014 0.058080894882737648 0.0033473730691040635 -0.05662027241901222 0.034367462303751879 -0.014852852232707842 0.043940995203318171 0.0054848469893707778 0.0067886038513236026 -0.030021374418375772 -0.026433878914172673 0.0055811103206129262 -0.02197420737960137 0.0034479180671132051 -0.036963557917177779 -0.029952042051020426 -0.048229533448594597 0.0067907973669061395 -0.012535575310468923 -0.0055876483603248192
leaf_weight=52 26 48 89 25 44 26 41 34 25 38 37 26 25 38 32 326 25 37 59
leaf_count=52 26 48 89 25 44 26 41 34 25 38 37 26 25 38 32 326 25 37 59
internal_value=-0.00114991 -0.00142802 6.60368e-05 0.00383051 0.00163441 -0.00247273 0.000566037 -0.00138111 -9.48405e-10 -0.00145 -0.00152381 -0.003112 -0.00250909 -0.00331646 -0.00169014 -0.00359406 -0.00189744 -0.00333858 -0.00348235
internal_weight=1053 1027 423 117 92 604 105 306 180 79 146 499 109 473 70 403 77 126 84
internal_count=1053 1027 423 117 92 604 105 306 180 79 146 499 109 473 70 403 77 126 84
is_linear=0
shrinkage=0.04


Tree=49
num_leaves=21
num_cat=0
split_feature=8 8 6 17 9 6 20 18 19 10 10 4 7 0 10 11 5 0 5 0
split_gain=1.91469 0.986419 1.3359 1.00601 1.38907 0.783834 0.716084 0.675943 1.10302 1.27246 0.58578 0.424855 0.711986 0.392906 0.307457 0.089139 0.217997 0.0251396 0.0227917 0.0172926
threshold=22.950000000000006 7.4500000000000011 3.9250000000000003 0.12940952255126045 71.500000000000014 6.7833333333333341 1.0000000180025095e-35 0.60355339059327384 -0.60785761079279388 0.75000000000000011 5.7500000000000009 8.4500000000000011 9.1833333333333353 7.1500000000000012 0.45000000000000007 10.350000000000003 2.3500000000000001 3.8500000000000001 10.350000000000003 11.450000000000001
decision_type=2 2 2 2 2 2 2 2 2 2 2 2 2 2 2 2 2 2 2 2
left_child=1 7 -3 11 6 10 -5 15 9 -9 -6 -4 -13 -12 -10 -1 -17 -16 -7 -14
right_child=-2 2 3 4 5 18 -8 8 14 -11 13 12 19 -15 17 16 -18 -19 -20 -21
leaf_value=-0.09802665155103743 0.055757659087428087 0.0070175177010828784 -0.08171504893735701 0.00065666678439075502 0.015118169399938495 -0.0028097325653410306 0.041484144522230725 -0.01230838006554027 0.0027616011677170922 0.016766180863014332 -0.040389024819220472 0.01082287364316138 -0.074588806485954909 0.0022230484268375931 -0.047303867077877336 -0.013654747268629265 -0.07479839883168099 -0.0020529247879095005 -0.013478351548326932 -0.051042139184851107
leaf_weight=256 26 29 129 41 25 61 38 25 33 28 26 43 36 29 79 26 48 25 25 25
leaf_count=256 26 29 129 41 25 61 38 25 33 28 26 43 36 29 79 26 48 25 25 25
internal_value=-0.00103605 -0.00131128 -5.51191e-05 -0.000567851 0.00121951 -0.000862276 0.00555 -0.00253359 -0.000628273 0.00422222 0.00197531 -0.00244445 -0.000533334 -0.000357144 -0.00252174 -0.00362538 -0.00234667 -0.00358095 -0.00349425 -0.00329032
internal_weight=1053 1027 507 478 245 166 79 520 190 53 80 233 104 55 137 330 74 104 86 61
internal_count=1053 1027 507 478 245 166 79 520 190 53 80 233 104 55 137 330 74 104 86 61
is_linear=0
shrinkage=0.04


Tree=50
num_leaves=21
num_cat=0
split_feature=11 0 5 5 0 20 16 16 3 7 11 10 16 1 4 4 2 14 9 4
split_gain=1.42816 1.40114 1.93875 0.753644 1.65258 1.7342 0.470576 0.40292 0.299322 0.279554 0.718013 0.267478 0.230209 0.200281 0.383597 0.14932 0.331235 0.100328 0.0281028 0.0175953
threshold=8.4500000000000011 9.6500000000000004 6.5500000000000007 4.6500000000000012 4.0500000000000007 -0.22252093395631442 27.500000000000004 107.50000000000001 8.3500000000000032 3.2875000000000001 14.65 11.450000000000001 1870.0000000000002 6.3500000000000005 2.1500000000000008 9.4500000000000011 9.8500000000000032 171.50000000000003 101.50000000000001 2.7500000000000004
decision_type=2 2 2 2 2 2 2 2 2 2 2 2 2 2 2 2 2 2 2 2
left_child=6 3 -3 4 9 -6 -1 -4 11 19 -11 18 13 -8 -15 17 -17 -16 -5 -2
right_child=1 2 7 8 5 -7 12 -9 -10 10 -12 -13 -14 14 15 16 -18 -19 -20 -21
leaf_value=0.0016120682039954171 -0.13836946362149594 0.081527344230573548 0.0043905142625643078 -0.0369908920602183 0.025411447940638363 -0.00038175650288971237 -0.074602203307660875 -0.0029369602731250709 0.00536261891877606 0.0060300843203783816 -0.019934808111936042 -0.00022777205454962049 -0.0016944519724609592 0.0069426200694437034 -0.030601541708399269 -0.028914624238611318 0.0092881583506696074 -0.04470555040927203 -0.027685590567733339 -0.053089392426747282
leaf_weight=45 37 26 29 116 29 36 232 28 42 31 43 25 25 25 128 29 25 31 25 25
leaf_count=45 37 26 29 116 29 36 232 28 42 31 43 25 25 25 128 29 25 31 25 25
internal_value=-0.00116941 0.000389451 0.00509524 -0.000575611 0.00116832 0.00636364 -0.0025878 0.000896551 -0.00225837 -0.00134307 0.000319999 -0.00301797 -0.00294355 -0.00314225 -0.00230962 -0.00285981 -0.00101818 -0.003475 -0.00369014 -0.00330159
internal_weight=1032 492 83 409 201 65 540 57 208 136 74 166 495 470 238 213 54 159 141 62
internal_count=1032 492 83 409 201 65 540 57 208 136 74 166 495 470 238 213 54 159 141 62
is_linear=0
shrinkage=0.04


Tree=51
num_leaves=21
num_cat=0
split_feature=18 3 4 17 3 4 2 11 12 9 10 17 11 20 3 3 3 5 11 2
split_gain=1.72732 1.76113 2.19717 0.954129 1.0602 1.98044 2.52741 1.07813 1.05021 1.26677 0.609761 0.820323 0.630789 0.846929 0.399968 0.440004 0.181997 0.0860943 0.236599 0.0235355
threshold=0.25881904510252057 10.050000000000002 13.050000000000002 -0.37940952255126065 1.6500000000000001 4.8500000000000005 2.2500000000000004 9.6500000000000004 26.500000000000004 99.500000000000014 9.5500000000000025 0.25881904510252091 5.7500000000000009 1.0000000180025095e-35 10.450000000000001 12.850000000000003 6.2500000000000009 2.2500000000000004 8.9500000000000011 4.7500000000000009
decision_type=2 2 2 2 2 2 2 2 2 2 2 2 2 2 2 2 2 2 2 2
left_child=10 3 -3 19 -5 6 -6 -7 -9 -10 14 -12 16 -14 17 -16 -13 18 -1 -2
right_child=1 2 -4 4 5 7 -8 8 9 -11 11 12 13 -15 15 -17 -18 -19 -20 -21
leaf_value=-0.071618103400972022 -0.050154293135970314 0.030502896085974954 0.0078655542548135247 -0.039423701008275885 -0.0014903484867363332 -0.034622740215952449 0.0062096669879866517 -0.082049761427988741 0.00087607916313083836 0.023268343535670838 -0.051662891086010063 0.0017701751043243744 -0.0011080830683137819 0.031945684256099359 0.0045225599449983233 -0.092567518143583896 -0.025969147836741948 -0.061863296714655631 0.00080618822615000118 -0.037831876702048801
leaf_weight=52 66 25 34 52 26 64 34 28 47 27 66 25 34 35 25 38 28 276 25 25
leaf_count=52 66 25 34 52 26 64 34 28 47 27 66 25 34 35 25 38 28 276 25 25
internal_value=-0.000898355 0.00104429 0.0074 1.08099e-05 0.00117563 0.00236123 0.00852459 9.58074e-05 0.00264078 0.00512 -0.00227438 -0.000380953 0.00156097 0.00405714 -0.0031271 -0.000187501 -0.0017037 -0.00364972 -0.00241026 -0.00352174
internal_weight=1032 428 59 369 278 226 60 166 102 74 604 188 122 69 416 63 53 353 77 91
internal_count=1032 428 59 369 278 226 60 166 102 74 604 188 122 69 416 63 53 353 77 91
is_linear=0
shrinkage=0.04


Tree=52
num_leaves=22
num_cat=0
split_feature=11 6 17 16 0 10 8 7 7 12 16 4 8 13 9 11 17 0 4 3 4
split_gain=1.39819 1.50895 0.979402 1.48268 1.49131 1.41134 0.813657 1.50366 0.711718 0.576232 0.427727 0.385881 0.222711 0.289708 0.222255 0.136098 0.0515207 0.0838839 0.0215953 0.0215236 0.101015
threshold=5.7500000000000009 3.1583333333333337 -1.0000000180025095e-35 887.50000000000011 8.3500000000000032 11.850000000000003 8.5500000000000025 7.5750000000000002 6.7937500000000011 45.500000000000007 22.500000000000004 5.6500000000000012 15.450000000000001 9.1500000000000004 108.50000000000001 15.65 0.78656609248549325 6.2500000000000009 1.8500000000000003 2.0500000000000003 2.7500000000000004
decision_type=2 2 2 2 2 2 2 2 2 2 2 2 2 2 2 2 2 2 2 2 2
left_child=10 14 6 4 9 -6 7 11 -5 -4 -1 -3 16 -14 19 -8 -12 -18 -11 20 -2
right_child=1 2 3 8 5 -7 15 -9 -10 18 12 -13 13 -15 -16 -17 17 -19 -20 -21 -22
leaf_value=0.0012205718297749635 -0.082735033206624106 0.0098223775937671138 0.00072635294040462775 0.0057809439957746461 0.040864245203947845 0.00012758638865080648 -0.04781703932687921 0.018987391972027742 0.025606539543815282 -0.033730885823825496 -0.062975265181544088 -0.059117650407235454 -0.040335838344416682 0.008489363655354935 -0.0042677346361004384 -0.063410605998121247 -0.056705238116199562 -0.0062584250192142402 -0.057524254740054639 -0.064931747215331043 -0.033158936387750929
leaf_weight=27 49 25 36 27 40 39 74 34 29 25 245 41 25 26 27 41 32 25 54 86 25
leaf_count=27 49 25 36 27 40 39 74 34 29 25 245 41 25 26 27 41 32 25 54 86 25
internal_value=-0.00101452 0.000110259 0.00133047 0.00302789 0.00135385 0.00555 -0.000648149 0.0019802 0.00870175 -0.00155173 -0.00293963 -0.00155224 -0.00331074 -0.000846155 -0.00291489 -0.00293104 -0.00372277 -0.00255173 -0.00345 -0.00347826 -0.00288
internal_weight=1032 652 465 250 194 79 215 100 56 115 380 66 353 51 187 115 302 57 79 160 74
internal_count=1032 652 465 250 194 79 215 100 56 115 380 66 353 51 187 115 302 57 79 160 74
is_linear=0
shrinkage=0.04


Tree=53
num_leaves=21
num_cat=0
split_feature=18 3 13 17 3 4 2 10 17 11 10 11 4 11 3 3 0 17 13 2
split_gain=1.67973 1.71137 3.39335 1.01881 0.962995 1.97909 1.50339 0.8909 0.950563 0.821363 0.80698 0.534077 0.504584 0.596543 0.407969 0.440004 0.405614 0.0871318 0.029677 0.0235355
threshold=0.37940952255126048 10.050000000000002 9.3500000000000032 -0.37940952255126065 1.6500000000000001 4.9500000000000011 2.5500000000000003 9.5500000000000025 0.25881904510252091 9.6500000000000004 11.350000000000003 15.15 4.5500000000000007 4.8500000000000005 10.450000000000001 12.850000000000003 3.6500000000000008 -0.98296291314453399 15.550000000000002 4.7500000000000009
decision_type=2 2 2 2 2 2 2 2 2 2 2 2 2 2 2 2 2 2 2 2
left_child=7 3 -3 19 -5 6 -6 14 -9 -7 -10 -11 13 -12 17 -16 -13 -1 -19 -2
right_child=1 2 -4 4 5 9 -8 8 10 11 12 16 -14 -15 15 -17 -18 18 -20 -21
leaf_value=-0.029850409307663722 -0.045924391552190851 0.064541420325507401 -0.041118529819692377 -0.036289454357440361 0.0016875702580994171 -0.035879372244119682 0.0089020868734928475 -0.049601478898115663 0.017567247181150346 0.011168924273738256 -0.0085886828371667286 -0.074879526592574408 -0.0083104241218639463 0.019348993000755845 0.0050153822815342565 -0.086328393177915658 0.003600743657761067 -0.061002468904168911 -0.10629382516858281 -0.034405920060891673
leaf_weight=36 66 27 32 43 25 49 25 66 36 40 25 25 46 37 25 38 28 311 27 25
leaf_count=36 66 27 32 43 25 49 25 66 36 40 25 25 46 37 25 38 28 311 27 25
internal_value=-0.000898355 0.00119171 0.0074 4.89287e-05 0.00144068 0.00265285 0.00941176 -0.00214198 -9.49155e-10 0.000223775 0.00182069 0.00242553 7.33936e-05 0.0024127 -0.00316895 -0.000187501 -0.000222223 -0.00366933 -0.00387021 -0.00352174
internal_weight=1032 385 59 326 235 192 50 647 210 142 144 93 108 62 437 63 53 374 338 91
internal_count=1032 385 59 326 235 192 50 647 210 142 144 93 108 62 437 63 53 374 338 91
is_linear=0
shrinkage=0.04


Tree=54
num_leaves=21
num_cat=0
split_feature=18 6 4 3 12 0 3 9 20 3 9 20 18 10 17 12 13 13 3 2
split_gain=1.8064 1.36834 0.903689 1.32532 3.23728 0.692378 0.728148 1.1898 0.496708 0.439517 0.34192 0.324433 0.282173 0.177163 0.200644 0.152733 0.252425 0.0266889 0.0230992 0.0187169
threshold=0.37940952255126048 2.9250000000000003 4.6500000000000012 10.050000000000002 40.500000000000007 8.3500000000000032 7.8500000000000005 69.500000000000014 -0.22252093395631442 5.6500000000000012 83.500000000000014 1.0000000180025095e-35 0.91597561503675351 11.950000000000001 -0.98296291314453399 64.500000000000014 6.8500000000000005 15.550000000000002 2.4500000000000006 4.7500000000000009
decision_type=2 2 2 2 2 2 2 2 2 2 2 2 2 2 2 2 2 2 2 2
left_child=5 11 -3 8 -5 13 7 -7 9 -4 15 18 19 14 -1 -8 -17 -16 -2 -10
right_child=1 2 3 4 -6 6 10 -9 12 -11 -12 -13 -14 -15 17 16 -18 -19 -20 -21
leaf_value=-0.017980000109542447 -0.04312666895110872 0.0041114697351904202 0.0033503030227864656 -0.021776291818290241 0.059733497636658799 0.027312390951074371 -0.044787406590193111 -0.0027492427603909636 -0.022232405806589507 -0.0048230511219131125 0.0033515155263761278 0.0002140027444135422 0.0038556711289904249 -0.0010446461076028546 -0.065941450798426518 -0.030535089876948984 0.0072374143988993556 -0.080558316694013948 -0.041548802655677813 -0.0046962444943586569
leaf_weight=37 63 42 26 29 29 37 83 42 25 33 26 42 30 35 299 29 30 29 25 41
leaf_count=37 63 42 26 29 29 37 83 42 25 33 26 42 30 35 299 29 30 29 25 41
internal_value=-0.0009758 0.00119171 0.00289062 0.00181308 0.00691525 -0.00226543 -0.000596775 0.00255 -0.000128206 0.00273333 -0.00208284 -0.00213741 -0.00189691 -0.00329177 -0.00355191 -0.00285315 -0.00126667 -0.00386626 -0.00350562 -0.00334328
internal_weight=1032 385 255 213 58 647 247 79 155 59 168 130 96 400 365 142 59 328 88 66
internal_count=1032 385 255 213 58 647 247 79 155 59 168 130 96 400 365 142 59 328 88 66
is_linear=0
shrinkage=0.04


Tree=55
num_leaves=23
num_cat=0
split_feature=18 1 11 12 11 8 18 13 13 10 12 20 3 7 10 10 2 11 16 14 1 0
split_gain=1.68724 1.51059 0.95432 2.08113 1.73397 0.734684 0.648588 1.31583 1.53392 0.581787 0.689897 1.05152 0.413996 0.410697 0.307301 0.12718 0.164573 0.108631 0.19529 0.0898785 0.0232479 0.0136396
threshold=0.78656609248549303 1.9500000000000002 9.5500000000000025 44.500000000000007 14.450000000000001 6.0500000000000007 0.25881904510252057 8.5500000000000025 5.9500000000000011 8.8500000000000032 64.500000000000014 1.0000000180025095e-35 3.5500000000000003 5.6916666666666673 0.75000000000000011 4.9500000000000011 9.1500000000000004 10.350000000000003 1022.5000000000001 145.50000000000003 13.65 6.0500000000000007
decision_type=2 2 2 2 2 2 2 2 2 2 2 2 2 2 2 2 2 2 2 2 2 2
left_child=5 -2 12 4 -4 17 9 8 -8 15 13 -12 -3 -11 -6 16 21 -1 -19 -9 -15 -7
right_child=1 2 3 -5 14 6 7 19 -10 10 11 -13 -14 20 -16 -17 -18 18 -20 -21 -22 -23
leaf_value=-0.10233587065745813 -0.025742813442982539 0.0018650167133071288 0.0084800059592911158 0.051807429101810916 -0.019858695594162985 -0.063703864966063992 0.00097305967483313942 -0.0037242573713149856 0.015830665481026775 0.0086728746315220123 -0.044030046101269628 0.019593532994313958 -0.041525137591565009 -0.011168367574243191 0.003528316738782311 -0.042400449758602764 -0.0054667764669786914 -0.026594870863573723 -0.049080745090329593 -0.053192697504391089 -0.0283648947595177 -0.020499372069368093
leaf_weight=193 49 25 25 25 28 25 39 37 29 47 32 44 35 64 26 130 25 43 51 25 25 26
leaf_count=193 49 25 25 25 28 25 39 37 29 47 32 44 35 64 26 130 25 43 51 25 25 26
internal_value=-0.000983795 0.00218691 0.00402424 0.00632381 0.00305 -0.00179426 -0.000932606 0.00152672 0.00533333 -0.00169928 -0.000225353 0.00280519 -9.3804e-10 -0.00192701 -0.00101818 -0.00320773 -0.00187013 -0.00343056 -0.00227369 -0.00266667 -0.00351111 -0.00315385
internal_weight=1048 213 164 104 79 835 548 130 68 418 212 76 60 136 54 206 76 287 94 62 89 51
internal_count=1048 213 164 104 79 835 548 130 68 418 212 76 60 136 54 206 76 287 94 62 89 51
is_linear=0
shrinkage=0.04


Tree=56
num_leaves=21
num_cat=0
split_feature=18 6 6 4 8 11 7 11 20 13 4 13 10 20 11 16 1 11 3 1
split_gain=2.15439 1.71575 1.01088 1.93429 0.586707 0.606522 0.612266 0.646785 0.536955 0.490929 0.816395 0.41487 0.347014 0.184564 0.162573 0.274535 0.113535 0.109368 0.0287081 0.0189769
threshold=0.78656609248549303 3.0416666666666665 3.8750000000000004 10.450000000000001 6.2500000000000009 4.8500000000000005 5.6916666666666673 10.350000000000003 1.0000000180025095e-35 9.4500000000000011 10.450000000000001 8.0500000000000025 0.8500000000000002 0.81174490092936691 10.350000000000003 1027.5000000000002 12.350000000000003 7.5500000000000007 3.8500000000000001 7.7500000000000009
decision_type=2 2 2 2 2 2 2 2 2 2 2 2 2 2 2 2 2 2 2 2
left_child=4 8 -3 12 14 13 7 -7 -2 10 11 19 -4 16 -1 -16 18 -11 -6 -8
right_child=1 2 3 -5 5 6 9 -9 -10 17 -12 -13 -14 -15 15 -17 -18 -19 -20 -21
