tree
version=v4
num_class=1
num_tree_per_iteration=1
label_index=0
max_feature_idx=40
objective=binary sigmoid:1
feature_names=temp_max_c temp_min_c rh_min_pct wind_max_kmh wind_gust_max_kmh precip_mm vpd_max_kpa et0_mm ffmc dmc dc isi bui fwi dsr temp_max_c_lag1 temp_max_c_lag7 temp_max_c_mean7 temp_max_c_mean30 rh_min_pct_lag1 rh_min_pct_lag7 rh_min_pct_mean7 rh_min_pct_mean30 wind_max_kmh_lag1 wind_max_kmh_lag7 wind_max_kmh_mean7 wind_max_kmh_mean30 precip_mm_lag1 precip_mm_lag7 precip_mm_mean7 precip_mm_mean30 vpd_max_kpa_lag1 vpd_max_kpa_lag7 vpd_max_kpa_mean7 vpd_max_kpa_mean30 precip_sum7 precip_sum30 dry_spell_days doy_sin doy_cos month
feature_infos=[-22.699999999999999:46.799999999999997] [-30.800000000000001:26.600000000000001] [6:97] [2.2000000000000002:30.899999999999999] [6.7999999999999998:97.200000000000003] [0:34.600000000000001] [0.029999999999999999:9.6300000000000008] [0.10000000000000001:8.7899999999999991] [8.9767793010514207:100.05574027842729] [0:431.64728584625391] [0:1111.6496600609048] [1.1495080431106939e-06:47.254607205933127] [0:431.42744934398058] [6.5888845515968551e-07:97.300459269816415] [3.1179271488036385e-13:89.852933344139871] [-22.699999999999999:46.799999999999997] [-19.699999999999999:46.799999999999997] [-16.028571428571421:42.528571428571432] [-6.3266666666666662:35.75] [6:97] [6:97] [10.285714285714286:92.142857142857139] [14.933333333333334:81.13333333333334] [2.2000000000000002:30.899999999999999] [2.2000000000000002:30.899999999999999] [4.2428571428571429:19.028571428571428] [5.6333333333333337:15.746666666666668] [0:34.600000000000001] [0:34.600000000000001] [0:7.5428571428571454] [0:4.456666666666667] [0.029999999999999999:9.6300000000000008] [0.029999999999999999:9.6300000000000008] [0.067142857142857157:7.6728571428571426] [0.10433333333333335:5.141] [0:52.800000000000018] [0:133.70000000000002] [0:42] [-0.9999994220246925:0.99998555065071859] [-0.99997919295908233:0.9999907524084426] [1:12]
tree_sizes=2131 2150 2040 1939 2034 1945 1947 2041 2051 1935 2155 2152 2049 2266 2257 2265 2260 2367 2268 2267 2376 2359 2268 2362 2270 2276 2381 2256 2464 2276 2168 2266 2266 2381 2385 2472 2150 2387 2381 2371 2276 2469 2583 2491 2598 2704 2812 2711 2704 2917 2709 2598 2806 2701 2700 2597 2709 2704 2497 2474 2811 2910 2920 2701 2707 3124 3011 3126 3029 2815 3032 2901 2937 2926 2813 2901 2822 3136 2916 2925 2814 2687

Tree=0
num_leaves=19
num_cat=0
split_feature=39 12 39 35 17 36 15 26 38 28 26 29 26 11 2 26 10 39
split_gain=2303.19 392.323 96.5553 72.7582 49.7667 35.6045 34.1976 23.3808 19.3781 23.8319 18.1012 17.8096 14.9499 12.9095 9.47141 8.34398 6.23179 2.07416
threshold=0.04621408538533487 87.048826923809443 0.42763731121559989 5.2000000000000073 26.514285714285723 32.150000000000013 23.650000000000002 10.881666666666669 -0.25205528343633254 0.75000000000000011 10.565000000000003 0.45714285714285735 11.481666666666667 8.5236212219579723 36.500000000000007 10.755000000000003 554.75656505725544 -0.7614016681079937
decision_type=2 2 2 2 2 2 2 2 2 2 2 2 2 2 2 2 2 2
left_child=1 3 5 14 7 11 8 13 -5 10 -10 -2 17 -3 15 -1 -4 -6
right_child=2 4 16 6 12 -7 -8 -9 9 -11 -12 -13 -14 -15 -16 -17 -18 -19
leaf_value=-0.58522158543635316 -0.64061835224781083 -0.59745198837209512 -0.7072850441771158 -0.66360153845062175 -0.54556973939089137 -0.69390305726593149 -0.61165913843954778 -0.61481155739200322 -0.61471522752810148 -0.65730659636103805 -0.64490660865022753 -0.6718503302697616 -0.58045803847490618 -0.56621021291201312 -0.61920848151760211 -0.61047166513702611 -0.68975298194846202 -0.56342827197368328
leaf_weight=55.002592265605927 46.662035241723061 45.084092020988464 532.21770630776882 59.961842387914658 99.185002446174622 82.954729318618774 65.597353890538216 45.084092020988464 72.359967693686485 65.597353890538216 56.580535486340523 75.290433675050735 51.395864903926849 59.285581007599831 46.436614781618118 45.084092020988464 45.760353401303291 64.695672050118446
leaf_count=244 207 200 2361 266 440 368 291 200 321 291 251 334 228 263 206 200 203 287
internal_value=-0.648397 -0.602059 -0.697601 -0.626429 -0.571027 -0.673835 -0.637184 -0.589566 -0.643883 -0.637761 -0.62783 -0.659929 -0.55849 -0.579089 -0.603174 -0.596102 -0.70597 -0.552058
internal_weight=1614.24 831.351 782.885 466.62 364.73 204.907 320.097 149.454 254.5 194.538 128.941 121.952 215.277 104.37 146.523 100.087 577.978 163.881
internal_count=7161 3688 3473 2070 1618 909 1420 663 1129 863 572 541 955 463 650 444 2564 727
is_linear=0
shrinkage=1


Tree=1
num_leaves=19
num_cat=0
split_feature=39 12 39 35 17 30 15 26 38 28 29 26 26 11 21 26 10 39
split_gain=2126.75 346.398 92.9396 65.5532 42.8363 33.7291 31.034 20.5275 17.8717 21.8251 16.5692 16.3948 12.6809 11.1615 9.03065 16.2025 6.06642 1.616
threshold=0.04621408538533487 87.048826923809443 0.42763731121559989 5.2000000000000073 26.514285714285723 1.071666666666667 23.650000000000002 10.881666666666669 -0.25205528343633254 0.75000000000000011 0.45714285714285735 10.565000000000003 11.481666666666667 8.5236212219579723 35.928571428571438 10.831666666666669 554.75656505725544 -0.7614016681079937
decision_type=2 2 2 2 2 2 2 2 2 2 2 2 2 2 2 2 2 2
left_child=1 3 5 14 7 10 8 13 -5 11 -2 -10 17 -3 15 -1 -4 -6
right_child=2 4 16 6 12 -7 -8 -9 9 -11 -12 -13 -14 -15 -16 -17 -18 -19
leaf_value=0.066770151053626367 0.0080051579225662011 0.048740076451893981 -0.057082039776809146 -0.014120010522400845 0.096339841041814048 -0.043793118991453717 0.035434173438941334 0.032482390487083256 0.03255931771809549 -0.0080279062464313333 -0.022137680981805481 0.0039001269460099482 0.064492192328612308 0.077580895885355231 0.029083840355079969 0.032659756998312542 -0.03970348475700123 0.080119668236605046
leaf_weight=49.755277544260025 46.783674091100693 45.790755748748779 522.17676025629044 59.684529423713684 102.20429539680481 81.757165431976318 66.348411977291107 45.557558536529541 73.121981307864189 65.425109848380089 74.743442803621292 56.652485549449921 52.456016600131989 60.749537229537964 52.500508174300194 46.284562483429909 45.162063464522362 66.343980595469475
leaf_count=217 207 200 2361 266 440 368 291 200 321 291 334 251 228 263 230 203 203 287
internal_value=0.000543663 0.0444296 -0.0474523 0.0215046 0.0731598 -0.0240766 0.0112792 0.0560653 0.00487757 0.0107287 -0.0105631 0.0201738 0.0846189 0.0657537 0.0433946 0.0508373 -0.0557709 0.0904655
internal_weight=1613.5 842.875 770.623 469.773 373.102 203.284 321.233 152.098 254.884 195.2 121.527 129.774 221.004 106.54 148.54 96.0398 567.339 168.548
internal_count=7161 3688 3473 2070 1618 909 1420 663 1129 863 541 572 955 463 650 420 2564 727
is_linear=0
shrinkage=0.04


Tree=2
num_leaves=18
num_cat=0
split_feature=7 9 39 26 7 10 30 26 9 39 7 26 17 29 30 10 32
split_gain=1995.17 279.526 109.554 45.6193 43.171 42.5335 39.3006 30.5052 17.7751 17.5382 13.8145 13.5138 12.0147 9.85519 6.97879 5.93473 0.455812
threshold=1.9550000000000003 67.758557900509203 0.42763731121559989 11.438333333333336 3.8750000000000004 670.830285428308 1.2183333333333339 11.131666666666669 38.628510875866539 0.029024409397335523 2.3750000000000004 9.9550000000000036 23.921428571428574 0.74285714285714366 1.071666666666667 554.75656505725544 2.3350000000000004
decision_type=2 2 2 2 2 2 2 2 2 2 2 2 2 2 2 2 2
left_child=2 4 5 12 6 9 10 8 -6 -1 -2 -8 -3 -12 -11 -4 -14
right_child=1 3 15 -5 7 -7 11 -9 -10 14 13 -13 16 -15 -16 -17 -18
leaf_value=-0.0093468324793059034 0.009352282128147189 0.058566447353437613 -0.055935499508822394 0.045857091299721889 0.030201324666794496 0.012692107274012949 0.010978651344144517 0.012095134460836682 0.061917077116356321 -0.02796490714802943 0.047658945412202051 -0.014675736558370079 0.074450763006980489 0.023821313078428434 -0.047031083762486617 -0.038668284602792827 0.087625917630825792
leaf_weight=48.694782584905624 50.26176480948925 47.043913096189499 511.56846284866333 91.267583236098289 49.595922037959099 45.576690912246704 63.84107469022274 47.845383837819099 77.231197774410248 69.962906152009964 52.147266000509262 65.619774401187897 62.724723041057587 67.015956863760948 66.376459360122681 44.555415630340576 149.32415199279785
leaf_count=215 222 202 2360 393 217 203 281 209 333 313 226 290 266 294 303 203 631
internal_value=0.000516289 0.0439934 -0.0450138 0.0710425 0.0238737 -0.0217027 0.0145614 0.0396346 0.0498479 -0.0301974 0.0271826 -0.0020376 0.0797039 0.0345628 -0.0375221 -0.054624 0.0840964
internal_weight=1610.65 823.919 786.735 350.36 473.558 230.611 298.886 174.673 126.827 185.034 169.425 129.461 259.093 119.163 136.339 556.124 212.049
internal_count=7161 3564 3597 1492 2072 1034 1313 759 550 831 742 571 1099 520 616 2563 897
is_linear=0
shrinkage=0.04


Tree=3
num_leaves=17
num_cat=0
split_feature=7 12 39 35 10 26 39 7 39 7 30 26 30 10 17 21
split_gain=1846.21 250.138 105.859 42.6663 39.7911 34.1777 29.0322 25.6302 16.639 13.1933 11.5192 17.1245 6.74313 5.83352 3.39989 0.479542
threshold=1.9550000000000003 87.048826923809443 0.42763731121559989 5.2000000000000073 670.830285428308 11.438333333333336 -0.39036009226888674 4.3150000000000004 0.029024409397335523 3.0450000000000004 1.2183333333333339 9.9550000000000036 1.071666666666667 554.75656505725544 26.921428571428578 30.642857142857149
decision_type=2 2 2 2 2 2 2 2 2 2 2 2 2 2 2 2
left_child=2 3 4 9 8 6 14 10 -1 -2 -5 -12 -10 -4 -3 -11
right_child=1 5 13 7 -6 -7 -8 -9 12 15 11 -13 -14 -15 -16 -17
leaf_value=-0.0090063565505877612 0.023529390427534626 0.069064790288108469 -0.054867161193474158 0.016709402878151917 0.012146768556979088 0.042967744609335994 0.043244076752295219 0.03247953767175922 -0.027113631508892198 0.041452174664627479 0.013145069234287883 -0.01561375152496338 -0.045957351698979063 -0.03767213377575486 0.083245081087756814 0.052511792535835718
leaf_weight=48.554915726184845 64.275065004825592 91.170250758528709 500.90362131595612 86.05126191675663 45.759055987000465 87.93012423813343 50.169856429100037 74.833011776208878 69.317766308784485 47.356447294354439 61.767251774668694 69.178630590438843 65.256303131580353 43.943177714943886 150.78208930790424 48.969251096248627
leaf_count=215 279 383 2360 378 203 374 212 324 313 202 271 307 303 203 625 209
internal_value=0.000488427 0.0418077 -0.0439647 0.0216378 -0.0210097 0.065699 0.0723713 0.0124541 -0.0293156 0.0381455 0.00543082 -0.00205139 -0.0365227 -0.0535519 0.0782081 0.0475563
internal_weight=1606.22 832.483 773.735 452.431 228.888 380.052 292.122 291.83 183.129 160.601 216.997 130.946 134.574 544.847 241.952 96.3257
internal_count=7161 3564 3597 1970 1034 1594 1220 1280 831 690 956 578 616 2563 1008 411
is_linear=0
shrinkage=0.04


Tree=4
num_leaves=18
num_cat=0
split_feature=7 9 39 38 10 7 30 26 39 9 26 7 7 29 30 10 26
split_gain=1710.72 227.633 102.479 37.2887 37.2334 36.3301 33.2903 26.7629 15.7962 14.7117 12.2402 11.796 10.7076 9.19995 6.5273 5.75698 0.980881
threshold=1.9550000000000003 67.758557900509203 0.42763731121559989 0.21022171450811275 670.830285428308 3.8750000000000004 1.2116666666666673 11.131666666666669 0.029024409397335523 38.628510875866539 9.9550000000000036 2.3750000000000004 3.4050000000000007 0.74285714285714366 1.071666666666667 554.75656505725544 11.228333333333335
decision_type=2 2 2 2 2 2 2 2 2 2 2 2 2 2 2 2 2
left_child=2 5 4 12 8 6 11 9 -1 -7 -8 -2 -3 -13 -10 -4 -14
right_child=1 3 15 -5 -6 7 10 -9 14 -11 -12 13 16 -15 -16 -17 -18
leaf_value=-0.0086777167215653771 0.0083276651632949346 0.050709216537264921 -0.053867988954222068 0.037057923760185435 0.011627598511297566 0.027627392402213437 0.010231781534071322 0.01032068868872074 -0.026289662728472264 0.056213759201538677 -0.014026722870823731 0.044113479907462845 0.076361242290224937 0.02123592202033266 -0.044932419830754924 -0.036711693393284645 0.063071622697479721
leaf_weight=48.418717935681343 50.509150505065918 48.228548035025597 490.02570450305939 71.299688994884491 45.931147933006287 50.347552984952927 65.057545080780983 48.396428719162941 68.675235241651535 79.222668990492821 66.096475347876549 52.565800905227661 191.71622785925865 67.249994218349457 64.120943158864975 43.327821090817451 49.005975589156151
leaf_count=215 221 201 2360 300 203 217 284 209 313 333 294 223 786 291 303 203 205
internal_value=0.00046267 0.0398 -0.0429663 0.063794 -0.0203419 0.0216758 0.0131448 0.0359733 -0.0284643 0.0454025 -0.00200718 0.0247557 0.0702407 0.0315549 -0.0355599 -0.0525456 0.0739279
internal_weight=1600.2 839.696 760.5 360.25 227.146 479.446 301.479 177.967 181.215 129.57 131.154 170.325 288.951 119.816 132.796 533.354 240.722
internal_count=7161 3564 3597 1492 1034 2072 1313 759 831 550 578 735 1192 514 616 2563 991
is_linear=0
shrinkage=0.04


Tree=5
num_leaves=17
num_cat=0
split_feature=7 9 39 30 26 26 21 27 10 0 32 33 28 39 38 20
split_gain=1536.53 175.515 170.031 38.2044 35.5541 33.2067 29.546 16.785 14.0429 13.8794 9.3959 9.1188 7.80562 6.04777 5.03277 4.41237
threshold=2.3150000000000004 67.758557900509203 0.28313308994381586 1.2116666666666673 12.298333333333337 11.631666666666669 39.214285714285722 1.0000000180025095e-35 624.33985296028698 13.750000000000002 1.5250000000000001 2.1978571428571434 0.55000000000000016 -0.6652727025667432 0.89017062131308955 44.500000000000007
decision_type=2 2 2 2 2 2 2 2 2 2 2 2 2 2 2 2
left_child=2 4 3 9 6 11 7 13 14 -1 -9 -3 -8 -2 -4 -5
right_child=1 5 8 15 -6 -7 12 10 -10 -11 -12 -13 -14 -15 -16 -17
leaf_value=-0.0072934583485726734 0.054617042366818407 0.050502457161262435 -0.052832649200796306 -0.020371112972192133 -0.0086856350042069652 0.038651898935446467 0.019652729971554764 0.010222412173701297 -0.026756581436607366 0.018162711121523966 0.034012521857313537 0.072268075376795082 -0.00077725289882641714 0.035498376555982633 -0.037029034603544501 -0.038426828686373676
leaf_weight=76.687359198927879 60.223804205656052 49.281826630234718 512.36260078847408 52.367143228650093 51.308718800544739 84.678811356425285 65.857550695538521 50.481862425804138 42.564801514148712 60.394975394010544 58.033218532800674 210.40170557796955 54.029402494430542 65.891494393348694 45.7940274477005 43.217865273356438
leaf_count=343 253 204 2518 238 223 353 284 216 198 264 247 855 236 280 215 200
internal_value=-0.00130037 0.0402003 -0.0386612 -0.00957691 0.022293 0.0611781 0.0267883 0.0350232 -0.0498913 0.00397219 0.0231396 0.068347 0.0105153 0.044986 -0.0516046 -0.0288482
internal_weight=1583.58 750.188 833.389 232.667 405.826 344.362 354.517 234.63 600.721 137.082 108.515 259.684 119.887 126.115 558.157 95.585
internal_count=7127 3151 3976 1045 1739 1412 1516 996 2931 607 463 1059 520 533 2733 438
is_linear=0
shrinkage=0.04


Tree=6
num_leaves=17
num_cat=0
split_feature=7 9 39 30 26 21 26 11 10 12 2 30 39 38 20 10
split_gain=1425.6 164.008 156.233 34.8657 34.4389 30.9793 27.1488 14.3708 13.7814 13.169 9.06316 7.88749 6.67044 5.10313 3.87416 1.86885
threshold=2.2850000000000006 70.858248486334915 0.28313308994381586 1.2116666666666673 12.145000000000005 39.214285714285722 11.631666666666669 8.9614365345291116 624.33985296028698 70.256751726090059 37.500000000000007 1.2116666666666673 -0.54940789553007929 0.89017062131308955 43.500000000000007 401.88255052462625
decision_type=2 2 2 2 2 2 2 2 2 2 2 2 2 2 2 2
left_child=2 4 3 9 5 7 12 11 13 -1 -7 -2 15 -4 -5 -3
right_child=1 6 8 14 -6 10 -8 -9 -10 -11 -12 -13 -14 -15 -16 -17
leaf_value=-0.0062124973015891764 0.035507158822187787 0.058776307139828801 -0.051943789020219684 -0.019853829475303938 -0.0052646770046954339 0.021153919299061963 0.038380191652905765 0.048952459400782564 -0.025970655152193815 0.019675537973156246 -0.00050723117263505319 0.017714663473772343 0.051165020374045786 -0.035971341431510137 -0.037198772982358998 0.073179997369590771
leaf_weight=83.440080910921097 93.624720707535744 50.164333060383797 500.54150377213955 47.164262115955353 64.197580143809319 58.318085268139839 81.732382670044899 77.358124122023582 42.137817427515984 49.133901953697205 64.427501738071442 75.421931192278862 54.828383386135101 44.910951048135757 44.071631416678429 142.98196440935135
leaf_count=374 394 204 2518 216 279 251 338 321 198 213 280 321 223 214 207 576
internal_value=-0.00126398 0.0379599 -0.0381521 -0.00965717 0.0217057 0.0263976 0.0591932 0.0345566 -0.0489708 0.00345747 0.00987205 0.0277197 0.0658714 -0.0506969 -0.0285448 0.0697611
internal_weight=1574.46 763.055 811.4 223.81 433.348 369.15 329.707 246.405 587.59 132.574 122.746 169.047 247.975 545.452 91.2359 193.146
internal_count=7127 3187 3940 1010 1846 1567 1341 1036 2930 587 531 715 1003 2732 423 780
is_linear=0
shrinkage=0.04


Tree=7
num_leaves=18
num_cat=0
split_feature=7 9 39 17 26 30 21 27 10 31 12 29 32 26 39 17 29
split_gain=1326.56 171.926 115 34.1655 32.7575 32.4161 28.8893 17.6407 11.3107 8.91755 8.74769 8.55001 7.86541 7.19387 3.6505 1.67827 1.17659
threshold=2.0850000000000004 67.758557900509203 0.29958852271690523 23.678571428571441 12.298333333333337 1.1950000000000005 39.214285714285722 0.15000000000000005 586.47593347123154 1.4950000000000003 62.738165318274334 1.2285714285714289 1.5250000000000001 11.438333333333336 0.42763731121559989 26.921428571428578 0.90000000000000135
decision_type=2 2 2 2 2 2 2 2 2 2 2 2 2 2 2 2 2
left_child=2 4 5 -3 6 10 7 9 14 -2 -1 -8 -9 15 -4 -5 -11
right_child=1 3 8 13 -6 -7 11 12 -10 16 -12 -13 -14 -15 -16 -17 -18
leaf_value=-0.0076594611356011122 0.024290864780514045 0.029584360320279682 -0.036882046351299221 0.056855647331964666 -0.0098979398084868241 -0.031029725346967938 0.019976707179674189 0.0055938281773564268 -0.029237763221618543 0.051892696008386814 0.0152735446781006 0.00030444712152074784 0.027679453994087937 0.048039736951336683 -0.051361456384191123 0.068831842512907818 0.039275954625696809
leaf_weight=60.248707458376884 48.03921365737915 70.584218949079514 42.541360080242157 70.733444899320602 58.327749416232109 81.784501314163208 56.852200642228127 48.887525543570518 49.912428542971611 50.664499580860138 46.093140348792076 90.958355471491814 55.158648058772087 66.927214547991753 472.53705134987831 146.1997507661581 47.865903198719025
leaf_count=274 202 290 206 285 255 386 245 208 239 209 201 396 232 274 2439 586 200
internal_value=-0.0012277 0.034244 -0.0394297 0.0551182 0.0179604 -0.0122597 0.0220533 0.030304 -0.048439 0.0392457 0.00233038 0.00795436 0.0174543 0.0613412 -0.0502394 0.0652057 0.0462197
internal_weight=1564.32 811.199 753.117 354.445 456.754 188.126 398.426 250.616 564.991 146.57 106.342 147.811 104.046 283.86 515.078 216.933 98.5304
internal_count=7127 3382 3745 1435 1947 861 1692 1051 2884 611 475 641 440 1145 2645 871 409
is_linear=0
shrinkage=0.04


Tree=8
num_leaves=18
num_cat=0
split_feature=7 9 39 26 15 30 30 26 35 10 28 30 20 39 9 38 33
split_gain=1234.65 157.966 111.393 33.2613 38.9714 30.4049 26.8942 23.8006 17.4202 11.5301 10.6891 7.69167 6.3433 5.78203 4.65529 4.48248 0.973773
threshold=2.0850000000000004 70.858248486334915 0.29958852271690523 11.401666666666669 23.450000000000003 1.071666666666667 1.0183333333333338 11.438333333333336 4.5000000000000044 624.33985296028698 0.75000000000000011 1.2116666666666673 44.500000000000007 -0.54940789553007929 33.607733776778971 0.89017062131308955 2.6264285714285718
decision_type=2 2 2 2 2 2 2 2 2 2 2 2 2 2 2 2 2
left_child=2 3 5 4 8 14 -5 13 -2 15 11 -10 -7 16 -1 -4 -3
right_child=1 7 9 6 -6 12 -8 -9 10 -11 -12 -13 -14 -15 -16 -17 -18
leaf_value=-0.0044953070013503387 0.031529115847618597 0.055699060861794582 -0.050385729563532822 0.020860988248460978 0.045397888054880875 -0.017969099102862398 -0.018973321575091965 0.035752695533157963 0.025318374286701265 -0.025697420681774663 -0.0041625474745045511 0.0057966971823881722 -0.039483508561922752 0.047077905169875908 0.013170297552071488 -0.034136182281945628 0.067448437695339744
leaf_weight=47.509898036718369 78.675752624869347 58.687897771596909 474.50410355627537 47.132637426257133 96.116031244397163 51.883162140846252 61.122482761740685 92.845595896244049 65.50987534224987 39.298470929265022 63.647683277726173 64.263571724295616 41.573312297463417 57.284365847706795 46.20873998105526 38.330842986702919 128.71547168493271
leaf_count=217 328 236 2506 201 396 242 267 379 276 189 277 276 201 231 201 189 515
internal_value=-0.00119151 0.0327758 -0.0385843 0.017885 0.0236018 -0.0118375 -0.00159787 0.053681 0.0157645 -0.0476138 0.00922295 0.0157695 -0.0278563 0.0603106 0.00426195 -0.04924 0.0640841
internal_weight=1553.31 814.001 739.309 476.468 368.213 187.175 108.255 337.533 272.097 552.133 193.421 129.773 93.4565 244.688 93.7186 512.835 187.403
internal_count=7127 3382 3745 2021 1553 861 468 1361 1157 2884 829 552 443 982 418 2695 751
is_linear=0
shrinkage=0.04


Tree=9
num_leaves=17
num_cat=0
split_feature=7 7 9 26 22 15 38 30 26 10 12 18 30 34 38 38
split_gain=1151.31 131.74 116.164 31.7657 28.7845 27.9023 25.9739 22.9492 22.1242 21.8909 16.1107 8.06071 8.97972 5.88984 1.84031 1.83423
threshold=2.3750000000000004 1.2750000000000001 70.858248486334915 11.401666666666669 34.350000000000009 23.450000000000003 0.8697513045430848 1.2116666666666673 11.631666666666669 567.26151182401668 47.837560726104591 6.870000000000001 1.3350000000000004 2.1590000000000003 0.85673801594079257 -0.77245553105869302
decision_type=2 2 2 2 2 2 2 2 2 2 2 2 2 2 2 2
left_child=1 9 3 5 -3 6 10 -5 13 14 -2 -6 -13 -4 -1 -15
right_child=2 4 8 7 11 -7 -8 -9 -10 -11 -12 12 -14 15 -16 -17
leaf_value=-0.049702613753033191 -0.0055399764995943505 0.017532140745419235 0.043731674673592819 0.018716697484993574 -0.029157371596953651 0.044613330130541605 0.037794553856704674 -0.019983838255136759 0.033418295688640319 -0.02388871424590127 0.020323465018124261 -0.0038936491368064823 -0.025098420326461007 0.052701083778627006 -0.037650603844579758 0.06511242430610692
leaf_weight=438.75013849139214 67.213396281003952 46.748751416802406 50.192908689379692 49.851893320679665 60.72376848757267 93.428482264280319 75.029884114861488 46.338625624775887 82.937769666314125 67.347773015499115 88.236238569021225 88.767578899860382 49.332839667797089 62.869382530450821 38.962221726775169 134.8415118008852
leaf_count=2373 290 201 202 211 297 382 314 204 337 326 368 399 233 252 198 540
internal_value=-0.00115841 -0.034826 0.034288 0.0202512 -0.0104446 0.0262289 0.0186159 5.93892e-05 0.051997 -0.0457717 0.00917668 -0.0170775 -0.0115945 0.0580534 -0.0488004 0.0614509
internal_weight=1541.57 790.633 750.94 420.099 245.573 323.908 230.48 96.1905 330.842 545.06 155.45 198.824 138.1 247.904 477.712 197.711
internal_count=7127 4027 3100 1769 1130 1354 972 415 1331 2897 658 929 632 994 2571 792
is_linear=0
shrinkage=0.04


Tree=10
num_leaves=19
num_cat=0
split_feature=39 12 10 38 39 26 33 19 26 22 12 18 36 36 4 21 38 10
split_gain=1074.11 169.07 76.3036 33.3914 30.7845 30.4422 24.8964 23.2783 14.7795 11.6759 10.8398 17.9056 10.4704 6.27394 2.66865 2.58366 2.25487 1.89119
threshold=0.04621408538533487 87.048826923809443 709.543931153534 -0.75015329512557194 0.42763731121559989 12.298333333333337 2.5892857142857149 30.500000000000004 10.778333333333334 30.383333333333336 47.837560726104591 12.950000000000001 32.150000000000013 34.45000000000001 31.150000000000002 49.642857142857146 -0.58482361983252518 493.63094956847152
decision_type=2 2 2 2 2 2 2 2 2 2 2 2 2 2 2 2 2 2
left_child=1 3 4 -1 12 7 8 13 9 -3 11 -9 15 -5 16 -2 -8 -6
right_child=2 6 -4 5 17 -7 14 10 -10 -11 -12 -13 -14 -15 -16 -17 -18 -19
leaf_value=-0.012686261910395078 -0.024279972403687494 0.057213213451648273 0.014700572256274072 0.046382507965728265 -0.049127860010642198 -0.0088426762454822273 0.042683961976687036 0.022343808420869617 0.017025812932064663 0.030491593806050564 0.026123467622895691 -0.0043356292081606507 -0.038802157252916719 0.026531932642159032 0.061871970658438712 -0.010133710555382104 0.057326961804327566 -0.037437231482900291
leaf_weight=70.60016918182373 44.937908709049225 53.839302644133568 38.778604924678802 54.150918006896973 412.31913667917252 61.912521123886108 55.775050356984138 74.712831646203995 50.199633300304413 59.639922231435776 81.353906810283661 85.355861857533455 69.327450841665268 59.259190440177917 116.3144693672657 41.943995282053947 56.708324775099754 42.126243442296982
leaf_count=316 206 217 177 223 2297 271 224 320 205 241 338 369 353 246 468 201 228 224
internal_value=-0.000395647 0.028393 -0.0393809 0.0126158 -0.0428337 0.0169223 0.0479021 0.02143 0.0355738 0.0435585 0.0143084 0.00817854 -0.0272211 0.0363327 0.0565284 -0.0176436 0.0505063 -0.0481287
internal_weight=1529.26 879.822 649.433 487.345 610.655 416.745 392.477 354.833 163.679 113.479 241.423 160.069 156.209 113.41 228.798 86.8819 112.483 454.445
internal_count=7124 3666 3458 2083 3281 1767 1583 1496 663 458 1027 689 760 469 920 407 452 2521
is_linear=0
shrinkage=0.04


Tree=11
num_leaves=19
num_cat=0
split_feature=39 12 10 19 39 17 38 26 26 12 40 22 30 26 4 21 10 25
split_gain=1002.87 156.347 72.8413 31.5414 30.5646 23.3848 22.0902 26.7422 12.9153 12.6834 16.0715 11.2213 10.0873 6.20488 3.34476 2.4277 1.93209 1.62049
threshold=0.04621408538533487 87.048826923809443 709.543931153534 28.500000000000004 0.42763731121559989 26.921428571428578 -0.63921128368950708 12.011666666666668 10.881666666666669 47.837560726104591 4.5000000000000009 30.583333333333339 1.071666666666667 11.161666666666669 30.800000000000004 49.642857142857146 493.63094956847152 9.3928571428571477
decision_type=2 2 2 2 2 2 2 2 2 2 2 2 2 2 2 2 2 2
left_child=1 3 4 13 12 8 -5 9 11 10 -8 -3 15 -1 17 -2 -6 -7
right_child=2 5 -4 6 16 14 7 -9 -10 -11 -12 -13 -14 -15 -16 -17 -18 -19
leaf_value=0.039375963456739126 -0.023530134278364329 0.053516950757422042 0.014059026573976221 -0.013806083986374474 -0.048458065186387005 0.054604395334350027 0.020920422223781432 -0.015958168279097528 0.017525120369977581 0.028326820507547805 -0.0038368183441241815 0.028117644120563241 -0.037955631987485798 0.019978434991875026 0.060454943295355446 -0.0097776804938599898 -0.036655309756007191 0.041144558887823306
leaf_weight=59.930612549185753 44.554897233843803 63.405792117118835 38.967897906899452 69.22851537168026 401.52991804480553 51.94567696750164 90.879567638039589 48.388505637645721 52.258746311068535 89.323411077260971 76.720208287239075 57.006937757134438 68.086335450410843 53.72244681417942 113.70597524940968 41.772398293018341 41.341218769550323 54.131621181964874
leaf_count=245 206 255 177 311 2297 209 386 214 213 368 332 230 353 227 458 201 224 218
internal_value=-0.000385959 0.0272472 -0.0386162 0.012096 -0.0420706 0.0460159 0.00645685 0.0110815 0.0346124 0.0162162 0.00963205 0.0418228 -0.0264606 0.0304612 0.0547776 -0.0170637 -0.0474414 0.0481842
internal_weight=1516.9 880.648 636.253 488.193 597.285 392.455 374.54 305.312 172.671 256.923 167.6 120.413 154.414 113.653 219.783 86.3273 442.871 106.077
internal_count=7124 3666 3458 2083 3281 1583 1611 1300 698 1086 718 485 760 472 885 407 2521 427
is_linear=0
shrinkage=0.04


Tree=12
num_leaves=18
num_cat=0
split_feature=39 12 10 39 29 33 12 8 10 26 22 30 5 29 10 21 39
split_gain=936.88 144.912 69.9181 29.9683 29.1366 22.1165 17.9259 17.6857 17.9257 12.7598 10.0533 9.71979 9.47835 7.71582 2.82531 2.67847 2.58726
threshold=0.04621408538533487 87.048826923809443 712.30550681697457 0.42763731121559989 1.47857142857143 2.5892857142857149 44.817599794784478 90.948396887316036 212.20840453880817 10.778333333333334 30.383333333333336 1.071666666666667 1.0000000180025095e-35 2.5357142857142869 493.63094956847152 49.642857142857146 -0.75013812021657655
decision_type=2 2 2 2 2 2 2 2 2 2 2 2 2 2 2 2 2
left_child=1 4 3 11 7 9 13 8 12 10 -3 15 -1 -6 -5 -2 -7
right_child=2 5 -4 14 6 16 -8 -9 -10 -11 -12 -13 -14 -15 -16 -17 -18
leaf_value=0.031507824121633478 -0.023394674921031085 0.052754085088995935 0.015571307978577765 -0.047820087295920577 -0.020616901796852428 0.05607806676133812 0.013895469057184019 0.034380031940158581 -0.0078340161792739924 0.015503874747237115 0.028005218072567742 -0.037199151495605591 0.010203611574330407 -0.0004771031752461913 -0.034677416202174849 -0.0090667714641489011 0.044497306305302166
leaf_weight=63.327333778142929 44.862731099128723 53.944314271211624 36.37655907869339 390.84119296073914 54.232137307524681 151.61557008326054 90.023001566529274 92.126887142658234 48.712458327412605 50.410696431994438 59.808000266551971 67.069929048418999 72.5450758934021 67.904447212815285 41.97712005674839 42.064783796668053 76.19170731306076
leaf_count=265 209 217 164 2297 241 613 382 376 208 205 241 354 308 303 231 203 307
internal_value=-0.00037693 0.0261662 -0.0378758 -0.0412098 0.0116004 0.0442572 0.000437312 0.020127 0.0128663 0.0326862 0.0400992 -0.0257781 0.0202907 -0.00951456 -0.0466283 -0.0166433 0.0524162
internal_weight=1504.03 880.842 623.192 586.816 488.871 391.97 212.16 276.712 184.585 164.163 113.752 153.997 135.872 122.137 432.818 86.9275 227.807
internal_count=7124 3666 3458 3294 2083 1583 926 1157 781 663 458 766 573 544 2528 412 920
is_linear=0
shrinkage=0.04


Tree=13
num_leaves=20
num_cat=0
split_feature=39 9 10 19 39 26 38 26 15 11 26 36 39 31 33 13 10 26 32
split_gain=875.518 129.212 66.7253 30.5309 29.7889 26.1556 30.5314 20.7298 20.1829 15.2178 10.8479 9.36988 9.35809 4.3323 3.60079 3.09514 2.86841 2.37279 1.22701
threshold=0.04621408538533487 70.858248486334915 712.30550681697457 28.500000000000004 0.42763731121559989 11.481666666666667 -0.92274349529687905 11.481666666666667 23.450000000000003 3.1172290327230194 11.161666666666669 32.150000000000013 -0.49812626372919411 0.93500000000000016 2.7135714285714294 34.625001907472672 493.63094956847152 9.2966666666666686 2.6650000000000005
decision_type=2 2 2 2 2 2 2 2 2 2 2 2 2 2 2 2 2 2 2
left_child=1 3 4 10 11 6 -5 14 9 13 -1 17 -11 -8 15 -3 -6 -2 -16
right_child=2 7 -4 5 16 -7 8 -9 -10 12 -12 -13 -14 -15 18 -17 -18 -19 -20
leaf_value=0.03989559139377704 -0.0090696741551549494 0.034533892913773401 0.014892422924068323 -0.011583654234846245 -0.047211137620044738 -0.015166079055999879 -0.0081499598307717778 0.027425926177136798 0.040284267451782603 0.010914439973615497 0.015680066504700489 -0.036399631744539709 0.032716664031435999 0.0088826186337690322 0.04651863751573098 0.050259382737056803 -0.033934254799859363 -0.022613305071950009 0.058781933771393312
leaf_weight=73.18803334236145 42.729155153036118 49.993999823927879 36.555266425013542 69.530352264642715 380.27409011125565 67.2665144354105 47.048061102628708 91.74046678841114 51.650910928845406 66.85149073600769 52.603965297341347 65.848292633891106 61.252280458807945 46.529701843857765 49.351094707846642 59.091158807277679 41.217965126037598 43.653574705123901 94.578320503234863
leaf_count=297 206 201 164 308 2297 296 205 369 211 279 221 354 253 201 201 238 231 206 386
internal_value=-0.000369549 0.0251362 -0.0371571 0.0128078 -0.0404937 0.00748308 0.0119578 0.0442082 0.0179667 0.0126092 0.0299726 -0.0250578 0.0215117 0.000323527 0.0501613 0.0434315 -0.0459962 -0.0160944 0.054927
internal_weight=1490.95 880.676 610.278 535.921 573.723 410.129 342.863 344.755 273.332 221.682 125.792 152.231 128.104 93.5778 253.015 109.085 421.492 86.3827 143.929
internal_count=7124 3666 3458 2271 3294 1753 1457 1395 1149 938 518 766 532 406 1026 439 2528 412 587
is_linear=0
shrinkage=0.04


Tree=14
num_leaves=20
num_cat=0
split_feature=7 12 9 7 26 29 26 38 30 27 22 12 31 3 37 32 7 15 10
split_gain=815.764 127.695 75.5552 21.4032 21.0153 15.7422 14.7889 12.7179 12.0373 10.9445 9.92443 9.83785 6.55976 3.72424 4.31856 4.00286 3.46715 3.43129 1.56225
threshold=1.8450000000000004 87.048826923809443 9.7901039777972514 2.7850000000000006 11.438333333333336 1.4071428571428586 10.621666666666668 0.9053161325100999 1.2116666666666673 0.25000000000000006 32.716666666666676 65.771532855258542 1.5250000000000001 10.950000000000001 8.5000000000000018 2.4650000000000003 1.2050000000000003 12.950000000000001 493.63094956847152
decision_type=2 2 2 2 2 2 2 2 2 2 2 2 2 2 2 2 2 2 2
left_child=2 3 7 8 10 9 -7 18 17 12 13 16 -5 14 15 -3 -4 -2 -1
right_child=1 4 11 5 -6 6 -8 -9 -10 -11 -12 -13 -14 -15 -16 -17 -18 -19 -20
leaf_value=-0.046628513038311399 0.00070193193532170782 0.031423175702922551 -0.024575959495550862 0.018852294915151998 0.024455309960695441 0.016540207475433732 -0.010545357338252506 -0.026060984484022019 -0.013219150823137793 0.0092610295833609399 0.029490535847092519 0.0068833011717852532 0.038180294185212654 0.059142528994073268 0.055986519260569481 0.048009229649108594 -0.0078763696720255145 0.015934536059103072 -0.03478367870213598
leaf_weight=381.2287845313549 46.858868718147278 52.390704721212387 40.501631185412407 49.264485642313957 92.42804953455925 84.732416912913322 50.848185479640961 65.589793041348457 71.668053328990936 54.697326332330704 50.067762553691864 44.223102167248726 77.388406828045845 70.289643123745918 58.645333632826805 63.946217611432076 40.873324871063232 46.992937758564949 34.73847171664238
leaf_count=2358 205 212 210 203 372 355 221 334 327 227 203 198 314 287 240 261 199 200 198
internal_value=-0.000360053 0.0244571 -0.0359115 0.0106843 0.0415213 0.016757 0.0063792 -0.0431063 -0.000974485 0.0244382 0.0467616 -0.00820287 0.0308688 0.0501531 0.0462266 0.0408714 -0.0163855 0.0084167 -0.0457251
internal_weight=1477.37 870.218 607.155 482.451 387.768 316.931 135.581 481.557 165.52 181.35 295.34 125.598 126.653 245.272 174.982 116.337 81.375 93.8518 415.967
internal_count=7124 3627 3497 2052 1575 1320 576 2890 732 744 1203 607 517 1000 713 473 409 405 2556
is_linear=0
shrinkage=0.04


Tree=15
num_leaves=20
num_cat=0
split_feature=7 13 9 30 26 7 8 9 25 21 20 26 34 31 33 38 38 9 38
split_gain=762.271 146.223 47.4528 29.6163 28.3153 24.73 23.7452 21.9723 14.8711 15.1457 10.8686 11.1596 10.065 6.9805 6.08683 4.60942 4.57232 1.29904 0.311785
threshold=1.5850000000000002 23.99237884079924 8.3392007917488407 1.2183333333333339 11.401666666666669 4.2550000000000008 94.338362795193888 7.7918454993386321 12.092857142857145 39.214285714285722 48.500000000000007 9.9550000000000036 2.1590000000000003 1.3550000000000002 0.75071428571428589 0.89017062131308955 -0.63921128368950708 107.41600172097237 -0.61237985104942771
decision_type=2 2 2 2 2 2 2 2 2 2 2 2 2 2 2 2 2 2 2
left_child=2 3 15 7 12 10 -6 -2 9 13 11 -5 -3 -9 -4 18 17 -14 -1
right_child=1 4 14 5 6 -7 -8 8 -10 -11 -12 -13 16 -15 -16 -17 -18 -19 -20
leaf_value=-0.040199457396626552 -0.0066283838495253093 0.034102502102561251 -0.024351959526794375 0.0074760155839116368 0.0034549718983070236 0.019454786325297353 0.040309782852418728 0.024407571399385545 0.003039495400446221 0.0094370833967552387 -0.026798964135309102 -0.015248545682229114 0.038168613680971075 0.044904130788366581 -0.0051221703428386209 -0.030308660583680341 0.058011352938519202 0.050349216599101222 -0.046700588342111493
leaf_weight=74.511261001229286 51.747142285108566 88.224118784070015 48.476484328508377 66.317000821232796 55.170119777321815 60.231845781207085 56.16630420088768 53.798173934221268 50.112126633524895 50.830123141407967 44.797727391123772 70.237315654754639 57.127716988325119 63.406724274158478 57.783235803246498 43.747088149189949 100.93745189905167 49.718973189592361 310.13670699298382
leaf_count=458 245 356 255 289 226 249 226 222 209 216 211 317 232 258 274 233 418 204 1978
internal_value=-0.000203182 0.0218873 -0.0381364 0.00762059 0.0397386 -0.00255203 0.0222406 0.016702 0.0222412 0.0279158 -0.00992769 -0.00423834 0.046223 0.0357821 -0.0140402 -0.0440667 0.0511813 0.0442509 -0.0455487
internal_weight=1453.48 918.823 534.655 511.478 407.345 241.584 111.336 269.894 218.147 168.035 181.352 136.554 296.008 117.205 106.26 428.395 207.784 106.847 384.648
internal_count=7076 3878 3198 2216 1662 1066 452 1150 905 696 817 606 1210 480 529 2669 854 436 2436
is_linear=0
shrinkage=0.04


Tree=16
num_leaves=20
num_cat=0
split_feature=7 12 9 7 33 26 4 28 26 30 8 33 1 4 38 6 24 38 38
split_gain=714.324 137.06 46.5949 29.4556 18.8163 16.5055 13.0808 10.2496 14.1642 9.82901 8.81522 6.44206 3.73978 3.7391 3.73066 3.69134 1.61973 0.109897 0.267258
threshold=1.5850000000000002 89.946785476073174 7.2064306500000006 2.3750000000000004 2.7135714285714294 12.298333333333337 37.250000000000007 1.5500000000000003 10.015000000000002 1.2283333333333339 90.827556243390219 0.75071428571428589 2.2500000000000004 30.800000000000004 0.89017062131308955 1.4750000000000003 10.450000000000001 -0.61237985104942771 -0.76141707087277943
decision_type=2 2 2 2 2 2 2 2 2 2 2 2 2 2 2 2 2 2 2
left_child=2 3 14 9 10 6 7 8 -5 12 -3 -4 -2 -6 17 -8 -12 18 -1
right_child=1 4 11 5 13 -7 15 -9 -10 -11 16 -13 -14 -15 -16 -17 -18 -19 -20
leaf_value=-0.044409143161302005 -0.0067866644876115444 0.015896225177235421 -0.024227525051123053 0.027651258833225393 0.041301936091431825 -0.0059208685530379125 0.021039605136270949 -0.0013073891476659992 0.0053490809363222914 -0.019793547916864117 0.041065440023122547 -0.0050608489996922254 0.0092764024378134101 0.054320019416168118 -0.030828912488400841 0.037417602936014066 0.029633688055735023 -0.046154711039536132 -0.03368312054582779
leaf_weight=35.351902306079865 44.950216487050056 52.587742894887924 54.747454509139061 95.889384537935257 90.174405470490456 56.625814691185951 49.372803464531898 65.286908507347107 87.124118506908417 56.423579052090645 62.942969113588333 57.839665412902832 45.84768745303154 105.62618681788445 42.11043493449688 49.582484260201454 54.447463467717171 300.57723368704319 32.132832154631615
leaf_count=220 213 213 295 395 373 246 206 275 360 277 256 275 204 437 228 202 221 1974 206
internal_value=-0.00019947 0.0210699 -0.0374734 0.00844272 0.0400198 0.0140168 0.0172756 0.0122897 0.017121 -0.00684035 0.02995 -0.0145122 0.00133695 0.048565 -0.0437253 0.0295382 0.0360583 -0.0451132 -0.0398684
internal_weight=1439.64 916.882 522.76 551.103 365.779 403.882 347.256 248.3 183.014 147.221 169.978 112.587 90.7979 195.801 410.172 98.9553 117.39 368.062 67.4847
internal_count=7076 3878 3198 2378 1500 1684 1438 1030 755 694 690 570 417 810 2628 408 477 2400 426
is_linear=0
shrinkage=0.04


Tree=17
num_leaves=21
num_cat=0
split_feature=39 13 21 9 12 25 36 1 7 31 7 36 29 36 15 39 38 38 29 38
split_gain=669.646 143.666 33.5953 24.6415 19.9626 18.4991 21.8752 12.0249 11.4861 10.8078 8.95115 8.06555 7.40432 6.82002 4.94367 5.16251 4.03173 0.433165 0.257303 0.103283
threshold=0.2332836900311728 23.99237884079924 39.500000000000007 7.2064306500000006 108.95694799284358 12.092857142857145 36.550000000000018 12.65 2.1050000000000004 1.2550000000000001 3.8950000000000005 34.050000000000018 1.2285714285714289 28.550000000000011 26.050000000000004 -0.72694848937061807 0.86548282553247169 -0.61237985104942771 0.099999999999999825 -0.76141707087277943
decision_type=2 2 2 2 2 2 2 2 2 2 2 2 2 2 2 2 2 2 2 2
left_child=1 2 5 16 7 6 9 -3 11 -1 -8 -4 -10 -5 -6 18 17 19 -16 -2
right_child=3 4 8 13 14 -7 10 -9 12 -11 -12 -13 -14 -15 15 -17 -18 -19 -20 -21
leaf_value=0.016499691428580952 -0.043091675830997364 0.012526969527684999 -0.0024129362282322695 -0.0065326288970278812 0.03510608723309315 -0.0027293147047390293 -0.0065655355390568503 0.035823964621809465 0.014070341091410171 0.040621093248775983 0.017620832887249395 -0.024314842470733879 -0.0046896682353503383 -0.030424868379754524 0.047741481407141489 0.03733119893650115 -0.031018298813788536 -0.045828801451713849 0.058460819600554909 -0.033048507906411256
leaf_weight=51.385402873158455 31.450847432017326 68.451759114861488 48.074985206127167 41.004814863204956 87.602320194244385 72.520574629306793 46.692823454737663 76.330276980996132 53.488535314798355 77.252803206443787 49.560186371207237 60.791591256856918 87.189505189657211 36.00393408536911 55.785193040966988 61.286164313554764 50.258543029427528 284.08093011379242 55.53618323802948 31.472538083791733
leaf_count=214 203 279 220 204 358 312 201 311 227 315 203 313 379 204 233 253 286 1922 233 206
internal_value=-0.000197644 0.0191454 0.00575302 -0.0389812 0.0371735 0.0148124 0.020456 0.0249708 -0.00506008 0.0311872 0.00594104 -0.0147531 0.00249222 -0.0179498 0.0438416 0.0480473 -0.0430028 -0.0446444 0.053562 -0.0386639
internal_weight=1426.22 951.948 546.956 474.272 404.992 297.412 224.891 144.782 249.545 128.638 96.253 108.867 140.678 77.0087 260.21 172.608 397.263 347.004 111.321 62.9234
internal_count=7076 4051 2384 3025 1667 1245 933 590 1139 529 404 533 606 408 1077 719 2617 2331 466 409
is_linear=0
shrinkage=0.04


Tree=18
num_leaves=20
num_cat=0
split_feature=7 13 12 30 7 26 12 25 26 7 11 22 12 38 33 22 22 22 10
split_gain=628.823 120.038 42.2318 22.7491 29.3407 20.7361 18.3051 11.3071 10.7594 8.83705 8.20605 7.51488 12.618 6.53724 5.40225 4.89616 3.16793 3.69769 1.63699
threshold=1.5850000000000002 28.686447247137536 16.960625287697507 1.2116666666666673 4.2550000000000008 11.438333333333336 7.7214461502533407 12.092857142857145 9.9550000000000036 2.6050000000000004 3.7543818204311967 30.983333333333338 61.039578320409056 0.89017062131308955 0.75071428571428589 30.583333333333339 27.350000000000005 24.083333333333339 493.63094956847152
decision_type=2 2 2 2 2 2 2 2 2 2 2 2 2 2 2 2 2 2 2
left_child=2 3 13 6 8 15 -2 11 9 -5 -10 -8 -13 18 -4 16 17 -3 -1
right_child=1 5 14 4 -6 -7 7 -9 10 -11 -12 12 -14 -15 -16 -17 -18 -19 -20
leaf_value=-0.044796877571019175 -0.0061721003150419862 0.052855244236573312 -0.023069090605639202 -0.01191207290616003 0.020469137942888561 0.022266807338832764 0.03617915567623451 0.0044480651526573288 -0.0067285530366934876 0.012320492681143574 -0.030623629852896836 0.027855905110611687 0.0028305080936273587 -0.026410826283701439 -0.0041560375397425757 0.035494455295396181 0.058431168707271379 0.036064713810437229 -0.032295557396081608
leaf_weight=326.47191146016121 50.739136204123497 49.710366323590279 42.587152048945427 45.143836870789528 76.577945843338966 94.788165047764778 61.331378474831581 58.905766934156418 48.134863421320915 49.357707098126411 44.342634692788124 91.59078748524189 49.832112073898315 44.463468715548515 55.46176815032959 79.432762250304222 52.221244484186172 60.554687410593033 30.826044142246246
leaf_count=2265 242 212 231 214 314 384 251 245 221 207 204 377 206 245 265 327 219 255 192
internal_value=-0.000195086 0.0195506 -0.0362182 0.00843194 -0.00022848 0.0384885 0.0157157 0.0199674 -0.00876906 0.000740962 -0.0183912 0.0244323 0.0191197 -0.0419561 -0.0125208 0.0447267 0.0489952 0.0440413 -0.0438115
internal_weight=1412.47 912.663 499.81 575.956 263.557 336.707 312.399 261.66 186.979 94.5015 92.4775 202.754 141.423 401.761 98.0489 241.919 162.486 110.265 357.298
internal_count=7076 3878 3198 2481 1160 1397 1321 1079 846 421 425 834 583 2702 496 1013 686 467 2457
is_linear=0
shrinkage=0.04


Tree=19
num_leaves=20
num_cat=0
split_feature=39 9 21 26 9 26 7 27 15 30 26 22 21 30 29 9 30 38 19
split_gain=591.594 125.104 40.4919 30.7049 24.0843 16.9651 11.6204 11.2621 10.8268 13.1018 7.63867 7.62996 7.14961 6.37422 5.16573 4.34522 5.38865 4.11027 0.655703
threshold=0.2332836900311728 70.858248486334915 39.214285714285722 10.565000000000003 7.2064306500000006 11.438333333333336 2.1050000000000004 1.0000000180025095e-35 24.050000000000004 1.2183333333333339 9.8783333333333356 37.583333333333343 24.214285714285719 0.9450000000000004 1.2285714285714289 110.2901992042455 0.74166666666666703 0.86548282553247169 82.500000000000014
decision_type=2 2 2 2 2 2 2 2 2 2 2 2 2 2 2 2 2 2 2
left_child=1 2 3 8 17 12 10 -5 9 -1 -4 -8 -3 -6 -13 16 -14 18 -2
right_child=4 5 6 7 13 -7 11 -9 -10 -11 -12 14 15 -15 -16 -17 -18 -19 -20
leaf_value=0.02909624232410021 -0.044497734506028536 0.052202996519679412 -0.0060935388973860525 0.01269892971026613 -0.0055857371811087186 0.022100994662657119 -0.011109565303945952 -0.0086689850102987086 0.039575627413564449 0.0032759753313268388 -0.027816925331255318 0.017240854059000103 0.02213707020811154 -0.028850183459507545 -0.00064087120469123477 0.04713040393154877 0.041169254057715425 -0.029760429649321851 -0.034430689915268424
leaf_weight=82.760295391082764 296.44492225348949 90.532800763845444 63.53623765707016 80.931056767702103 39.653310254216194 90.024242907762527 46.924273788928986 75.18999932706356 64.627038732171059 50.789499431848526 43.613802298903465 50.125450149178505 53.570996850728989 35.974768981337547 52.141118839383125 51.21600778400898 50.705161809921265 48.745397821068764 31.245094433426857
leaf_count=338 2111 390 316 338 199 363 202 324 262 211 216 212 223 209 227 217 212 286 220
internal_value=-0.000191299 0.0177826 0.00697249 0.0157162 -0.0377874 0.0373467 -0.00512667 0.00241818 0.0261275 0.019374 -0.0151112 0.00209714 0.0428133 -0.0168842 0.00820585 0.0370476 0.0316948 -0.0419311 -0.0436455
internal_weight=1398.75 946.688 610.639 354.298 452.063 336.049 256.341 156.121 198.177 133.55 107.15 149.191 246.025 75.6281 102.267 155.492 104.276 376.435 327.69
internal_count=7076 4051 2646 1473 3025 1405 1173 662 811 549 532 641 1042 408 439 652 435 2617 2331
is_linear=0
shrinkage=0.04


Tree=20
num_leaves=21
num_cat=0
split_feature=6 21 9 26 26 8 6 18 30 33 28 38 38 38 29 38 12 12 22 31
split_gain=549.164 91.6398 43.0835 30.4564 21.4721 19.5252 19.453 18.1863 15.1915 12.9748 10.7662 7.22154 6.90386 5.93021 5.69998 5.61339 11.4222 1.09255 1.09099 0.861117
threshold=0.75500000000000012 34.642857142857146 6.5112095400000003 11.570000000000002 10.015000000000002 94.338362795193888 1.7250000000000003 24.205000000000002 1.1033333333333337 1.7807142857142859 0.15000000000000005 0.63920241694561786 -0.77245553105869302 0.89017062131308955 1.992857142857144 0.96234642434711437 32.795560668861732 6.3815019029860638 52.350000000000009 2.9850000000000008
decision_type=2 2 2 2 2 2 2 2 2 2 2 2 2 2 2 2 2 2 2 2
left_child=2 3 13 7 6 9 10 11 -6 -5 -3 -2 -9 17 -10 16 18 -1 -4 -14
right_child=1 4 15 5 8 -7 -8 12 14 -11 -12 -13 19 -15 -16 -17 -18 -19 -20 -21
leaf_value=-0.044474336636513415 0.015692446335445857 0.013014526680471717 -0.037190566661828094 0.019073244884657233 0.0070836692536703398 0.033940891459152203 0.031189837613615292 0.031423348072025813 -0.029022338721768803 -0.0087519002325685408 -0.0078681690905471977 0.033891667566171846 0.042025708581211942 -0.023678897696364404 -0.0085970877501730086 -0.005290780523119795 -0.0068473964725964502 -0.034255090878016869 -0.025052674382192889 0.051684499469514984
leaf_weight=271.21484458446503 80.369682922959328 88.465953722596169 36.423993349075317 49.29816098511219 57.9237080514431 52.636030703783035 55.451907783746719 72.600631043314934 44.760701879858971 56.532625094056129 69.836504235863686 65.584918230772018 71.852686181664467 31.09242781996727 44.140591084957123 48.76044425368309 51.48803748190403 38.696797221899033 35.729126900434494 81.862964808940887
leaf_count=1999 329 391 204 207 246 213 226 304 207 233 314 267 307 175 200 231 253 270 227 360
internal_value=-0.000444582 0.0185315 -0.0333608 0.0290877 0.00295638 0.0142743 0.0110253 0.0353383 -0.00878582 0.00426684 0.00381038 0.0240453 0.0424835 -0.0415969 -0.0190894 -0.0169241 -0.0214326 -0.0433126 -0.0316047 0.0474704
internal_weight=1404.72 891.317 513.406 530.738 360.579 158.467 213.754 372.271 146.825 105.831 158.302 145.955 226.316 341.004 88.9013 172.402 123.641 309.912 72.1531 153.716
internal_count=7163 3804 3359 2220 1584 653 931 1567 653 440 705 596 971 2444 407 915 684 2269 431 667
is_linear=0
shrinkage=0.04


Tree=21
num_leaves=21
num_cat=0
split_feature=39 9 21 39 26 26 27 30 7 21 3 18 26 18 12 30 26 38 34 10
split_gain=515.728 108.08 30.1528 22.93 20.7488 20.4115 17.1873 10.4445 8.46137 8.02097 7.72223 7.56914 7.46306 6.47956 9.81923 5.07413 4.02654 2.74064 0.997019 1.51097
threshold=0.2332836900311728 65.697887211390722 39.214285714285722 0.51849435583340198 12.298333333333337 11.570000000000002 0.15000000000000005 1.0850000000000004 1.5850000000000002 30.071428571428573 11.15 7.5816666666666679 9.9850000000000012 9.7033333333333349 47.095864824294047 1.8750000000000004 10.381666666666669 -0.61237985104942771 2.3408333333333338 590.01541002243096
decision_type=2 2 2 2 2 2 2 2 2 2 2 2 2 2 2 2 2 2 2 2
left_child=1 2 4 7 6 9 10 11 -4 18 12 -2 -1 -10 15 -15 -8 -5 -3 -20
right_child=3 5 8 17 -6 -7 16 -9 13 -11 -12 -13 -14 14 -16 -17 -18 -19 19 -21
leaf_value=0.028993840207208028 -0.025574358696312784 0.035427170832554984 -0.020453092036322364 -0.033007254451187455 -0.0100357883377426 0.016461677719919538 0.011671376889562005 -0.037100253667621499 0.010639331503688666 0.025591272872174407 0.037712229246180257 -0.00077096397977777838 0.0074009460958256472 -0.020046672796400072 0.0090027800313223702 -0.002424321655742261 -0.0032582967414413267 -0.044384157722085121 0.049802392463273046 0.039158860061340388
leaf_weight=55.237352475523949 36.606195494532585 57.028589725494385 46.61282779276371 57.720743417739868 51.816644087433815 95.295356929302216 72.035249665379524 43.729543998837471 50.150554269552231 68.555671527981758 57.018820136785507 41.443978160619736 48.690695121884346 60.520567834377289 48.627988681197166 45.998188510537148 47.242197006940842 253.58588245511055 70.637394815683365 82.672161623835564
leaf_count=225 220 238 241 400 228 385 296 282 231 283 234 210 200 272 210 204 200 1928 314 362
internal_value=-0.000434625 0.0159379 0.00516528 -0.0366096 0.0130659 0.0326907 0.0173582 -0.0216156 -0.005259 0.0381574 0.0258499 -0.0125803 0.0190444 -0.00172675 -0.00576657 -0.0125301 0.00578026 -0.0423872 0.0421126 0.0443538
internal_weight=1391.23 958.14 583.951 433.086 332.041 374.189 280.224 121.78 251.91 278.894 160.947 78.0502 103.928 205.297 155.147 106.519 119.277 311.307 210.338 153.31
internal_count=7163 4123 2541 3040 1383 1582 1155 712 1158 1197 659 430 425 917 686 476 496 2328 914 676
is_linear=0
shrinkage=0.04


Tree=22
num_leaves=20
num_cat=0
split_feature=39 9 21 39 26 26 27 5 30 21 38 4 18 4 26 26 38 4 6
split_gain=484.853 100.971 27.8277 22.798 19.413 19.1298 15.8443 11.1039 10.0856 7.77243 7.65232 7.33341 7.14696 6.4312 5.21956 3.70988 2.81142 0.999478 1.41166
threshold=0.2332836900311728 65.697887211390722 39.214285714285722 0.51849435583340198 11.570000000000002 12.298333333333337 0.15000000000000005 0.15000000000000005 1.0850000000000004 30.071428571428573 -0.23537230790205757 30.400000000000002 7.5816666666666679 37.250000000000007 10.015000000000002 10.381666666666669 -0.61237985104942771 36.550000000000004 2.9850000000000008
decision_type=2 2 2 2 2 2 2 2 2 2 2 2 2 2 2 2 2 2 2
left_child=1 2 5 8 9 6 13 10 12 17 -4 -9 -2 14 -1 -8 -5 18 -3
right_child=3 4 7 16 -6 -7 15 11 -10 -11 -12 -13 -14 -15 -16 -17 -18 -19 -20
leaf_value=0.027507520085868948 -0.024933779578961483 0.032468543948688824 -0.0084195207526742821 -0.032394731384516991 0.015821791028114061 -0.0096695333631401214 0.011197209816944213 -0.025146370812716146 -0.036467804643905838 0.024651818112345292 0.011762961189125856 -0.005551287278960427 -0.00074110288404131616 0.036834579992945378 0.0099654928041098111 -0.0031326522672190638 -0.043970638012255432 0.046613269759226736 0.042564915980019297
leaf_weight=57.402413249015808 36.081246480345726 67.380391538143158 49.872698947787285 56.503389999270439 95.225303649902344 51.669074192643166 72.122795075178146 49.520640015602112 42.745786994695663 68.363552883267403 72.648825079202652 79.297907188534737 41.429925248026848 49.691985338926315 53.990789383649826 47.212238550186157 245.89688158035278 64.197812661528587 76.335506707429886
leaf_count=234 220 290 234 400 385 228 296 233 282 283 320 371 210 203 222 200 1928 283 341
internal_value=-0.000424246 0.0153625 0.00496557 -0.0360441 0.0316333 0.0125498 0.0166636 -0.00506524 -0.0210407 0.0370063 0.00354598 -0.0132197 -0.0121769 0.0248125 0.0191694 0.005549 -0.0419216 0.0409311 0.0380884
internal_weight=1377.59 954.932 583.429 422.657 371.503 332.089 280.42 251.34 120.257 276.277 122.522 128.819 77.5112 161.085 111.393 119.335 302.4 207.914 143.716
internal_count=7163 4123 2541 3040 1582 1383 1155 1158 712 1197 554 604 430 659 456 496 2328 914 631
is_linear=0
shrinkage=0.04


Tree=23
num_leaves=21
num_cat=0
split_feature=39 21 26 39 8 15 34 29 33 36 10 4 5 16 3 38 38 38 3 31
split_gain=455.891 95.1771 26.8467 22.661 18.6994 17.9653 16.7798 14.5884 10.3744 9.73736 6.37907 6.07137 7.60633 8.93269 7.03357 5.95416 5.29623 2.88278 0.994865 0.902079
threshold=0.2332836900311728 34.642857142857146 11.570000000000002 0.51849435583340198 94.338362795193888 23.650000000000002 2.1590000000000003 0.44285714285714456 1.7807142857142859 32.550000000000018 16.819000000000003 41.20000000000001 0.15000000000000005 16.750000000000004 8.7500000000000018 0.63920241694561786 -0.77245553105869302 -0.61237985104942771 10.65 3.0250000000000004
decision_type=2 2 2 2 2 2 2 2 2 2 2 2 2 2 2 2 2 2 2 2
left_child=1 2 6 9 8 7 15 -3 -4 10 -2 12 14 -14 -9 -1 -8 -5 19 -18
right_child=3 5 4 17 -6 -7 16 11 -10 -11 -12 -13 13 -15 -16 -17 18 -19 -20 -21
leaf_value=0.014205271690447387 -0.02354444670961128 0.014852127167448081 0.015685336004340598 -0.0317907453453177 0.031609553462499385 0.020612122425185161 0.029514103578274643 0.0067209517499770182 -0.0091226859847276312 -0.035847138118291662 -0.00063910634440816569 0.0052287463892647422 -0.029102561800953861 -0.0067864380561576797 -0.012088591907008063 0.030478145720460082 0.033801402685002285 -0.043570267299314382 0.050487889051352861 0.044855882748193347
leaf_weight=84.015321031212807 36.920497596263885 61.91704635322094 49.898821339011192 55.317019507288933 52.33196921646595 60.977805212140083 72.570071518421173 66.181254416704178 56.420765936374664 41.783375412225723 40.065253645181656 58.105223119258881 49.582851156592369 68.246979147195816 59.460164606571198 66.806180745363235 45.529148638248444 238.39126422256231 47.314081326127052 52.293716490268707
leaf_count=346 225 267 209 400 213 251 310 291 233 282 205 262 240 308 267 271 200 1928 215 240
internal_value=-0.000414098 0.0148093 0.0261436 -0.0354879 0.0122788 0.000704172 0.032063 -0.00268287 0.00255809 -0.0204788 -0.011785 -0.00632019 -0.0090865 -0.016343 -0.00220588 0.0215666 0.0392028 -0.0414671 0.0438121 0.040105
internal_weight=1364.13 951.651 527.18 412.477 158.652 424.471 368.529 363.494 106.32 118.769 76.9858 301.576 243.471 117.83 125.641 150.822 217.707 293.708 145.137 97.8229
internal_count=7163 4123 2237 3040 655 1886 1582 1635 442 712 430 1368 1106 548 558 617 965 2328 655 440
is_linear=0
shrinkage=0.04


Tree=24
num_leaves=20
num_cat=0
split_feature=39 8 21 39 25 21 4 38 30 5 4 38 30 10 37 38 25 38 23
split_gain=428.717 89.5025 24.7469 22.5232 12.3536 18.4139 11.5016 10.4095 9.40086 8.89434 7.18026 7.02596 6.31946 6.01407 5.4164 5.65265 4.09528 2.95445 0.625318
threshold=0.2332836900311728 91.809405677211245 38.785714285714292 0.51849435583340198 11.678571428571432 30.071428571428573 36.20000000000001 0.21022171450811275 1.0850000000000004 0.15000000000000005 30.400000000000002 -0.23537230790205757 1.0183333333333338 16.819000000000003 8.5000000000000018 -0.67803021058859225 10.235714285714289 -0.61237985104942771 8.9500000000000011
decision_type=2 2 2 2 2 2 2 2 2 2 2 2 2 2 2 2 2 2 2
left_child=1 2 4 8 5 -1 -6 14 13 11 -11 -4 -7 -2 15 -3 -17 -5 -16
right_child=3 7 9 17 6 12 -8 -9 -10 10 -12 -13 -14 -15 18 16 -18 -19 -20
leaf_value=0.038018814380888298 -0.022930996793666246 0.018017114582064689 -0.0075175719839913925 -0.031194715655622748 -0.013162234611300155 0.018831146974519913 0.012709370595483101 0.018454608637717834 -0.035237252716898627 -0.02317895907025486 -0.0042150457500360382 0.011327682653007428 0.0034603720155701335 -0.00061433928159603597 0.035832103344406875 0.041969678292722204 0.024855128004407933 -0.043181913449778328 0.046112587531455695
leaf_weight=52.016055926680565 36.428717538714409 52.721905544400215 54.9034463763237 54.161675669252872 49.451413333415985 82.528783977031708 59.425338506698608 94.120885193347931 40.842763893306255 51.134872764348984 83.973371580243111 72.121783196926117 88.900891110301018 40.053824529051781 46.696320563554764 58.39199323952198 46.645092248916626 231.07092867046595 55.403127819299698
leaf_count=221 225 226 255 400 211 337 250 385 282 243 392 318 371 205 210 258 201 1928 245
internal_value=-0.000402938 0.0142771 0.00477785 -0.0349391 0.0120111 0.0173745 0.000945739 0.0301713 -0.0199275 -0.00440292 -0.0115099 0.0031872 0.0109264 -0.0114026 0.034328 0.0292569 0.0346755 -0.0410226 0.0418038
internal_weight=1350.99 948.435 594.456 402.558 332.322 223.446 108.877 353.979 117.325 262.133 135.108 127.025 171.43 76.4825 259.858 157.759 105.037 285.233 102.099
internal_count=7163 4123 2598 3040 1390 929 461 1525 712 1208 635 573 708 430 1140 685 459 2328 455
is_linear=0
shrinkage=0.04


Tree=25
num_leaves=20
num_cat=0
split_feature=39 21 26 26 39 9 6 36 29 4 36 10 39 22 28 27 4 22 19
split_gain=420.727 84.0408 23.18 23.1235 22.0656 18.4085 16.7092 15.6703 9.91779 9.03051 6.67985 5.64222 5.57487 5.44559 4.75865 1.90524 3.51517 1.34187 0.450332
threshold=0.2332836900311728 34.642857142857146 11.401666666666669 11.52166666666667 0.45847758937963173 48.168102464488861 1.9450000000000001 21.950000000000006 0.44285714285714456 37.250000000000007 29.750000000000011 559.82649851786744 -0.099822328936730861 32.716666666666676 0.75000000000000011 1.0000000180025095e-35 31.150000000000002 26.450000000000003 82.500000000000014
decision_type=2 2 2 2 2 2 2 2 2 2 2 2 2 2 2 2 2 2 2
left_child=1 2 5 6 10 -1 8 -4 -3 12 -2 18 14 15 -10 16 17 -7 -6
right_child=4 3 7 -5 11 13 -8 -9 9 -11 -12 -13 -14 -15 -16 -17 -18 -19 -20
leaf_value=0.010057626953983403 -0.0082933009436245951 0.01627059836160042 0.023752317130552092 -0.02515266686755805 -0.041880273039866037 0.023443635723722482 0.027070307948163203 -0.00093934535625351243 0.0046683122892772081 0.0098595493442087331 -0.029928138273831593 -0.019663951837119879 -0.015625187805597164 0.025075529906496179 -0.010880265488397987 0.045374013856440548 0.042726635785520939 0.034935415782207331 -0.031541368446870235
leaf_weight=54.605454578995705 57.560712993144989 61.264718025922775 97.360740125179291 44.471877604722977 252.09579475224018 44.082841023802757 47.083016470074654 70.545329466462135 81.411784902215004 79.767306312918663 38.124865554273129 24.088198617100716 63.892008036375046 69.819029122591019 49.990668013691902 66.542039468884468 70.341786935925484 45.176664486527443 23.687953621149063
leaf_count=222 309 263 398 207 2143 201 193 296 351 357 253 151 313 293 224 293 320 199 200
internal_value=0.000478113 0.0149579 0.0257706 0.00182633 -0.0341145 0.0316242 0.00501293 0.013434 0.00185398 -0.00140435 -0.0171338 -0.0394578 -0.00603185 0.035556 -0.00128448 0.038667 0.0356056 0.0295826 -0.0411094
internal_weight=1341.91 946.355 518.474 427.881 395.558 350.568 383.41 167.906 336.326 275.062 95.6856 299.872 195.294 295.962 131.402 226.143 159.601 89.2595 275.784
internal_count=7186 4130 2222 1908 3056 1528 1701 694 1508 1245 562 2494 888 1306 575 1013 720 400 2343
is_linear=0
shrinkage=0.04


Tree=26
num_leaves=21
num_cat=0
split_feature=7 13 26 10 30 10 8 38 27 25 3 26 5 34 21 27 25 38 27 4
split_gain=385.033 86.1021 24.7121 24.3962 24.0869 21.4205 20.4034 19.4384 11.3007 14.7764 9.66665 8.27229 8.01347 11.1658 4.96335 4.61419 5.61775 1.77832 1.53517 0.485412
threshold=1.2450000000000003 23.547158660969913 11.438333333333336 17.125000000000004 0.55833333333333368 563.54450411985761 94.757799473158698 -0.96235977360714686 1.0000000180025095e-35 11.00714285714286 9.3500000000000032 9.7650000000000023 0.75000000000000011 1.0543333333333336 24.214285714285719 1.0000000180025095e-35 9.8500000000000032 0.86548282553247169 4.5500000000000007 30.800000000000004
decision_type=2 2 2 2 2 2 2 2 2 2 2 2 2 2 2 2 2 2 2 2
left_child=5 3 14 11 -5 17 -4 -6 12 10 -10 -2 13 -9 19 16 -16 18 -1 -3
right_child=1 2 6 4 7 -7 -8 8 9 -11 -12 -13 -14 -15 15 -17 -18 -19 -20 -21
leaf_value=-0.041412618978739692 -0.0034311352156129078 0.036721979758496219 -0.0026548721888290743 0.033392281213021326 -0.013923954938356216 -0.012118582310119856 0.031328007795479444 0.022572972806211324 0.0014366370919948188 -0.011792451518872182 0.023013275625592352 -0.028943220160885609 0.029096164190874949 -0.0041777147404664407 0.017910272930086266 0.040762454126221703 0.034130898097946963 -0.026836423228291856 -0.028777472698635457 0.047611502650158774
leaf_weight=247.92351461946964 39.828458093106747 42.533285051584244 65.470245704054832 48.635727345943451 78.676934391260147 56.565478250384331 48.559815809130669 49.935843490064144 85.642105042934418 78.149007484316826 53.427688375115395 41.209242224693298 50.783443689346313 48.446670487523079 72.024120569229126 53.001707449555397 73.040646687150002 25.623316407203674 27.414743438363075 42.298734992742538
leaf_count=2152 227 200 267 204 372 321 200 214 368 345 229 218 214 202 310 231 318 170 223 201
internal_value=0.000461559 0.013522 0.0278253 0.0036125 0.00695699 -0.0349719 0.0119633 0.00399979 0.00787613 0.00203315 0.00983105 -0.0165992 0.0163146 0.0094906 0.0341543 0.0303225 0.0262552 -0.0392128 -0.0402633 0.0426431
internal_weight=1329.19 971.664 396.929 574.735 493.697 357.527 114.03 445.062 366.385 217.219 139.07 81.0377 149.166 98.3825 282.898 198.066 145.065 300.962 275.338 84.832
internal_count=7186 4320 1727 2593 2148 2866 467 1944 1572 942 597 445 630 416 1260 859 628 2545 2375 401
is_linear=0
shrinkage=0.04


Tree=27
num_leaves=20
num_cat=0
split_feature=39 7 30 10 29 10 28 38 38 7 10 26 8 35 15 31 12 4 19
split_gain=373.789 79.5444 30.052 19.3778 17.9686 14.3539 10.4296 9.87454 8.83322 7.583 7.57481 9.83922 11.5208 7.04457 6.90223 5.0147 3.10172 1.03447 0.45707
threshold=0.29958852271690523 3.8050000000000002 1.2116666666666673 702.59281917712781 1.7285714285714289 563.54450411985761 1.0500000000000003 -0.92274349529687905 0.9053161325100999 2.6050000000000004 17.125000000000004 10.546666666666669 85.809136754654432 15.400000000000015 28.250000000000004 1.9750000000000003 106.22284793587639 31.150000000000002 80.500000000000014
decision_type=2 2 2 2 2 2 2 2 2 2 2 2 2 2 2 2 2 2 2
left_child=1 2 3 7 6 8 14 -1 18 13 -9 12 -12 -4 15 -3 -17 -16 -2
right_child=5 4 9 -5 -6 -7 -8 10 -10 -11 11 -13 -14 -15 17 16 -18 -19 -20
leaf_value=-0.012105608506338777 -0.041221789246392693 0.03547619005047125 -0.02396289156107078 0.027167999644869139 0.007681182633278774 -0.013580208101825572 0.014834013497927574 -0.0060030616550291321 -0.015728428028415339 -0.0001679528701151476 0.0060315417398961102 0.0011695419670412223 0.033155072650178558 -0.0031229335425875184 0.034346879984552367 0.01345051950246833 0.028204492970104546 0.04457572982747942 -0.032165841572716833
leaf_weight=45.175696939229965 244.53278387337923 71.821496397256851 70.934720829129219 79.48864908516407 71.947016581892967 45.160270422697067 64.604477182030678 46.792337700724602 27.438081070780754 77.564329326152802 48.861029699444771 76.891940847039223 51.624164417386055 41.124919429421425 55.754466786980629 48.885511875152588 48.331535413861275 68.352704614400864 31.446383163332939
leaf_count=201 2182 297 368 336 302 267 275 229 165 337 206 319 215 212 258 203 220 313 281
internal_value=0.000447636 0.0132373 0.00298246 0.00994022 0.0260509 -0.0350112 0.0297136 0.0047743 -0.0381458 -0.00980208 0.00821468 0.011978 0.0201556 -0.0164101 0.0329312 0.027322 0.020998 0.0402917 -0.0403098
internal_weight=1316.73 968.155 538.458 348.834 429.697 348.578 357.75 269.345 303.417 189.624 224.169 177.377 100.485 112.06 293.146 169.039 97.217 124.107 275.979
internal_count=7186 4291 2423 1506 1868 2895 1566 1170 2628 917 969 740 421 580 1291 720 423 571 2463
is_linear=0
shrinkage=0.04


Tree=28
num_leaves=22
num_cat=0
split_feature=9 21 33 26 38 10 38 26 28 30 26 31 26 26 31 11 19 11 16 4 12
split_gain=341.971 80.1752 21.3869 19.1688 18.8615 18.8556 16.1809 15.5164 10.1167 7.89734 7.60043 7.15064 6.4538 6.40683 6.03761 4.70482 4.44243 4.07483 3.72857 2.02714 0.229653
threshold=6.9779576971809858 34.642857142857146 2.7135714285714294 11.481666666666667 -0.65234524191686594 712.30550681697457 0.91939013254733981 12.605000000000002 0.95000000000000007 1.298333333333334 9.7083333333333375 1.3550000000000002 11.438333333333336 10.015000000000002 1.905 3.7543818204311967 82.500000000000014 4.3397710177861724 24.050000000000004 28.250000000000004 6.3815019029860638
decision_type=2 2 2 2 2 2 2 2 2 2 2 2 2 2 2 2 2 2 2 2 2
left_child=6 2 7 4 5 10 16 9 13 11 15 -2 19 17 -13 -3 20 -6 -16 -4 -1
right_child=1 3 12 -5 8 -7 -8 -9 -10 -11 -12 14 -14 -15 18 -17 -18 -19 -20 -21 -22
leaf_value=-0.041567335159095484 0.011619712093699377 -0.014949847025304179 0.031169582208087188 -0.023643275953452943 0.013558930910324575 0.014524087465874372 -0.015117010569533636 -0.0030046412326819021 -0.0016648444729576886 0.0077740956837385631 -0.028195012598258361 0.04039009109011546 0.022091646541201899 0.0054372757450515856 0.03001698174320969 0.0030385063395985202 -0.021071862044246718 0.030176912084171989 0.014157199022634967 0.04316728926072793 -0.034665611392744648
leaf_weight=197.26153235137463 53.914662957191467 56.321471773087978 53.670001864433289 47.029978379607201 47.543569192290306 49.676512703299522 58.61954864859581 52.582605227828026 71.57105353474617 59.943441823124886 41.249200910329819 50.155798211693764 59.260533154010773 55.480394564568996 54.41804763674736 38.667258337140083 24.693322047591209 52.369041189551353 47.187353134155273 81.236669480800629 51.705823294818401
leaf_count=1838 225 310 255 226 209 222 327 220 315 250 217 208 247 238 229 180 218 217 208 396 431
internal_value=0.000432624 0.0124073 0.0232737 0.000277281 0.00305256 -0.00637513 -0.0345384 0.0168005 0.0107692 0.0207177 -0.0140459 0.0244342 0.0337415 0.0164701 0.0288808 -0.00767192 -0.0386284 0.0224819 0.0228612 0.0386587 -0.0402784
internal_weight=1304.56 972.278 512.369 459.908 412.879 185.914 332.28 318.202 226.964 265.619 136.238 205.676 194.167 155.393 151.761 94.9887 273.661 99.9126 101.605 134.907 248.967
internal_count=7186 4372 2238 2134 1908 929 2814 1340 979 1120 707 870 898 664 645 490 2487 426 437 651 2269
is_linear=0
shrinkage=0.04


Tree=29
num_leaves=20
num_cat=0
split_feature=39 21 26 1 15 10 26 30 34 38 9 29 4 39 38 28 11 30 19
split_gain=332.734 71.0437 20.9646 20.4256 14.9452 13.9394 13.8429 10.8101 10.4392 8.7481 8.47779 8.40407 8.89526 7.19859 4.81558 3.60101 3.59611 2.26159 0.487645
threshold=0.29958852271690523 34.642857142857146 11.570000000000002 14.750000000000002 23.650000000000002 563.54450411985761 11.631666666666669 0.46666666666666684 1.5215000000000003 0.9053161325100999 48.168102464488861 0.44285714285714456 38.000000000000007 -0.099822328936730861 -0.67803021058859225 0.75000000000000011 8.8742679900812771 1.0950000000000004 80.500000000000014
decision_type=2 2 2 2 2 2 2 2 2 2 2 2 2 2 2 2 2 2 2
left_child=1 3 4 6 11 9 7 -1 -8 18 -9 -3 13 15 -5 -13 -12 -16 -2
right_child=5 2 -4 14 -6 -7 8 10 -10 -11 16 12 -14 -15 17 -17 -18 -19 -20
leaf_value=0.038301056122185782 -0.040480110071354013 0.013559090949318229 -0.025204277760442401 0.021456655975127487 0.022955457432304774 -0.012857042841280844 0.018265570013661789 0.0035411220756677293 -0.0064380078283135054 -0.014858108581116296 0.014876772379500653 0.0041746827371040834 0.00940131837823714 -0.016129340477732824 0.04156514396859512 -0.0090805121384844659 0.029605189431364223 0.029028835097440652 -0.031245647209426845
leaf_weight=51.42697149515152 230.2755666077137 64.603758975863457 43.675248071551323 46.59703665971756 54.486094936728477 44.538920857012272 49.132165417075157 51.131491675972939 59.460856139659882 26.95888289809227 51.730529233813286 84.565290421247482 75.841577969491482 77.297266200184822 86.132142439484596 52.181309416890144 63.328512728214264 49.063698500394821 30.095352940261364
leaf_count=229 2182 283 210 214 225 267 205 208 246 165 215 364 352 395 412 234 277 222 281
internal_value=0.000417994 0.0123488 0.000817925 0.0226014 0.00365158 -0.0340512 0.0165275 0.0223291 0.00480364 -0.0372805 0.0171871 0.000628291 -0.00229017 -0.00645724 0.0333504 -0.000912586 0.0231685 0.0372622 -0.0395364
internal_weight=1292.52 960.654 452.651 508.003 408.975 331.869 326.211 217.618 108.593 287.33 166.191 354.489 289.885 214.044 181.793 136.747 115.059 135.196 260.371
internal_count=7186 4291 2063 2228 1853 2895 1380 929 451 2628 700 1628 1345 993 848 598 492 634 2463
is_linear=0
shrinkage=0.04


Tree=30
num_leaves=19
num_cat=0
split_feature=39 21 26 26 7 18 10 27 38 18 32 38 30 38 38 8 18 10
split_gain=321.785 72.701 19.8466 19.8217 15.1293 13.8838 9.6599 9.40513 9.31376 9.02982 13.4836 5.40837 5.99748 4.62736 3.94499 2.78083 1.22549 0.504704
threshold=0.29958852271690523 34.785714285714292 11.52166666666667 11.401666666666669 3.7250000000000005 24.205000000000002 628.57965286314402 1.0000000180025095e-35 0.9053161325100999 9.5649999999999995 0.83500000000000008 -0.98523971305672675 1.1033333333333337 -0.77245553105869302 0.63920241694561786 94.153063688994692 28.798333333333336 15.325000000000001
decision_type=2 2 2 2 2 2 2 2 2 2 2 2 2 2 2 2 2 2
left_child=1 3 4 5 9 14 8 15 17 -3 -11 -12 -13 -7 -1 -5 -15 -2
right_child=6 2 -4 7 -6 13 -8 -9 -10 10 11 12 -14 16 -16 -17 -18 -19
leaf_value=0.011809002331117931 -0.042178660195559978 0.011016670838262729 -0.025606358544383971 0.011457447234098148 0.017513288014169716 0.025167088580814158 -0.012730766992858092 -0.0022611601559899327 -0.013475042449349287 -0.024553454818075499 -0.010793416456793855 0.013250098450974657 -0.0037754784935238313 0.042447200433025599 0.025417773499377648 0.02470207371314188 0.031997948928186498 -0.03620921300627019
leaf_weight=82.909256502985954 125.61306922137737 69.230545893311501 43.510793820023537 59.703870117664337 83.960029944777489 70.123605236411095 30.496560826897621 59.110211730003357 26.04496905207634 45.771004021167755 56.622003629803658 59.036025166511536 73.052229374647141 82.115292012691498 61.343735843896866 47.953732267022133 50.02478788793087 135.50944834947586
leaf_count=350 1261 339 211 246 347 316 175 249 161 222 263 251 337 397 252 201 253 1245
internal_value=9.01107e-05 0.0118063 -0.0003067 0.0219626 0.00259141 0.0274122 -0.0346719 0.0105434 -0.0369497 -0.00157762 -0.00532708 -0.000558945 0.00387638 0.0341954 0.0177313 0.01753 0.0387614 -0.0392308
internal_weight=1262.13 944.467 431.183 513.284 387.672 346.517 317.664 166.768 287.167 303.712 234.481 188.71 132.088 202.264 144.253 107.658 132.14 261.123
internal_count=7076 4234 1970 2264 1759 1568 2842 696 2667 1412 1073 851 588 966 602 447 650 2506
is_linear=0
shrinkage=0.04


Tree=31
num_leaves=20
num_cat=0
split_feature=39 21 1 26 26 7 30 39 18 22 5 6 25 39 4 25 3 18 18
split_gain=303.154 67.6873 19.2663 18.6128 17.6892 13.9618 11.9024 8.68342 8.01448 6.37159 6.72534 5.86772 4.62373 5.92124 4.23815 4.69993 3.67807 3.61036 1.96364
threshold=0.29958852271690523 34.785714285714292 14.750000000000002 12.948333333333334 11.481666666666667 3.7250000000000005 0.79000000000000015 0.45847758937963173 10.591666666666669 40.350000000000009 0.15000000000000005 1.2450000000000003 8.8357142857142872 -0.9292178835113839 38.000000000000007 9.9357142857142886 9.5500000000000025 6.7350000000000012 9.8866666666666685
decision_type=2 2 2 2 2 2 2 2 2 2 2 2 2 2 2 2 2 2 2
left_child=1 2 3 6 5 8 16 -2 -3 11 -11 -10 -4 -14 15 -8 -1 -9 -19
right_child=7 4 12 -5 -6 -7 14 17 9 10 -12 -13 13 -15 -16 -17 -18 18 -20
leaf_value=0.020102796674197981 -0.020109717815578184 0.0090078102083743818 0.043198008424829556 -0.0075198391162714893 -0.023740051741306771 0.016812635098712742 0.015417039401026933 -0.040466183849206763 0.0075825259328637 -0.0026936681587132628 -0.024249083770226023 -0.009716864082710738 0.037849978696330056 0.020209661754679389 0.021115486731702174 -0.0017785435722857943 0.034092270394796544 -0.019861197007518861 -0.03558911012277912
leaf_weight=61.799102395772934 60.871408544480801 82.626069486141205 45.478243947029114 47.860167905688286 45.021958157420158 84.001408025622368 48.454991415143013 187.33532339334488 73.460009351372719 46.684512041509151 45.514159835875034 53.21150241792202 54.541259706020355 79.569645568728447 47.33981765806675 51.974589541554451 73.206920027732849 31.011706322431564 30.35425841063261
leaf_count=267 394 397 220 201 220 347 202 1922 334 222 224 226 259 377 200 219 319 277 249
internal_value=8.49729e-05 0.0113868 0.0212277 0.0154201 -0.000298297 0.00249379 0.0193155 -0.0341855 -0.00153805 -0.0055421 -0.0134806 0.000296301 0.0317754 0.0276108 0.0113528 0.00658814 0.0278835 -0.0375363 -0.0280868
internal_weight=1250.32 940.744 510.225 330.636 430.52 385.498 282.775 309.573 301.496 218.87 92.1987 126.672 179.589 134.111 147.769 100.43 135.006 248.701 61.366
internal_count=7076 4234 2264 1408 1970 1750 1207 2842 1403 1006 446 560 856 636 621 421 586 2448 526
is_linear=0
shrinkage=0.04


Tree=32
num_leaves=20
num_cat=0
split_feature=39 21 1 15 10 38 25 30 25 10 30 4 28 18 25 4 7 32 10
split_gain=285.546 63.025 18.3534 11.814 9.75581 9.3511 8.62372 8.06251 13.487 8.33206 7.83023 7.41145 5.82263 4.7571 4.48582 5.89128 4.15647 3.83464 0.605401
threshold=0.29958852271690523 34.785714285714292 14.750000000000002 23.650000000000002 628.57965286314402 0.9053161325100999 13.40714285714286 1.1950000000000005 11.092857142857145 437.53684807233407 0.79000000000000015 36.900000000000013 0.55000000000000016 10.591666666666669 8.8357142857142872 31.850000000000005 3.8750000000000004 1.8150000000000002 15.325000000000001
decision_type=2 2 2 2 2 2 2 2 2 2 2 2 2 2 2 2 2 2 2
left_child=1 2 6 7 5 18 10 11 9 12 17 13 -9 -3 -4 -16 -12 -1 -2
right_child=4 3 14 -5 -6 -7 -8 8 -10 -11 16 -13 -14 -15 15 -17 -18 -19 -20
leaf_value=0.03152715329650034 -0.041592596157179064 0.0078376579175117572 0.042223008511677138 0.016403568018604535 -0.011515414333708673 -0.012426243108658143 -0.0008179475673348401 0.013528044527321649 -0.026595221652124433 -0.016290378886524209 0.0030435604644177602 0.014409939672213918 -0.0061302482856496025 -0.0084175604666698756 0.017171395854519302 0.034570854565739322 0.016763702033214194 0.017612630761769443 -0.035314657645506384
leaf_weight=64.702973753213882 117.77079129964113 44.04332634806633 44.706098407506943 57.627805173397064 29.883140787482262 25.53926032781601 47.925908595323563 50.772541463375092 48.708600640296936 45.100824184715748 62.444791570305824 60.390037775039673 44.288078650832176 79.100006908178329 60.919991552829742 71.926353707909584 81.980485007166862 72.666556119918823 128.61746641248465
leaf_count=269 1261 199 220 240 175 161 200 230 248 237 263 267 207 342 291 345 347 329 1245
internal_value=8.00909e-05 0.0109795 0.0205151 -0.000290321 -0.0336937 -0.0360798 0.0148555 -0.00291064 -0.00869151 -0.00232532 0.0175146 0.00305318 0.00440091 -0.00258743 0.030883 0.0267798 0.0108933 0.024347 -0.0384714
internal_weight=1239.12 937.304 507.273 430.031 301.811 271.928 329.721 372.403 188.87 140.161 281.795 183.533 95.0606 123.143 177.552 132.846 144.425 137.37 246.388
internal_count=7076 4234 2264 1970 2842 2667 1408 1730 922 674 1208 808 437 541 856 636 610 598 2506
is_linear=0
shrinkage=0.04


Tree=33
num_leaves=21
num_cat=0
split_feature=7 15 9 8 26 38 38 8 20 26 34 35 10 26 19 3 24 26 38 38
split_gain=255.589 53.0115 27.3296 14.9172 9.67963 11.1134 9.54424 8.77462 8.67883 8.13272 8.02601 7.86931 4.14158 3.84821 3.15972 2.58088 2.04944 1.58046 0.0158213 0.916985
threshold=1.5850000000000002 25.250000000000004 9.1824149089366252 91.054041714818808 12.145000000000005 -0.92274349529687905 0.89017062131308955 93.005704009521736 48.500000000000007 11.481666666666667 2.320333333333334 4.4000000000000137 600.65955597397181 9.6950000000000021 82.500000000000014 10.250000000000002 9.9500000000000011 10.398333333333337 -0.58482361983252518 -0.75015329512557194
decision_type=2 2 2 2 2 2 2 2 2 2 2 2 2 2 2 2 2 2 2 2
left_child=2 3 6 4 5 -2 14 17 11 10 -3 -7 -12 -4 18 16 -13 -5 19 -1
right_child=1 9 13 7 -6 8 -8 -9 -10 -11 12 15 -14 -15 -16 -17 -18 -19 -20 -21
leaf_value=-0.040036768420618783 -0.0093897163982859331 0.019494176838539694 -0.002103116125519367 0.028348439122484428 -0.014332651393787286 0.022930503610790597 -0.015303899909443697 0.0027562622835118978 -0.005693597007550644 0.014190949870859997 0.042872154154379151 -0.0031567764352350277 0.027379258305363745 -0.018769992500720915 -0.021213294944797335 0.012074648111484175 0.0081359302761864569 0.017179430914269302 -0.040615552424870235 -0.02545357359940395
leaf_weight=26.222563549876213 83.566422805190086 79.141555726528168 52.646527424454689 47.490715205669403 55.335760161280632 60.746676236391068 36.94218248128891 53.887171909213066 66.020829848945141 73.385119646787643 71.465792030096054 54.50232569873333 59.568636834621429 37.651148334145546 20.803495816886425 69.881504073739052 47.027874633669853 48.318042680621147 162.16779514402151 21.346626475453377
leaf_count=237 381 348 294 203 257 262 238 234 310 311 367 232 300 204 207 301 202 201 1778 209
internal_value=7.56753e-05 0.0117754 -0.0283386 0.00489537 0.00115095 0.00342695 -0.0347473 0.0157481 0.00703827 0.0259451 0.0299626 0.0106678 0.0360897 -0.00918212 -0.0377834 0.00621427 0.00210224 0.0229514 -0.0393185 -0.0341514
internal_weight=1228.12 870.338 357.78 586.777 437.081 381.746 267.483 149.696 298.179 283.561 210.176 232.158 131.034 90.2977 230.54 171.412 101.53 95.8088 209.737 47.5692
internal_count=7076 3909 3167 2583 1945 1688 2669 638 1307 1326 1015 997 667 498 2431 735 434 404 2224 446
is_linear=0
shrinkage=0.04


Tree=34
num_leaves=21
num_cat=0
split_feature=39 21 26 26 34 6 10 38 27 38 29 34 22 27 4 9 38 21 10 33
split_gain=254.744 55.5269 17.1554 15.7341 12.4811 10.3683 9.57261 9.15517 8.13004 6.00738 4.91667 6.29028 7.15183 4.48944 4.39681 3.48952 3.35946 2.49269 0.697265 0.666239
threshold=0.29958852271690523 34.785714285714292 11.401666666666669 11.481666666666667 2.1590000000000003 1.7250000000000003 628.57965286314402 0.9053161325100999 1.0000000180025095e-35 -0.9905448150984083 0.44285714285714456 1.5620000000000005 50.45000000000001 0.25000000000000006 31.150000000000002 116.60855549123669 0.63920241694561786 24.500000000000004 15.325000000000001 2.8792857142857149
decision_type=2 2 2 2 2 2 2 2 2 2 2 2 2 2 2 2 2 2 2 2
left_child=1 2 4 5 16 9 7 18 17 -3 -11 12 13 -12 15 -6 -1 -4 -2 -16
right_child=6 3 8 -5 14 -7 -8 -9 -10 10 11 -13 -14 -15 19 -17 -18 -19 -20 -21
leaf_value=0.0099673932102020812 -0.041033696990835894 -0.013961720867908161 0.021680818190468583 -0.022649394703092938 0.01838066943487647 0.015806568576847292 -0.010741796565972791 -0.011776351481926446 -0.0032172989527419994 0.013269161693068575 -0.0014941445917482444 0.009127189889039055 0.0081273627419470116 -0.017826461294986513 0.032264747690319291 0.033798713063760394 0.022517389170433791 0.0092049796867349175 -0.03445272756688026 0.042869307222230438
leaf_weight=83.192916944622993 110.42353764176369 46.718744583427906 50.075968086719513 44.239277690649033 60.730451434850693 72.459520906209946 29.48213703930378 25.212626516819 59.038951396942139 45.493255123496056 46.959692791104317 66.650555729866028 43.313074328005314 62.759916268289089 42.997233018279076 44.281147912144661 60.739143654704094 56.709607318043709 122.18527536094189 43.831202790141106
leaf_count=355 1261 226 213 220 286 301 175 161 249 199 214 296 223 291 204 231 252 234 1245 240
internal_value=7.02176e-05 0.0102427 0.0192627 -0.000333974 0.0244555 0.00228664 -0.032786 -0.0352555 0.00866432 -0.000894784 0.00145115 -0.00104523 -0.00550613 -0.0109129 0.0311478 0.0251396 0.0153823 0.0152023 -0.0377391 0.0380451
internal_weight=1217.49 930.191 501.597 428.594 335.772 384.355 287.304 257.821 165.825 311.895 265.176 219.683 153.033 109.72 191.84 105.012 143.932 106.786 232.609 86.8284
internal_count=7076 4234 2264 1970 1568 1750 2842 2667 696 1449 1223 1024 728 505 961 517 607 447 2506 444
is_linear=0
shrinkage=0.04


Tree=35
num_leaves=22
num_cat=0
split_feature=9 33 7 10 29 39 28 38 25 19 4 35 30 10 25 18 2 2 21 19 9
split_gain=241.73 56.4812 18.5549 14.9437 14.2024 14.1888 12.0663 10.7156 8.99831 7.82685 7.00438 6.13076 6.8209 5.50285 3.61988 3.12745 2.15771 2.2543 1.47633 1.14683 0.510443
threshold=6.9779576971809858 2.7135714285714294 2.5450000000000004 712.30550681697457 2.2142857142857157 0.39629089145655322 0.75000000000000011 0.98213580174693105 12.135714285714288 30.500000000000004 30.800000000000004 15.400000000000015 1.2283333333333339 547.74849596849538 9.578571428571431 15.988333333333335 28.500000000000004 34.500000000000007 23.642857142857149 82.500000000000014 6.4581072092760836
decision_type=2 2 2 2 2 2 2 2 2 2 2 2 2 2 2 2 2 2 2 2 2
left_child=5 2 3 7 6 -1 8 11 13 -8 14 12 15 16 -3 -2 -4 -18 -12 20 -7
right_child=1 10 4 -5 -6 19 9 -9 -10 -11 18 -13 -14 -15 -16 -17 17 -19 -20 -21 -22
leaf_value=-0.016063792274640484 -0.0025060641012916536 0.029452882004207325 0.018022278636795265 0.015323959535410528 -0.0067727426432006767 -0.039642443041112578 0.013362942673690188 0.010291862945805289 0.0040411558682364344 -0.0072048982391885522 0.04190094108176233 0.0010363709294573006 -0.028535224865773767 0.009087071001445261 0.012660263140272084 -0.017615333307596612 0.034304031304426968 0.021212542114895552 0.029447713657673739 -0.025696232391827341 -0.027992536911736747
leaf_weight=65.71452771872282 46.019909828901291 40.390100330114365 68.540575727820396 51.686565548181534 74.009176209568977 178.3383847028017 50.06889833509922 39.213383257389069 70.77129539847374 69.453287348151207 54.887798652052879 40.475043967366219 48.736994631588459 53.665558144450188 46.177604034543037 41.541842237114906 49.122207179665565 51.092752397060394 40.88608007133007 20.144676752388477 17.799168884754181
leaf_count=391 251 209 292 234 319 2041 214 176 299 294 275 216 282 242 221 194 206 210 204 213 182
internal_value=-0.000287036 0.00949152 0.00464527 -0.00380483 0.00929068 -0.0326883 0.0121806 -0.00843195 0.016535 0.00145054 0.0294071 -0.01262 -0.0166533 0.0204745 0.0207421 -0.0097923 0.024021 0.0279051 0.0369439 -0.0376422 -0.0387326
internal_weight=1218.74 936.739 754.397 267.674 486.724 281.997 412.715 215.987 293.192 119.522 182.342 176.774 136.299 222.421 86.5677 87.5618 168.756 100.215 95.7739 216.282 196.138
internal_count=7165 4338 3429 1353 2076 2827 1757 1119 1249 508 909 943 727 950 430 445 708 416 479 2436 2223
is_linear=0
shrinkage=0.04


Tree=36
num_leaves=19
num_cat=0
split_feature=9 31 8 39 0 24 30 7 21 4 5 1 18 27 24 4 4 12
split_gain=227.821 48.593 15.0279 14.1896 11.395 10.7241 13.7028 13.9494 7.52073 7.01712 5.04539 10.2273 8.54681 4.92123 4.23938 3.35118 2.47945 1.99507
threshold=6.9779576971809858 2.4850000000000008 90.948396887316036 0.39629089145655322 25.750000000000004 15.050000000000002 0.49000000000000021 1.2450000000000003 24.500000000000004 42.650000000000006 1.0000000180025095e-35 10.15 18.861666666666672 0.65000000000000002 9.5500000000000025 30.800000000000004 28.250000000000004 6.4479591571473343
decision_type=2 2 2 2 2 2 2 2 2 2 2 2 2 2 2 2 2 2
left_child=3 2 5 -1 14 6 -2 -8 16 10 12 13 -9 -12 -4 -10 -3 -5
right_child=1 8 4 17 -6 -7 7 9 15 -11 11 -13 -14 -15 -16 -17 -18 -19
leaf_value=-0.015563808218319508 0.023237025309451848 0.023280901308462904 0.029197507626942558 -0.039156192028096858 -0.0005684639506910212 -0.016247043865919547 -0.019095219409182497 0.014325972655840059 0.010081179747090134 0.014806593716840401 -0.0215516325541103 0.0087404927563274146 -0.0046612256471868767 -0.0037826767302278244 0.013803368719913786 0.023961905503796715 0.03703680035772635 -0.026604061207584656
leaf_weight=65.156215518712997 44.722148649394512 40.036138251423836 53.770595625042915 176.14963898807764 59.115813419222832 53.928794868290424 51.611777164041996 81.231875687837601 53.975610077381134 64.380274720489979 47.194113165140152 57.410098671913147 69.707064896821976 52.762654185295105 67.501609191298485 62.354174330830574 73.63091553747654 33.729632556438446
leaf_count=391 201 203 234 2090 263 250 323 376 251 282 210 249 305 242 287 291 371 346
internal_value=-0.000278974 0.00915381 0.00391994 -0.0322064 0.0138407 0.000477941 0.00243149 0.000189045 0.0250729 0.0029036 0.000378184 -0.00461899 0.00558428 -0.0123026 0.0208119 0.0176622 0.0324369 -0.0372747
internal_weight=1208.37 933.334 703.337 275.035 180.388 522.949 469.02 424.298 229.997 372.686 308.306 157.367 150.939 99.9568 121.272 116.33 113.667 209.879
internal_count=7165 4338 3222 2827 784 2438 2188 1987 1116 1664 1382 701 681 452 521 542 574 2436
is_linear=0
shrinkage=0.04


Tree=37
num_leaves=21
num_cat=0
split_feature=39 31 10 10 38 26 21 39 39 10 38 28 26 21 26 30 8 4 4 38
split_gain=214.663 41.9858 17.5374 13.8666 22.4093 16.9108 16.2207 11.1734 11.439 14.7278 10.9587 7.7658 7.45186 7.21874 6.14267 4.85017 4.01372 3.13452 2.37683 0.965366
threshold=0.2332836900311728 2.4850000000000008 586.47593347123154 743.52746390668369 -0.92274349529687905 12.948333333333334 30.071428571428573 -0.97111920233974802 -0.49812626372919411 17.305000000000003 0.9053161325100999 0.65000000000000002 9.9983333333333366 24.500000000000004 9.4250000000000025 0.80666666666666698 86.073643657389823 30.800000000000004 28.250000000000004 -0.69057362043749781
decision_type=2 2 2 2 2 2 2 2 2 2 2 2 2 2 2 2 2 2 2 2
left_child=1 3 10 4 14 6 15 -8 11 -10 19 12 -9 18 -1 -6 -11 -15 -3 -2
right_child=2 13 -4 -5 5 -7 7 8 9 16 -12 -13 -14 17 -16 -17 -18 -19 -20 -21
leaf_value=-0.0057156135580929543 -0.029265226666598192 0.02259556159005011 -0.0068973741562624018 0.02506821428086662 0.031753526228415291 -0.016264220866705988 0.023287733936286026 0.011932756730528864 -0.0095019210107050132 0.0076810094692806672 -0.013629264924179294 -0.016523585830000929 -0.0097885348907138844 0.0097154004033587257 -0.025749857431391528 0.013378986952271958 0.022394076469971765 0.02316961195009918 0.036126884288871633 -0.038763988206356501
leaf_weight=57.751948960125446 38.645632982254028 39.638945654034615 47.055167466402054 47.487248077988625 49.43966181576252 47.838526338338852 44.597203060984612 51.316948920488358 47.680208891630173 51.699209049344063 38.813884004950523 61.625952795147896 47.898150160908699 53.808562248945236 42.508167654275894 46.800458788871765 73.727027431130409 61.949472159147263 72.514031410217285 175.73995186388493
leaf_count=286 384 203 287 204 226 209 190 216 244 223 244 267 204 251 206 204 305 291 371 2150
internal_value=-0.00027162 0.00951832 -0.0294949 0.00446037 0.00285161 0.00617849 0.00846921 0.00471187 0.00216902 0.00927979 -0.0336508 -0.00549404 0.00145332 0.0243112 -0.0143801 0.0230477 0.0164382 0.0170524 0.0315864 -0.0371955
internal_weight=1198.54 898.282 300.255 670.371 622.883 522.623 474.785 378.545 333.947 173.106 253.199 160.841 99.2151 227.911 100.26 96.2401 125.426 115.758 112.153 214.386
internal_count=7165 4100 3065 2984 2780 2288 2079 1649 1459 772 2778 687 420 1116 492 430 528 542 574 2534
is_linear=0
shrinkage=0.04


Tree=38
num_leaves=21
num_cat=0
split_feature=9 33 8 39 26 30 39 18 37 8 33 6 4 35 26 2 25 12 16 29
split_gain=202.816 47.9451 18.5649 14.0019 11.5683 13.2015 15.3204 10.916 7.98078 9.17931 6.63745 6.58829 6.36773 5.92216 4.8117 3.83086 3.60075 2.09726 1.10123 0.187905
threshold=6.9779576971809858 2.7135714285714294 90.948396887316036 0.39629089145655322 12.298333333333337 0.55833333333333368 0.097680735332368748 11.656666666666668 1.5000000000000002 84.79445371008299 1.4335714285714289 2.1750000000000003 30.800000000000004 6.1000000000000076 9.6783333333333363 37.500000000000007 9.578571428571431 6.4479591571473343 28.250000000000004 1.8857142857142866
decision_type=2 2 2 2 2 2 2 2 2 2 2 2 2 2 2 2 2 2 2 2
left_child=3 2 4 -1 5 -2 7 -7 9 10 -9 -4 16 -13 -8 -10 -3 19 -14 -5
right_child=1 12 11 17 -6 6 14 8 15 -11 -12 13 18 -15 -16 -17 -18 -19 -20 -21
leaf_value=-0.014727419518626661 0.021089835311807067 0.027723025094827377 0.021889434400883284 -0.040403801255791044 -0.018252798912741567 0.018428290618330737 -0.0077889558511599769 -0.0096751683885012724 -0.0011391521486437133 0.019639639320740355 0.0086430741828366249 0.0141673455723181 0.027726607154982649 -0.0034200035347060247 -0.027553911405901355 -0.016231495534112839 0.010856734165346089 -0.025534407190005437 0.039038499974575307 -0.033250534178374036
leaf_weight=64.190846130251884 50.245500013232231 39.130614340305328 92.06847271323204 117.25592351704836 49.340105511248112 61.827875673770905 51.335431911051273 62.627135276794434 54.920716911554337 49.532359033823013 61.974247500300407 84.526297777891159 39.185158684849739 47.215483725070953 32.235128492116928 52.068166196346283 45.28579306602478 32.26653078943491 52.842344015836716 48.151930242776871
leaf_count=391 226 209 393 1491 232 263 314 289 230 207 263 381 202 201 197 233 221 346 277 599
internal_value=-0.000264291 0.00852694 0.00409682 -0.0312778 -1.447e-05 0.00190725 -0.000396562 0.00335472 -1.40108e-05 0.00525955 -0.000567766 0.0137182 0.0272265 0.00788586 -0.0156484 -0.00856642 0.018908 -0.0365511 0.0345717 -0.0385337
internal_weight=1188.23 926.361 749.917 261.865 526.107 476.767 426.521 342.951 281.123 174.134 124.601 223.81 176.444 131.742 83.5706 106.989 84.4164 197.674 92.0275 165.408
internal_count=7165 4338 3429 2827 2454 2222 1996 1485 1222 759 552 975 909 582 511 463 430 2436 479 2090
is_linear=0
shrinkage=0.04


Tree=39
num_leaves=21
num_cat=0
split_feature=9 33 8 39 26 38 0 4 20 26 0 4 38 26 26 3 26 19 21 12
split_gain=191.126 45.0467 17.1853 13.9981 10.7351 14.584 10.5812 8.40805 6.86962 6.35153 6.94705 6.08408 5.214 5.68277 4.71238 3.39743 2.62809 1.48952 1.42798 0.0954022
threshold=6.9779576971809858 2.7135714285714294 90.948396887316036 0.42763731121559989 12.298333333333337 0.98522604642031408 10.750000000000002 42.650000000000006 48.500000000000007 11.481666666666667 25.750000000000004 30.800000000000004 0.61237135649459018 10.015000000000002 9.408333333333335 8.6500000000000004 10.138333333333334 82.500000000000014 23.642857142857149 6.3988841763722748
decision_type=2 2 2 2 2 2 2 2 2 2 2 2 2 2 2 2 2 2 2 2
left_child=3 2 4 14 5 6 -2 8 12 10 -4 16 13 15 -1 -8 -3 19 -13 -5
right_child=1 11 9 17 -6 -7 7 -9 -10 -11 -12 18 -14 -15 -16 -17 -18 -19 -20 -21
leaf_value=-0.0037572047798274557 -0.018398206295945733 0.025470666327962587 0.0252475431924272 -0.039000726928055951 -0.017638121806679834 0.022793091260683379 -0.0028502043291343325 0.014312928044433666 -0.013275697244141269 0.0020965469276548261 0.0085902906842971506 0.038652692336598626 0.010661128663202655 -0.01165907568814222 -0.024695995907315551 0.010552388414534817 0.010920124196728146 -0.02310621582822197 0.026414083766294508 -0.031071875877450958
leaf_weight=32.254818767309189 46.071858480572701 41.348469480872154 84.147759899497032 138.80665016174316 49.057866849005222 46.794067054986954 66.687575377523899 68.267383553087711 58.879947990179062 60.45631031692028 78.573282063007355 51.523736715316772 73.82398784160614 61.574902042746544 36.893112011253834 53.913177490234375 42.376373708248138 18.108303114771843 39.164415866136551 29.483573101460934
leaf_count=209 286 225 372 1838 232 201 306 303 293 248 355 275 316 278 226 239 205 213 204 341
internal_value=-0.000258535 0.00822504 0.00394227 -0.0308015 -1.60331e-05 0.00183327 -0.000499472 0.00169507 -0.00107719 0.0132135 0.0173058 0.0264713 0.0017692 -0.00187265 -0.0151217 0.00317878 0.0183219 -0.0365065 0.0337131 -0.0378034
internal_weight=1178.21 922.661 748.248 255.546 525.071 476.013 429.219 383.147 314.88 223.177 162.721 174.413 256 182.176 69.1479 120.601 83.7248 186.399 90.6882 168.29
internal_count=7165 4338 3429 2827 2454 2222 2021 1735 1432 975 727 909 1139 823 435 545 430 2392 479 2179
is_linear=0
shrinkage=0.04


Tree=40
num_leaves=20
num_cat=0
split_feature=0 21 39 1 26 18 6 26 4 18 12 22 25 12 4 5 39 38 26
split_gain=188.037 38.1448 14.5623 14.242 12.9781 9.43894 10.0582 8.99233 8.7982 7.47494 15.7782 6.84783 6.69226 6.69498 4.40277 4.58198 4.05753 3.9466 3.42076
threshold=10.350000000000003 34.642857142857146 0.51849435583340198 14.750000000000002 11.481666666666667 10.406666666666668 1.9450000000000001 12.948333333333334 38.000000000000007 19.021666666666672 93.009286175934236 52.850000000000009 9.5357142857142883 47.837560726104591 22.850000000000005 0.45000000000000007 -0.91595872546125101 -0.61237985104942771 10.546666666666669
decision_type=2 2 2 2 2 2 2 2 2 2 2 2 2 2 2 2 2 2 2
left_child=2 3 11 7 5 -3 12 8 9 -2 -11 -1 14 -14 -7 -16 -5 -4 -18
right_child=1 4 17 16 -6 6 -8 -9 -10 10 -12 -13 13 -15 15 -17 18 -19 -20
leaf_value=-0.025226405065710764 0.021828085441496371 0.019245428515531557 -0.022089348207577447 0.034581477740887365 -0.020366424337786772 -0.019973392955121586 0.016987515629365142 -0.0042386944697290607 0.025555946197816422 -0.014232673643651439 0.015077569682375239 -0.0050045550444521468 -0.0046060404282009162 0.013329356719622877 0.0051207178589756106 -0.012325368831267558 0.027087032870239787 -0.038621992516510918 0.011354765603268398
leaf_weight=62.953264094889164 54.741249538958073 46.811669610440731 33.538129471242428 63.876474380493164 42.795291967689991 40.371690683066845 47.255921766161919 46.757075235247612 81.639560550451279 46.005225047469139 77.536664977669716 47.149508334696293 72.704412698745728 59.873890221118927 44.040461145341396 51.050127029418945 58.871267467737198 138.91849961131811 38.728071928024292
leaf_count=388 229 229 353 338 218 204 198 195 360 192 364 321 364 259 205 253 326 1893 188
internal_value=1.66298e-05 0.00919888 -0.0282873 0.0169618 0.000203606 0.00268404 0.000172123 0.0118349 0.0147315 0.0096599 0.00413621 -0.0166898 -0.00284458 0.00353294 -0.00906647 -0.00427615 0.0265662 -0.0355527 0.0210228
internal_weight=1155.62 873.059 282.559 468.156 404.903 362.108 315.297 306.68 259.923 178.283 123.542 110.103 268.041 132.578 135.462 95.0906 161.476 172.457 97.5993
internal_count=7077 4122 2955 2192 1930 1712 1483 1340 1145 785 556 709 1285 623 662 458 852 2246 514
is_linear=0
shrinkage=0.04


Tree=41
num_leaves=22
num_cat=0
split_feature=0 1 36 39 7 4 10 33 26 7 28 29 26 31 0 29 38 3 3 34 33
split_gain=176.581 33.9779 21.1794 14.5685 11.6839 7.65999 7.28926 9.40946 7.25849 6.80567 6.07205 5.89493 6.02137 5.54036 5.45108 4.24927 3.98756 3.73709 2.94427 2.19108 2.02827
threshold=10.350000000000003 13.550000000000002 36.550000000000018 0.51849435583340198 4.3850000000000007 39.400000000000013 93.202505081297119 1.6478571428571429 10.245000000000003 3.7250000000000005 0.65000000000000002 2.9071428571428579 9.2650000000000023 1.385 8.0500000000000025 0.62857142857142823 -0.61237985104942771 8.9500000000000011 8.0500000000000025 2.9146666666666672 0.47642857142857142
decision_type=2 2 2 2 2 2 2 2 2 2 2 2 2 2 2 2 2 2 2 2 2
left_child=3 2 5 14 11 6 -2 18 -9 -3 15 12 -4 -7 20 19 -5 -14 -8 -11 -1
right_child=1 9 4 16 -6 13 7 8 -10 10 -12 -13 17 -15 -16 -17 -18 -19 -20 -21 -22
leaf_value=-0.015997255779037198 0.017364722555498899 0.0063643785994973627 -0.0017278796250144006 -0.021591400341509748 0.010603038790598983 0.010139810622557121 -0.014240599847896256 0.022035406283933391 0.0012203380000783161 0.039053111120220078 0.010881335423696856 0.0024903324736622176 -0.0098328322930319855 0.028363659050991311 -0.0064243634251759593 0.017017897050048521 -0.03833026836751853 -0.025913178866920236 -0.00022901562926913835 0.026459437520815383 -0.031948215280679725
leaf_weight=28.90187668800354 69.230206936597824 39.785052970051765 45.474803015589714 32.973764926195145 57.303617581725121 58.701305225491524 43.576387949287891 47.245153963565826 60.597058594226837 51.158007875084877 42.381916970014572 46.467960879206657 41.424498490989208 50.829771906137466 50.932217255234718 43.46436282992363 134.47430790215731 57.296539105474949 52.042571984231472 62.665950953960419 29.353666141629219
leaf_count=232 302 184 243 353 241 260 199 212 261 278 205 243 199 221 301 202 1893 294 231 347 176
internal_value=1.42777e-05 0.00887206 0.00398391 -0.0277631 -0.00510789 0.00988016 0.00625104 0.00240304 0.010458 0.0216664 0.0246685 -0.00986046 -0.0138303 0.018777 -0.0161699 0.0282913 -0.0351818 -0.0193319 -0.00669581 0.0324105 -0.0244381
internal_weight=1146.28 869.645 630.19 276.636 247.967 382.222 272.691 203.461 107.842 239.455 199.67 190.664 144.196 109.531 109.188 157.288 167.448 98.721 95.619 113.824 58.2555
internal_count=7077 4122 2906 2955 1220 1686 1205 903 473 1216 1032 979 736 481 709 827 2246 493 430 625 408
is_linear=0
shrinkage=0.04


Tree=42
num_leaves=23
num_cat=0
split_feature=0 21 39 7 26 18 6 22 15 18 26 25 26 4 3 16 2 39 18 4 4 25
split_gain=165.859 33.4688 14.5279 13.4681 11.8053 8.38946 8.86459 6.52394 6.38417 7.58294 7.83611 6.23856 5.65582 5.61751 4.75968 4.63921 3.75091 3.65289 3.0914 2.23468 1.92869 0.600447
threshold=10.350000000000003 34.642857142857146 0.51849435583340198 3.8450000000000002 11.481666666666667 10.406666666666668 1.9450000000000001 52.850000000000009 28.250000000000004 19.021666666666672 11.008333333333335 9.5357142857142883 9.9550000000000036 29.350000000000005 12.250000000000002 26.350000000000005 50.500000000000007 -0.91595872546125101 6.7350000000000012 31.150000000000002 26.450000000000006 9.2357142857142893
decision_type=2 2 2 2 2 2 2 2 2 2 2 2 2 2 2 2 2 2 2 2 2 2
left_child=2 3 7 13 5 -3 11 -1 9 -5 15 16 -13 -2 -15 -11 20 -10 -4 -19 -7 -20
right_child=1 4 18 8 -6 6 -8 -9 17 10 -12 12 -14 14 -16 -17 -18 19 21 -21 -22 -23
leaf_value=-0.024114224351727161 -0.0027288218807698236 0.018063168535191989 -0.03789316424129522 0.029180640637782914 -0.019606772904154034 -0.010039571982031507 0.01593106909105968 -0.0042439282566811148 0.036552576355285339 0.0084053387325435155 -0.0032758295274053053 0.012226584107770777 -0.0042364247964867844 0.021018228031724508 0.003658614588662686 0.02756547428217334 -0.018128513969819317 0.01425798161074285 -0.016588856870955883 0.028730050478333827 0.0015630461126235754 -0.029100663534839592
leaf_weight=61.659323461353779 62.982292756438255 47.032961748540401 126.56258957087994 48.282687187194824 42.292578503489494 42.81546438485384 47.075585335493088 46.611589886248112 49.46084813773632 43.637191638350487 43.132898151874542 61.430600993335247 70.973945431411266 50.349021896719933 50.764436736702919 38.865007787942886 44.474362030625343 37.539683699607849 18.630969479680061 37.698382645845413 47.58886706084013 17.411658108234406
leaf_count=388 278 229 1842 201 218 200 198 321 272 201 185 299 324 223 220 205 251 200 201 207 211 203
internal_value=1.22856e-05 0.00855689 -0.0272486 0.015888 0.000135344 0.00249343 0.000114066 -0.015677 0.0209381 0.0158224 0.0104988 -0.00272072 0.00343617 0.00662679 0.0124239 0.0176533 -0.00874548 0.0278903 -0.0348106 0.021791 -0.00398167 -0.0232556
internal_weight=1137.27 866.397 270.876 462.712 403.684 361.392 314.359 108.271 298.617 173.918 125.635 267.283 132.405 164.096 101.113 82.5022 134.879 124.699 162.605 75.2381 90.4043 36.0426
internal_count=7077 4122 2955 2192 1930 1712 1483 709 1471 792 591 1285 623 721 443 406 662 679 2246 407 411 404
is_linear=0
shrinkage=0.04


Tree=43
num_leaves=22
num_cat=0
split_feature=39 1 30 10 25 15 10 33 26 7 33 34 4 17 20 25 38 21 32 35 12
split_gain=156.617 34.0108 16.0197 12.5134 10.7984 9.44866 8.81501 7.66879 10.3628 7.11411 6.53686 6.24739 5.80028 4.45508 4.20826 3.52005 3.42846 2.7002 3.39742 0.844705 0.573527
threshold=0.33222858587828863 13.550000000000002 1.2116666666666673 596.31246166370943 11.092857142857145 13.550000000000002 106.40413252753501 1.6078571428571431 11.228333333333335 4.2550000000000008 3.620714285714286 0.61900000000000011 30.800000000000004 27.892857142857157 27.500000000000004 8.8928571428571477 0.86548282553247169 39.500000000000007 1.0550000000000004 11.05000000000001 6.210036005171875
decision_type=2 2 2 2 2 2 2 2 2 2 2 2 2 2 2 2 2 2 2 2 2
left_child=1 2 5 16 9 11 -7 -8 14 17 12 -1 15 -14 -9 -3 19 -4 -19 -2 -21
right_child=3 10 4 -5 -6 6 7 8 -10 -11 -12 -13 13 -15 -16 -17 -18 18 -20 20 -22
